[
	[
		{
			"bias": -0.897524329320306,
			"weights": [
				-0.407002652253491,
				0.844124784620537,
				-0.56962737001927,
				0.56747264534583,
				-0.961708254628679,
				0.768871884219754,
				-0.856014934301383,
				0.592912304491229,
				-0.320741887353706,
				0.153186262190894,
				-0.301394084608831,
				0.924521218018849,
				-0.250333346478759,
				0.0770771006192811,
				-0.323230298995287,
				0.296221889084635,
				-0.842240462471843,
				0.507772492015628,
				-0.214859009820437,
				0.176897340536535,
				-0.526535742695693,
				0.0805852013084037,
				-0.585663569898188,
				0.295843068182395,
				-0.284970599825015,
				0.315027940233717,
				-0.439967815503463,
				0.365758796392828,
				-0.49449915694748,
				0.990583667992886,
				-0.814562940418051,
				0.0335387271053804,
				-0.0691282210709096,
				0.749359072831522,
				-0.613395352986073,
				0.662701347898041,
				-0.588904487595439,
				0.869061445023439,
				-0.313360563815711,
				0.139901774438395,
				-0.730017856963996,
				0.465487354551908,
				-0.599899990373479,
				0.289646691496965,
				-0.283862277554901,
				0.560445905942258,
				-0.938750564909657,
				0.224488116393334,
				-0.710197396150296,
				0.622986303977453,
				-0.0072885853395149,
				0.213544124941007,
				-0.654545096519657,
				0.129871857878692,
				-0.459453352940946,
				0.326417450945087,
				-0.258461214722349,
				0.273784301836874,
				-0.28250204552012,
				0.646680316473477,
				-0.328904004185987,
				0.490269850009939,
				-0.0983213081130686,
				0.330283768067708,
				-0.337625166662338,
				0.260484982157149,
				-0.859102459868885,
				0.513576276445152,
				-0.455625677864008,
				0.678155283120215,
				-0.691712266947741,
				0.982088960243526,
				-0.188558199593043,
				0.076958244415562,
				-0.443839042618514,
				0.0638800785823036,
				-0.474947365709325,
				0.301772822037066,
				-0.0110709574010435,
				0.724570238833814,
				-0.376042546290789,
				0.215479565974595,
				-0.655561556879227,
				0.87151277804352,
				-0.983294937751859,
				0.601019008365003,
				-0.378993629958046,
				0.939255232365422,
				-0.289907527196953,
				0.287046086905761,
				-0.400432267067478,
				0.328149795559578,
				-0.580630884876379,
				0.654278882038474,
				-0.842904543573032,
				0.230323757096873,
				-0.263789709097946,
				0.38172446371916,
				-0.842456986432614,
				0.115162831277794,
				-0.600773403922941,
				0.514697063347548,
				-0.678234851118909,
				0.102589986918709,
				-0.880832855889006,
				0.027323071480705,
				-0.0245115072154046,
				0.581675009038443,
				-0.681159300319488,
				0.396263218943393,
				-0.851613816038973,
				0.95672138359245,
				-0.262426695442957,
				0.557929715401521,
				-0.270638761548973,
				0.113421359369154,
				-0.835021939793417,
				0.226455297239541,
				-0.335125106328254,
				0.760084964567327,
				-0.885861801455762,
				0.933800187577048,
				-0.210049698064553,
				0.19441015935591,
				-0.139111729031125,
				0.525296478293957,
				-0.230684337464164,
				0.62191549066354,
				-0.153710197383177,
				0.292676061205506,
				-0.608902880633599,
				0.283099545155706,
				-0.316883529975567,
				0.98692375723923,
				-0.024888780783884,
				0.938815062965874,
				-0.453691228581561,
				0.605984693121789,
				-0.955767080256243,
				0.949199399901654,
				-0.582892007931551,
				0.798427928610904,
				-0.256963638766311,
				0.894531552597376,
				-0.434816734430409,
				0.448123214957951,
				-0.0346924350696549,
				0.0391421164724398,
				-0.342444090356289,
				0.71910237348731,
				-0.358249843784401,
				0.20643201991384,
				-0.706364210202301,
				0.426030939666009,
				0.083910704495815,
				0.928790824244127,
				-0.0513036848283472,
				0.671668490169337,
				-0.698961664376007,
				0.598227927424386,
				-0.603655607670376,
				0.506207454565336,
				-0.303330166152394,
				0.497640654666564,
				-0.695839456744173,
				0.652291762770284,
				-0.600324205030523,
				0.26770044167373,
				-0.538362657436339,
				0.332609302221553,
				-0.658806650545656,
				0.229549452873373,
				-0.273229892080516,
				0.395332608992496,
				-0.140308266537826,
				0.113299797608684,
				-0.615705962246589,
				0.367426899486606,
				-0.708970816646735,
				0.867620810739126,
				-0.146487494024705,
				0.576808647855051,
				0.0985413247407102,
				0.686476895082321,
				-0.6867691656115,
				0.642356398955899,
				-0.165927876206859,
				0.24348498177033,
				-0.797198965987348,
				0.281994388307797,
				-0.700972217513698,
				0.896816443445016,
				-0.807133639521756,
				0.434395008842953,
				-0.299617148157984,
				0.0963021981877424,
				-0.480004732739726,
				0.783054947886128,
				-0.196166385644085,
				0.78328902122399,
				-0.832680033813314,
				0.805709938107325,
				-0.460780961576764,
				0.114203795327452,
				-0.0233404696551764,
				0.203147418471529,
				-0.837236973655166,
				0.642959600166032,
				0.178672869373394,
				0.274569088072028,
				0.0990843089073366,
				1.02233444823708,
				-0.746071230830975,
				1.06107581298579,
				-0.0827302686392967,
				0.382240579606363,
				-0.23921244070189,
				0.801984652899998,
				-0.669591493434219,
				0.136555024297557,
				-0.378217236087689,
				0.454228401524101,
				-0.398445276314877,
				0.307664840052532,
				-0.621662011450556,
				0.788387513154387,
				-0.416607645099538,
				0.842424813749511,
				-0.0775623653661214,
				0.0799241664478874,
				-0.605650467634405,
				0.945210792909326,
				-0.0782124274550386,
				1.02207772496872,
				-0.847015623986812,
				0.715520655236494,
				-0.601312791707142,
				0.311528638434605,
				-0.291018496729704,
				0.725807041627913,
				-0.589219533174397,
				0.801514782824013,
				-0.0216764147659789,
				0.904872030474147,
				-0.00546805488066937,
				0.813886494266386,
				-0.0521995370234911,
				0.815035023422001,
				-0.248524114843885,
				0.013249009757755,
				-0.740610038496239,
				0.724783213165135,
				-0.113707072096227,
				0.0574637042155432,
				-0.401693669979466,
				0.399088693365397,
				-0.37785220192856,
				0.213812982914499,
				-0.420512577211063,
				0.282429246592082,
				-0.710875968138272,
				0.135104805148177,
				-0.272470111247534,
				1.15481464148947,
				-0.157482266707682,
				0.503170355344059,
				-0.513998557965878,
				0.984955054901482,
				0.0861703459585098,
				0.686174804938596,
				-0.341229441529251,
				0.372464662124803,
				-0.139925081829239,
				0.0709574979013408,
				-0.470169081473612,
				0.610585755801146,
				-0.360747740950347,
				0.571505933763086,
				-0.206625335942283,
				0.819977371793015,
				-0.761400778096663,
				0.586578424838123,
				-0.591694588735411,
				0.0771279898533746,
				-0.329201666707138,
				0.891634030297198,
				-0.757534310951592,
				0.0744355876394346,
				-0.462414908501785,
				0.685813080704231,
				-0.0048981513270445,
				0.851927520774911,
				-0.422174585313668,
				0.476248507222124,
				-0.620176924422292,
				0.7859975150249,
				-0.193496171206152,
				0.151980239135491,
				-0.347420801745575,
				0.866528562053238,
				0.0381361650110182,
				0.150360094779766,
				-0.787268239696023,
				0.631277159732709,
				-0.596543234474623,
				0.460515952826244,
				-0.493315315493231,
				0.0724407480546838,
				-0.613401521668274,
				0.757830264483902,
				-0.0401770234791428,
				0.816120013226405,
				-0.979675867357356,
				0.616605204229004,
				-0.486536316364768,
				0.250055530726615,
				-0.330228484258432,
				0.443436673295064,
				-0.578931291833926,
				0.641344995616146,
				-0.314874129080704,
				0.90327819680211,
				-0.0833380913980046,
				0.549025643607202,
				-0.377045931929204,
				0.769762645976147,
				-0.585302592422529,
				0.988829637380352,
				-0.112595742762848,
				0.798342542355259,
				-0.320872341340899,
				0.264017942706002,
				-0.14041871104532,
				0.360226590213393,
				-0.80604550934391,
				0.619365918646604,
				-0.780449602400624,
				0.973739844265094,
				-0.491541559168667,
				0.865090221516053,
				-0.401884743789299,
				0.699585570747738,
				-0.422642893669383,
				0.897212577849549,
				-0.440689368921893,
				0.467539532782064,
				-0.618126075321127,
				0.0563708355086523,
				-0.622842952861453,
				0.905916544765743,
				-0.00152640014431839,
				1.03427470303167,
				-0.355697217864513,
				0.876289377512899,
				-0.282974720714769,
				0.30779453252251,
				-0.725852016939827,
				0.360677942611106,
				-0.121523874355697,
				0.866707841425772,
				-0.784297195228861,
				0.527893288221928,
				-0.899672799454627,
				0.834555400078286,
				-0.419754320728848,
				0.7868166768714,
				-0.643441744672047,
				0.622214027417495,
				-0.833062416451475,
				0.869562975915953,
				-0.344259228856003,
				0.578157332465455,
				-0.761648406463537,
				0.886368404557514,
				-0.104279662656721,
				0.808795192638672,
				-0.103556989487375,
				0.745041690427423,
				-0.684629725823719,
				0.213787398501042,
				0.0559414811014988,
				0.689909217629464,
				-0.101213786743892,
				0.514413529836135,
				-0.443444357437177,
				0.419815553376132,
				-0.783549983718212,
				0.326958186618435,
				0.020951808808587,
				0.506257948567128,
				-0.804808039091817,
				0.429833183704253,
				-0.816834061653671,
				0.6386745247871221,
				-0.0488324293580839,
				0.860612148137576,
				-0.796381043607849,
				0.610674648645275,
				-0.29816133576117,
				0.84930402616183,
				-0.613138836544203,
				0.170312873374096,
				-0.14606956919513,
				0.939394828263228,
				-0.157129858354936,
				0.986002606667202,
				0.146155039446159,
				0.750481398544786,
				-0.63179101581694,
				0.62365394283671,
				0.0823424008639852,
				0.338916960461222,
				-0.306276285219212,
				0.117609489941955,
				-0.771421826283095,
				0.194051692436517,
				-0.322556324225555,
				0.418369994548576,
				-0.283849864515677,
				0.0338404004805526,
				-0.963816822032611,
				0.338599296411853,
				-0.613164882391718,
				0.299788515730912,
				-0.0758811384847949,
				0.973723282677481,
				-0.540440158814988,
				0.334148704214149,
				-0.643750095743284,
				0.352756924591955,
				0.0412126281703935,
				0.685156687396074,
				0.0401270573708376,
				0.405814889569502,
				-0.122719205689163,
				1.07199714234075,
				-0.345889257274114,
				0.349823197379209,
				-0.0849014907915678,
				0.878965071646304,
				-0.200038513087978,
				0.271516699962825,
				-0.518992262741576,
				0.464858638555415,
				-0.461504785707938,
				0.553558242294866,
				-0.00778069631929792,
				0.763364445502653,
				-0.811642943935626,
				0.880764142141894,
				-0.49961876429949,
				0.367563072345613,
				-0.333910373670891,
				0.366399572929414,
				-0.672755509639737,
				0.466856522681794,
				-0.40304068475302,
				0.958650398482677,
				-0.789257106383693,
				0.386208703143572,
				0.0706507197294902,
				1.09067656172841,
				-0.609741167595496,
				0.559268163713392,
				-0.433586918619466,
				0.423780876153767,
				-0.058210004194171,
				0.348255189047765,
				-0.573199784900007,
				0.956391347051148,
				-0.646863965740417,
				0.1315148476977,
				-0.203855624314319,
				0.536528769609053,
				-0.739687819841048,
				0.75673743455532,
				-0.745629472539588,
				0.164431569818398,
				-0.799480508653139,
				0.546334197242221,
				-0.945720135778191,
				0.891205015491875,
				-0.353850470156534,
				0.982631646247684,
				-0.679086297519258,
				0.701189024876392,
				-0.252499823340119,
				0.895726929346909,
				-0.212434635039823,
				0.243607011019689,
				-0.201281875634965,
				0.659384318363455,
				-0.357104563741682,
				0.880378873030227,
				-0.560774656092643,
				0.529018317090042,
				-0.24252644539333,
				0.210318565295225,
				-0.853011912702234,
				0.191639854784773,
				-0.32562319032931,
				0.776947537522682,
				-0.0997432310487728,
				0.919454607212016,
				-0.154982093825149,
				0.405233881358866,
				-0.115877991851256,
				0.831915128175543,
				-0.593959568508212,
				0.0298499377140932,
				-0.572373054645704,
				0.396852626245649,
				-0.0151132000243867,
				0.389715007254202,
				-0.30220360395536,
				0.315692197068188,
				-0.269114062422902,
				1.16125485581092,
				-0.391092794358305,
				1.04004694555652,
				0.0835445942286085,
				0.406549321242231,
				-0.717678228308346,
				0.795818468323082,
				-0.315189062195446,
				0.244886959242488,
				-0.641801666017041,
				0.460833272320214,
				-0.767279715129541,
				0.337054093726405,
				-0.401450947659081,
				0.575827678486731,
				-0.258987071577543,
				0.659804009799456,
				-0.160293991074625,
				0.178454712114793,
				-0.763292570930135,
				0.506876614379458,
				-0.649509227459965,
				0.44014730695209,
				-0.449583645916937,
				0.553582395834842,
				-0.129003426680157,
				0.466928072086832,
				-0.160027577393215,
				0.373634053977361,
				-0.197716743045344,
				0.324179144264333,
				-0.280123461591268,
				0.566624842960045,
				-0.850606730474838,
				0.498221831432227,
				-0.438108328251734,
				0.047859847356513,
				-0.0548864196872326,
				0.110045364381925,
				-0.888802013093325,
				0.487503067802562,
				-0.481382067496019,
				0.976397361878053,
				-0.727954416874775,
				0.697085230419271,
				-0.991379225396327,
				0.281972804029356,
				-0.60817114886172,
				0.0672822300542705,
				-0.00232639436574083,
				0.521235397285851,
				-0.0626375345865928,
				0.272388851311188,
				-0.335916863759997,
				1.10117585041025,
				-0.0115676435704172,
				0.509962856090607,
				-0.0576810937371213,
				0.78707273278135,
				0.114525507639597,
				0.590595526661234,
				-0.0999223472818835,
				0.405069516803724,
				-0.616762917800585,
				0.589566356635886,
				-0.917421284969381,
				0.473363102896914,
				-0.333111788411881,
				0.0329733147127348,
				-0.0370591842162565,
				0.251931849268754,
				-0.554182834564252,
				0.106534202958125,
				-0.215684344892526,
				0.32261804090705,
				-0.00658298857795193,
				0.756403106858463,
				-0.628846059193099,
				0.906110744689525,
				-0.391935368362205,
				1.03308918314713,
				-0.674449416961893,
				0.488484601253122,
				0.133790744322659,
				0.25910326512139,
				-0.719766030766767,
				0.454004697487627,
				-0.744434992791113,
				1.11083035833783,
				-0.0277115820641332,
				0.384219784212902,
				-0.557716045193624,
				0.583262654661579,
				-0.9147196537669,
				0.564450829137616,
				-0.182359927158598,
				0.193510378503256,
				-0.24762967514933,
				0.16633455281478502,
				-0.723082863911018,
				0.576858470636754,
				-0.909757507567736,
				0.5966183146926,
				-0.0134973464947597,
				0.80299919008779,
				-0.854636126044825,
				0.0964557054421127,
				-0.943288840990278,
				0.256123017467739,
				-0.847216851354508,
				0.642314780119834,
				-0.438269327054721,
				0.762337981253998,
				0.20900300517788,
				0.406730095676959,
				-0.460104741280239,
				0.991916896296918,
				-0.135369584707574,
				0.801932601747326,
				-0.516528062203592,
				0.77976770282528,
				-0.419123917445842,
				0.393199116956529,
				-0.866119082274023,
				0.745281114716527,
				-0.614241450457025,
				0.987500420347,
				-0.182106764140589,
				0.676592864876889,
				-0.113416301008047,
				0.82404638922598,
				-0.483901093608036,
				0.510548229197642,
				-0.0905843636081106,
				0.9530291377238,
				0.0136598726374392,
				0.209725255085619,
				-0.293966832634819,
				0.324855377394307,
				-0.0711863902476992,
				1.02126591439252,
				-0.17828160019424,
				0.891013934271408,
				0.0709796800423833,
				0.724725943262309,
				-0.642138308012441,
				0.140396672197922,
				-0.488138415485828,
				0.743258230575086,
				-0.913039900532946,
				0.282088141165986,
				-0.970197237816062,
				0.531169012496443,
				-0.579593786540723,
				0.983486251897871,
				-0.127548534948169,
				0.515778396984459,
				-0.714231379043802,
				0.269852463769715,
				-0.169351214012258,
				0.916331387809149,
				-0.83796276457035,
				0.335271888554571,
				-0.00271864461063903,
				0.172209557772219,
				-0.965194677004226,
				0.147357463806945,
				-0.394776986052327,
				0.132603821504311,
				-0.169686574634126,
				0.494230226685724,
				-0.536677390648498,
				0.980126579219149,
				-0.544508184880462,
				0.670579567655434,
				-0.464979838401487,
				0.618369906045348,
				-0.422223557418073,
				0.21803302765384,
				-0.0409984599780049,
				0.513974265933955,
				-0.456399284561386,
				0.466791053519953,
				-0.778628477257969,
				0.817568439905331,
				-0.854293922111903,
				0.972004102981065,
				-0.911790765359251,
				0.125308380944694,
				-0.804493927773028,
				0.489518229394232,
				-0.473452884058979,
				0.0503230998118753,
				-0.089631611484378,
				0.232535608379085,
				-0.0899035399682052,
				0.922095139288561,
				-0.808901567350627,
				0.860072700669572,
				-0.646850572032144,
				0.630706936596536,
				-0.663133295484161,
				0.421111723116757,
				-0.517403352502392,
				0.425080610051591,
				-0.744508307983767,
				0.0162490514507502,
				-0.943600255045193,
				0.933495000883453,
				-0.483986970750748,
				0.506861386591038,
				-0.129941990193884,
				0.478200288246479,
				-0.228557084793484,
				0.67597677244348,
				-0.439464930791402,
				0.385498414934713,
				-0.539080081617839,
				0.205926781649213,
				-0.290442662446468,
				0.0178034983037768,
				-0.185674984189206,
				0.303842352273358,
				-0.310162907891816,
				0.703196762651231,
				-0.99571574680893,
				0.527802515399877,
				-0.835930627592464,
				0.369299152058782,
				-0.544512281485236,
				0.575830487937057,
				-0.815701911093425,
				0.522515891714371,
				-0.58079997389035,
				0.435307955002344,
				-0.842253064269,
				0.0343804252506275,
				-0.949757448374181,
				0.338262821705203,
				-0.109192664320205,
				0.819097018250775,
				-0.0283188591843093,
				0.978342117731619,
				-0.641388133088367,
				0.292089026141998,
				-0.365119008775787,
				0.991439789143597,
				-0.826193776562613,
				0.413586430501069,
				-0.793630501724343,
				0.703768857479098,
				-0.382769796189996,
				0.599174097963289,
				-0.574100873081451,
				0.637228028015689,
				-0.420043784255137,
				0.38389296105155,
				-0.0985979100087705,
				0.813403789896024,
				-0.452383323580781,
				0.17629582286847,
				-0.189587038892751,
				0.589396057380302,
				-0.375895276840727,
				0.906868714795852,
				-0.691249778816127,
				0.607808051913887
			]
		},
		{
			"bias": 0.323396341094466,
			"weights": [
				-0.794162130818778,
				0.833722812046168,
				-0.405082219468934,
				0.435588131395908,
				-0.200825014710811,
				0.0967861428376223,
				-0.471049228902463,
				0.989845836064706,
				-0.206758483409303,
				0.66179286952214,
				-0.0180427073585068,
				0.338120130513851,
				-0.988414783081607,
				0.714627771914855,
				-0.432725033405926,
				0.559466887113039,
				-0.854444141431918,
				0.193825075493113,
				-0.216514874350519,
				0.948577716922656,
				-0.943485508180915,
				0.0126486006251763,
				-0.473716331866438,
				0.922493359037905,
				-0.135953966125824,
				0.885821691195397,
				-0.933570316030444,
				0.628836452788131,
				-0.43915057016497,
				0.602446840890891,
				-0.734519420533683,
				0.600839309674147,
				-0.757299922343914,
				0.0934166769203978,
				-0.0381011854730012,
				0.572168147337853,
				-0.382281972213328,
				0.275085775861357,
				-0.167442400344009,
				0.517536586125328,
				-0.07886105356758,
				0.678292887855079,
				-0.196028935387159,
				0.70376219879027,
				-0.0859778647462582,
				0.49981269693574,
				-0.433829801691004,
				0.485102325993715,
				-0.746853018114586,
				0.0371959576827116,
				-0.518817748203051,
				0.715638604719323,
				-0.474734904465608,
				0.659230334991231,
				-0.954038821139391,
				0.781513530193601,
				-0.36000648017973,
				0.482588860431029,
				-0.299634251061046,
				0.31735258411536,
				-0.159074672684441,
				0.842327276024466,
				-0.544094594355005,
				0.616734097232716,
				-0.834356091016834,
				0.562217769512427,
				-0.320955647798101,
				1.13729288428845,
				-0.462266983760718,
				1.10765744280439,
				0.211239324912533,
				0.804827798985767,
				0.275095595887983,
				0.92784706439747,
				-0.838267999437381,
				0.400171218614178,
				-0.749019500573597,
				0.791384046770589,
				-0.817560833816951,
				0.668543050786498,
				-0.441345468286541,
				0.447506040790578,
				-0.869908095742533,
				0.410841993247551,
				-0.0809957054820823,
				0.0214757812309432,
				-0.126105964355181,
				0.100842511019364,
				-0.1342223269334,
				0.258153926104293,
				-0.247287620636572,
				0.846745410895146,
				-1.10247781571455,
				1.00981138389806,
				-0.0276447691145334,
				0.43218039005141,
				0.22174397611103,
				1.08966939494889,
				0.0312541120861859,
				1.45748198658915,
				-0.535569803860043,
				0.809323005371911,
				-0.846301156474611,
				1.0313174962584,
				-0.752278979703676,
				0.905270398160038,
				-0.722742975141805,
				0.669609469124028,
				-0.910217327168885,
				0.63186727704608,
				-0.98678136973376,
				0.593033625089113,
				-0.653939860246116,
				0.639363554938104,
				-0.885171024822204,
				0.69741047429935,
				-0.945270855403183,
				0.18428279651444399,
				-0.418390738830175,
				1.04185085575831,
				0.0893884836859406,
				0.757485693934075,
				-0.353172314515534,
				0.788418389714179,
				-0.594511824824068,
				0.183047670691412,
				-0.442114414169327,
				0.911746691496136,
				-0.10801372404424,
				0.695463295908552,
				-0.286621843031444,
				0.167392283358307,
				-0.939321467955287,
				0.257460467830044,
				-0.75821960026175,
				0.828047983629912,
				-0.733851582967956,
				0.823566785423965,
				-0.587885413466282,
				0.128261906316424,
				-0.319789048898867,
				0.365573784506681,
				-0.285146524205392,
				0.475728140355593,
				-0.250475672774569,
				0.687200734536241,
				-0.169208631478464,
				0.663411140840862,
				-0.967931950038066,
				0.851630391943195,
				-0.438592651627931,
				0.900827584895554,
				-0.337986072885374,
				0.745513466840474,
				0.268221438732576,
				0.398291326672096,
				-1.00871368185933,
				0.164868258553418,
				-0.249928600132079,
				0.430244155800835,
				-0.16539586910319,
				0.541925736081311,
				-0.292868576471684,
				0.348671226114199,
				-0.405670461857852,
				0.746913938172706,
				-0.620160140551169,
				0.500411170281744,
				-0.873958098177779,
				0.00883047904668014,
				-0.221146336145117,
				0.00750623111255351,
				-0.552639681495027,
				0.694676582985616,
				-0.757188114423851,
				0.705732841538831,
				-0.486373579190021,
				0.086016843607694,
				-0.471983642559182,
				-0.048639012968246,
				0.268524669731659,
				0.619549799607555,
				0.426488139850778,
				0.163022633616877,
				-0.846502261923918,
				-0.0321086498835307,
				-0.676982134429466,
				-0.216964267154138,
				-0.636667861662458,
				0.18854253407158,
				0.207883561099277,
				0.367847505220609,
				-0.432447250799254,
				0.996459446008493,
				-0.806747747204852,
				0.79945700417246,
				-0.98015139935429,
				0.0617054221336494,
				-0.218524903566093,
				0.545024528458605,
				0.0151014162766419,
				1.00976963862692,
				-0.255907680470356,
				0.821816287195805,
				-1.01378307556626,
				-0.0754963165498695,
				-0.714564428014586,
				0.565564162375041,
				-0.281909425064309,
				0.975178815495746,
				-0.131195533285202,
				0.653316021359953,
				-0.111957430115471,
				0.0568727028386229,
				-0.995638939183169,
				-0.260195594577058,
				-0.390018513299141,
				0.11783561892109,
				-0.842247726020497,
				0.446237036190437,
				-0.429143161689235,
				0.622224766617571,
				-0.687090156250506,
				0.559902440026781,
				-0.92408297102612,
				0.775818800714557,
				-0.525691875823649,
				0.709550429987456,
				-0.383774166711066,
				0.693443379895956,
				-0.362139941257728,
				0.421560459091168,
				-0.87655465219672,
				0.107854027584776,
				-1.03024524164165,
				0.611406302290982,
				0.650830758432441,
				0.692473298743648,
				-0.436082747160522,
				0.33370832013877,
				-1.26208899351896,
				0.208051915515279,
				-1.18765029285314,
				-0.0293270712770693,
				-0.339776379571696,
				0.179931473341653,
				-0.302015123302355,
				0.566991284439664,
				-0.088906689453459,
				0.914669421008163,
				-0.357160737835991,
				0.329739022845583,
				-0.128767208803344,
				0.849794985068635,
				-0.965864977936812,
				0.634318695113605,
				-0.00478309537320167,
				0.861345288960321,
				0.353652779240861,
				0.771220766223806,
				-1.52660486222172,
				0.491918471813788,
				-0.440478175171522,
				1.32397056711473,
				1.35261351546424,
				0.723187075726067,
				-0.650463011559889,
				-1.16156073750307,
				-1.14250663817502,
				-0.617369501249287,
				-0.429283469068171,
				0.216967203348197,
				-0.70195117764995,
				0.465792289688774,
				-0.382309285874974,
				0.577459583065173,
				-0.143235021857842,
				0.622879823294943,
				-0.482707337993045,
				0.348452125104912,
				-0.642730582456463,
				0.951079585929114,
				-0.400429101431833,
				0.798913224312687,
				-0.517743385099992,
				0.455193059996157,
				0.651022212694145,
				0.668784640974397,
				-0.860910570876538,
				0.352551238459299,
				0.577012271890725,
				1.72740954279588,
				1.04170066522946,
				0.418940233019254,
				-0.683451174069535,
				-0.873184040918276,
				-0.636601547255056,
				-0.0360599251989598,
				-1.10933602918762,
				-0.248374144014796,
				-0.598462130666163,
				0.605535890535062,
				-0.459369469697692,
				0.187250762237688,
				-0.376305241660541,
				0.324149562714867,
				-0.898441332043414,
				0.193793617729449,
				-0.463901766188038,
				0.527228836897607,
				-0.857804628016064,
				0.642892887318967,
				-0.390621935350175,
				0.304858892920229,
				0.235695491895367,
				0.405617239307435,
				-0.793365192209161,
				0.34188059555848,
				1.40368214483491,
				1.73707079914876,
				0.724877038921348,
				0.541905902182425,
				-1.34343736935654,
				-0.24858447357933,
				-0.637109844846496,
				-0.0246471591369253,
				-0.0708337520850382,
				-0.421184881088091,
				-0.709044376656161,
				0.136897128169164,
				-0.118642109621195,
				0.7552326916026,
				-0.480888014984255,
				0.281789574057375,
				-0.121693277618037,
				0.045275615571571,
				-0.780318953823376,
				0.201474541706694,
				-0.121180366659923,
				0.424435611240608,
				-0.611602130588551,
				0.648616230208902,
				-0.570848943504754,
				0.431485073378873,
				-0.443908088713103,
				0.700903641358455,
				0.17049579948768,
				0.776887956828382,
				-0.657239481546649,
				-0.498974091151704,
				-0.700121029797215,
				0.542343182565523,
				-0.482113993926714,
				0.418114037803396,
				-0.410646432616827,
				0.294180028424857,
				-0.662951143780852,
				0.138251924498679,
				-0.108285603323173,
				0.839534396601698,
				0.181399191168002,
				0.406877390366192,
				-0.551927921793224,
				0.224990041215951,
				-0.381147009101384,
				0.564761572233823,
				-0.905399518466855,
				0.347621969458651,
				-0.737109376420468,
				-0.0556019758543264,
				0.380074347584906,
				0.621660994884555,
				0.795327391104868,
				1.39672126472002,
				0.29899656658542,
				0.363579744864234,
				-1.80621506610172,
				-0.755282338538457,
				0.188826326196833,
				0.582004884993123,
				-0.445204226501892,
				0.644203458199,
				0.0795749536194225,
				0.517694833225694,
				-0.170061179197708,
				-0.162556317064898,
				-0.733109122796322,
				1.35826737355018,
				0.0993627551009394,
				0.499914027912345,
				-0.249096243676582,
				0.484156402917662,
				-0.131817583969708,
				0.791409948215368,
				-0.173630020562045,
				0.451965625862986,
				-0.462303341625329,
				1.11202272720017,
				0.571393918549181,
				0.232926309819199,
				-0.0933912645382127,
				0.120202237715753,
				-1.34851575383283,
				0.521250907325307,
				-1.53650857486219,
				-0.16305296984874,
				-0.0410234307215623,
				0.818656479716548,
				-1.41337803248164,
				0.766000276019895,
				-0.478292646741734,
				0.515106305101881,
				0.790391974693216,
				-0.0124708588397373,
				0.232513470200022,
				1.46430805218754,
				0.270257322037584,
				0.536638290921673,
				-0.689300338213158,
				0.0969824223613485,
				-0.615036815978002,
				0.198670111449917,
				-0.869809821093244,
				0.295675411009171,
				0.120766487925342,
				0.939602790939595,
				-0.506278948130612,
				0.0195416761127486,
				-0.116688877714296,
				0.581583818005889,
				-0.549651099510689,
				-0.362775089543331,
				-1.189821932516,
				-0.402532523066016,
				-0.747540215652923,
				0.547792863060407,
				-1.31596928913889,
				-0.157854839947347,
				-0.200674558724621,
				0.46344685813508,
				-0.372230778291134,
				-0.153507457237331,
				-0.232181259457507,
				1.59678306567079,
				-0.277363160976144,
				0.459785339729301,
				-0.724973468565907,
				0.492478777343501,
				-0.406016018735117,
				0.753487431382431,
				-0.0651648978163444,
				0.959513974491657,
				-0.136430150203766,
				1.04829377811677,
				0.119464299882449,
				0.724058962055946,
				-0.107278952656552,
				0.668858163715543,
				-0.420113415522189,
				0.671902679991856,
				-1.69793122450251,
				0.340831858835215,
				-0.372826598728742,
				-0.642025418020611,
				-1.85234668361548,
				0.0497670733485207,
				-1.5478833912408,
				0.102645742987463,
				-0.702356915479521,
				-0.28965762660595,
				-0.384281627180483,
				1.42707730652888,
				-0.251178660943339,
				0.107952326330917,
				-0.613443613443683,
				0.247948335164567,
				-0.268998869820032,
				0.340125062968135,
				-0.34883175324853,
				0.558761970875072,
				-0.453598732606985,
				0.416964541902788,
				-0.00362236063879326,
				0.50300871585896,
				-0.511617805082149,
				1.1586678646926,
				-1.05837913714084,
				-0.607215637954976,
				-1.03374444065272,
				-0.477904734108557,
				-0.675661376289357,
				-0.0610572408178909,
				-0.948884484866851,
				-0.113008967707414,
				-0.584533196659688,
				0.179243907800717,
				-0.253400240693808,
				1.13301620620612,
				-0.0656936775859018,
				1.12455684304613,
				-0.51515930797596,
				0.665475626723812,
				-0.619133402847253,
				0.76119614873446,
				-0.177538613128669,
				0.304721966473583,
				-0.395310210749713,
				0.828885578691082,
				-0.720770536580221,
				-0.19346876128117,
				-0.38273055776711,
				0.552795556974825,
				-0.404041732692373,
				0.567008001519771,
				-0.440403069482059,
				-0.298162444029767,
				-1.85454046332157,
				-0.176729639701631,
				-0.437421770852893,
				0.170754017128015,
				-0.835513395870384,
				0.549390522927476,
				0.493411487723727,
				0.817515011093769,
				-0.429875199808595,
				0.41491963742018,
				0.00646083238438511,
				0.418262010685518,
				-0.564441604535494,
				0.495710247924434,
				-0.265331272284839,
				0.338243979993818,
				-0.658630934846824,
				0.178179694686452,
				-0.0309530017796559,
				0.573863658861147,
				-0.363997743992151,
				-0.272795101371225,
				-1.0181581548566,
				0.110114139213043,
				-0.304479262184657,
				0.89560271647027,
				-0.42690688493595,
				0.304340004444959,
				-1.33016267852854,
				0.163784069384436,
				-0.689804415426133,
				1.00887706941115,
				-0.696782046664191,
				-0.0498772008874659,
				-0.0546327843194489,
				1.45916635609951,
				0.549853937689406,
				0.788088100567991,
				-0.42392960892426,
				0.322177194519082,
				-0.514196836795559,
				0.780881642186477,
				-1.00224179779332,
				0.859329058388123,
				-0.179416497321528,
				0.0369136744745072,
				-0.13924197064356,
				0.0372239273557905,
				-1.00116690448717,
				0.662304776815811,
				-0.794992251349833,
				-0.404301628898982,
				-0.0238307469133036,
				0.610538425459567,
				-0.32809752938543,
				0.34617414430564,
				-1.34115987454679,
				1.05604200418599,
				-0.0350182153162,
				1.00766585010072,
				0.347046227797188,
				0.775921008537186,
				-0.0429408704196295,
				0.344321783143327,
				0.728900329601206,
				0.140304881543806,
				-1.23086718531155,
				0.427539237740929,
				-0.434421592537227,
				0.255986090472045,
				-0.832273186107586,
				0.891705994978372,
				-0.699544945709278,
				0.0156868471971791,
				-0.175179053552484,
				0.283157690135749,
				-0.432333970822833,
				0.418835768966662,
				-0.718585518207822,
				0.231448557346939,
				-1.09982723718625,
				-0.0624443894215854,
				-1.07178484879334,
				0.911613063510247,
				-0.275938699585964,
				0.783637301563847,
				-0.309694498772555,
				1.01614466014552,
				0.656805618546713,
				0.208406218971624,
				0.488510178742297,
				0.885688636446358,
				-0.147803523758351,
				0.423592008236652,
				-1.09123207525263,
				0.0587663427495104,
				-1.1491265910626,
				0.630171806112232,
				-0.608431447746381,
				0.593101839711453,
				-0.143325834719233,
				0.552736372861553,
				-0.494116485104985,
				0.408843916443032,
				-0.127124263763608,
				-0.0471650383848309,
				-0.639511849053477,
				-0.334807317015176,
				-1.3067068950208,
				0.301089290715509,
				-0.313768411091334,
				-0.0318270777968946,
				-0.946775628795963,
				0.974531279624247,
				-0.265504759373829,
				0.900685690405355,
				0.00548656148123989,
				0.617582648451067,
				0.145922805316913,
				0.396312535973309,
				0.0925442050650116,
				-0.185113435354584,
				-0.81090903117182,
				0.1058746114115,
				-0.820607256781487,
				-0.0132445727534379,
				-0.474285667693552,
				0.938525630964192,
				-0.0847905804797963,
				0.919428599960836,
				-0.408883909146834,
				0.596115946683574,
				-0.135723938818493,
				0.662979505042469,
				-0.539665543082399,
				-0.229171688252692,
				-1.53344039499027,
				-0.485895910885632,
				-1.1481861401523,
				0.241770228833154,
				-0.380880795099844,
				0.92635287306149,
				-0.326018443571068,
				0.0421240435764281,
				-0.650159908872864,
				0.657713613556481,
				-0.071990514238415,
				1.11444471051548,
				-0.542082322083705,
				-0.0944856885911567,
				-0.931570661877638,
				-0.0410330234571501,
				-0.387071646801277,
				0.241078249727904,
				-0.491078047605804,
				0.833782313779826,
				-0.0173109187825168,
				0.0397669011912155,
				-0.774831826604408,
				0.0339164548192485,
				-0.831238519242492,
				0.383836554726798,
				-0.928966746794274,
				0.758699476199993,
				-0.472097921749998,
				0.534700719662754,
				0.095055180697395,
				0.332088198812212,
				-0.246287960770165,
				0.711497953628298,
				-0.583819935859849,
				0.0813710237690225,
				-0.333487142045332,
				0.456163468429315,
				-0.329288845296942,
				0.797031466401422,
				-0.235302601039819,
				0.313311874874069,
				-0.595093973267179,
				0.622346276251367,
				-0.242458991401298,
				0.835892243456853,
				-0.0533680601008606,
				0.92102632621351,
				-0.188004504045474,
				0.246868395361522,
				-0.386765801930532,
				0.750639451823411,
				-0.147782014424715,
				0.542332511268643,
				-0.221942439710726,
				0.934195544851572,
				-0.529531185536288,
				0.969407655206368,
				-0.305769983398672,
				0.19402732721658,
				-0.544436099542341,
				0.123549787951471,
				0.000929689558405414,
				-0.0894796514839963,
				-0.479964387855669,
				0.438296008819863,
				-0.146286756074232,
				0.636428623254944,
				-0.154473705588758,
				0.490608870145214,
				-0.360113651963021,
				0.773727388786834,
				-0.679177077225686,
				0.880788326049841,
				-0.384459040648005,
				0.821059981277706,
				-0.562307732907267,
				0.787974921422067,
				-0.901956998697462,
				0.92781818676166,
				-0.355375917750796,
				0.0098255435432822,
				-0.627291999104477,
				0.0648023641236309,
				-0.32241918477078,
				0.191201203965783,
				-1.02768958511051,
				0.667677285669232,
				-0.300051800793454,
				0.100877592597818,
				-0.537997480843021,
				0.776070927388507,
				-0.865019926964085,
				0.305324908174951,
				-0.0284962334515317,
				0.388780680800828,
				-0.222243167770858,
				0.135196272597348,
				-0.493372587477581,
				0.213398066967186,
				-0.742775440067862,
				0.821504219822088,
				-0.633659319315878,
				0.594095590801023,
				-0.961257309169163,
				0.411910200217697,
				-0.0837856610695765,
				0.248369977459484,
				-0.165475143730446,
				0.433032734355338,
				-0.29464777833864499,
				0.80394572932285,
				0.0143299614941843,
				0.586681524925462,
				-0.75554959332592,
				0.576272440299882,
				-0.294311414355898,
				1.05420017068967,
				-0.946604089285914,
				0.00864247444202233,
				-1.05492292792792,
				0.28832884425045,
				-0.927269518239227,
				0.220977181902027,
				-0.0332543019373655,
				0.30370683113867,
				-0.207542311607431,
				0.186384550111066,
				-0.77935659875132,
				0.999655225314039,
				-0.632163261357771,
				0.324889280518931
			]
		},
		{
			"bias": -0.517787634636177,
			"weights": [
				-0.696551201258111,
				0.188437145756761,
				-0.532192768776879,
				0.388464794209443,
				-0.0201205094438607,
				0.123695601301126,
				-0.911505710292377,
				0.291664007255651,
				-0.690684346338121,
				0.721131231040289,
				-0.933837951130158,
				0.736753840808176,
				-0.734028884986182,
				0.949528911624131,
				-0.20010824902543,
				0.63549436732362,
				-0.597121619897486,
				0.941020258674873,
				-0.266495412805348,
				0.320793647002798,
				-0.310286170481837,
				0.23249540302553,
				-0.475864847877931,
				0.940170548362737,
				-0.371713990053029,
				0.540094882966995,
				-0.636695122177105,
				0.203730255925902,
				-0.898533971932965,
				0.469013378708164,
				-0.165783795139652,
				0.800782855507351,
				-0.963778562947979,
				0.486719601485632,
				-0.310687936735277,
				0.361575223105527,
				-0.326265356125595,
				0.0955225601262032,
				-0.447329374497991,
				0.798153719894018,
				-0.0150731896661898,
				0.850876686422464,
				-0.284161079262443,
				0.590442565963452,
				-0.897117334720005,
				0.505265650029664,
				-0.384018814452145,
				0.322381407779521,
				-0.0632315317359264,
				0.516387061254404,
				-0.2166068814671,
				0.0586450100951543,
				-0.365667848552423,
				0.00409563351613266,
				-0.0131101706126287,
				0.464055798232581,
				-0.71257229787883,
				0.592022220414142,
				-0.0167507667279599,
				0.481585197473579,
				-0.485445811258866,
				0.708213657543975,
				-0.393434776497647,
				0.213054790980249,
				-0.626361567234783,
				0.139682276693012,
				-0.783455609999114,
				0.239657002942559,
				-0.334794366352094,
				1.0565358115607,
				-0.135499838434413,
				0.400297827500547,
				-0.599936638849474,
				0.355785036410617,
				-0.509404528049308,
				0.220380566156586,
				-1.14954182937172,
				0.751387520268496,
				-1.12663437944531,
				0.856256999029826,
				-0.189454113232833,
				0.296367454874539,
				-0.196788228674227,
				0.347646982105284,
				-0.28677839985433,
				0.107148828500485,
				-0.430403867644421,
				0.966074047837638,
				-0.478496345105485,
				0.817876999369947,
				-0.667914551427869,
				0.693386779027798,
				-0.1562930481236,
				0.790040490495803,
				-0.510087797406285,
				0.183750274744139,
				-0.263462310554104,
				0.202032942465288,
				-0.800293638533314,
				1.09745012929498,
				-0.342567047108511,
				0.408876088188678,
				-0.457948835470153,
				0.15386874370591,
				-0.550934882443188,
				0.32835477198792,
				-0.891142217800937,
				0.813764939401372,
				-0.612950037482863,
				0.566570344912489,
				-0.505128370579544,
				0.779155256589481,
				-0.599347393773192,
				0.170227637880759,
				-0.258938100897491,
				0.227476107193983,
				-0.59700425899314,
				-0.0654373574073439,
				-0.955902330843444,
				0.126179420768063,
				-0.86530595059195,
				0.689119624295371,
				-1.04491163137777,
				0.610152267362171,
				-0.17799433634082,
				0.598140379811946,
				-0.525957511947094,
				1.02446457680561,
				0.539415584923047,
				0.175415922396759,
				-0.652104053762954,
				0.854104954810737,
				-1.53624729732287,
				-0.100212132010325,
				-0.711103514772153,
				-0.163304383328102,
				-0.563364157512097,
				0.106466604669885,
				-0.0704217065315796,
				0.608737750281542,
				-0.563697806356334,
				0.537236865394393,
				-0.26427209805752,
				0.898412518013668,
				-0.410757432065402,
				0.60237676084272,
				-0.0899049959010436,
				0.375469279317617,
				-1.12572513452451,
				-0.390486223786327,
				-1.1108342425464,
				0.308984755448833,
				-0.161631512950969,
				0.831337672762379,
				-0.523884686075939,
				0.901201770419241,
				0.341186557858065,
				1.21585728119443,
				-0.82302342470058,
				0.546755962631446,
				-0.747028050945659,
				0.295862272620408,
				-1.04074274607422,
				0.275813977701682,
				-0.643598518914946,
				0.668229186415792,
				-0.818759565794082,
				0.437329776750601,
				-0.0759220049138749,
				0.127030066889768,
				-0.642259340656743,
				0.436835804975825,
				-1.26216968004757,
				-0.0497856702520008,
				-1.07668622964529,
				-0.209759663893318,
				-0.526100010815423,
				1.25014703486448,
				-0.413724752893227,
				0.488207598364206,
				-0.0796365957889538,
				0.659611574844615,
				-0.589619566030819,
				0.885203208351882,
				0.60515829108435,
				1.35136141959449,
				-0.566959567421714,
				0.805371371309228,
				-1.05183741662895,
				-0.0527801972510207,
				-1.46304614324978,
				0.124065711692228,
				-0.441285696201227,
				0.545819721509313,
				-0.360167109111084,
				0.578121377396061,
				-0.795614287701514,
				0.564150214576715,
				-0.277056689908156,
				0.594131566173435,
				-0.426502359373949,
				0.569230687725013,
				-0.83755356156437,
				0.509794169385128,
				0.105343414598459,
				0.938567401256859,
				0.10228416199408,
				1.43765671404007,
				0.125011176813316,
				0.752454770347339,
				0.192046295153562,
				1.64838610102968,
				1.963726635882,
				1.71281938499503,
				0.36818520548954,
				1.2649304224094,
				-0.0593266138668099,
				1.1023328357454,
				0.0588794460840113,
				0.0897483847946545,
				-0.616212475487903,
				0.468929693811163,
				-0.537845560667596,
				0.911239485196502,
				-0.297843396339228,
				0.0459717998442944,
				-0.463487230707332,
				0.303559411181448,
				-0.360857706132922,
				0.158073778369566,
				-0.306164137024828,
				0.939808048513982,
				-0.392149794509296,
				1.54449348397277,
				0.537635626259961,
				1.52094908191747,
				0.052192650927049,
				0.963749533236296,
				0.448394026518602,
				2.28927740926046,
				1.11719610254455,
				1.30428762483101,
				0.308464984782295,
				0.600277116616696,
				-0.031966019535612,
				0.553835576782917,
				0.689333661091662,
				0.783817235863421,
				-0.0188866715670708,
				0.600932262995658,
				-0.576426121148181,
				0.139720438284983,
				-0.163225569120508,
				0.269694563659437,
				-0.898400578262808,
				0.497534167734904,
				-0.655825751815457,
				0.804372641498004,
				0.115336042047717,
				0.80722792078327,
				-0.325838934940751,
				0.619008116232287,
				-0.300435707089516,
				0.710333955033936,
				-1.34796577912856,
				0.32754414161229,
				-0.211642915046069,
				1.33861649907556,
				-0.38580452063829,
				0.31217378186546,
				0.163095313151925,
				0.84584818970335,
				0.360111308077615,
				0.859275279263651,
				-0.534791601302924,
				0.999225020544126,
				-0.555620729872069,
				0.488594565597564,
				-0.000373929633610921,
				0.936584358253008,
				-0.954401611631104,
				0.130597668347437,
				-0.0977815402376215,
				0.443708323821501,
				-1.06179840023979,
				0.338612671203333,
				-0.501793299805948,
				0.0904231602993772,
				-1.20044578099261,
				0.0391865584135558,
				-0.348573364778976,
				-0.535605953354404,
				-1.69990417891784,
				0.0427640694861619,
				-1.45095578449652,
				0.869986717400668,
				-0.407689843453746,
				0.35020044806838,
				0.0582123225542378,
				0.456290251039797,
				0.180467897464283,
				0.764378095589536,
				-0.880999418594131,
				0.165112905677133,
				-0.0984694479374163,
				0.986186156415453,
				0.0451716210134799,
				0.677977294212988,
				-0.306167719767719,
				0.947278185275707,
				-1.02503443067579,
				-0.0780702994895935,
				-0.891974985710532,
				0.750696576359531,
				-0.0574075080810142,
				0.0981404871856062,
				-0.318574572688924,
				-0.515463600483942,
				-1.85240118445098,
				-1.61729346499955,
				-1.61197157645199,
				-0.223153564635389,
				-0.61827692783946,
				0.992512876856832,
				-0.896473240954191,
				0.481920766763966,
				-0.545529222277042,
				0.909268393787786,
				0.150707345225671,
				0.235395703540153,
				-0.98506190612859,
				0.00364979208733915,
				-0.659871613709594,
				1.00086389910095,
				-0.432488035234251,
				0.563578735149392,
				-0.278484240804932,
				0.939653067552609,
				-0.531146900541142,
				-0.0735934612624104,
				-0.151457836749384,
				0.0957393625364918,
				-0.839349887846967,
				0.138705749430893,
				-0.5627725115486369,
				-0.231670320461235,
				-2.31422721171059,
				-0.0138977392373358,
				-1.69228603477512,
				-0.384810729568567,
				-0.364732760675639,
				0.379543396464319,
				-0.433359663707881,
				0.13348966778622,
				-0.244465472140775,
				0.362553567461931,
				-0.460892517653028,
				0.248054379097112,
				-0.430199991177063,
				0.0757421953974787,
				-0.339347197496233,
				0.54041045929241,
				-0.249721205207023,
				0.286016076822537,
				-0.377569823957381,
				0.664077425433251,
				-0.343906485674163,
				0.759760632096405,
				-1.15529748519573,
				0.00209656248330298,
				-0.656654737462146,
				-0.309850395498676,
				-0.356204567914705,
				-0.400523420108827,
				-0.175035674786524,
				0.148820190759173,
				-1.26585219623296,
				1.18574072241751,
				0.549176687301099,
				0.990839374552456,
				-0.476468414103954,
				0.592455064484827,
				-0.731189732372469,
				0.0553622580259965,
				-0.656090362066741,
				0.051989415926366,
				-0.696138925514602,
				0.173220500231123,
				-0.769378704871194,
				0.355994198579143,
				-0.997156089874093,
				0.224867127254328,
				-0.722517317389511,
				0.853138888630616,
				-1.04706148481133,
				0.352583280227864,
				-0.928565181630362,
				-0.184261398242393,
				-0.45846781180317,
				-1.03674563570296,
				0.00769625004525376,
				-0.782507122652663,
				-0.603341913998726,
				0.282517882076005,
				0.412331960824558,
				1.33923022221217,
				0.0401976243279368,
				0.952530755835412,
				-0.673817109705922,
				0.147189259763027,
				-0.0713584525491364,
				-0.588884138685785,
				-1.15739402840927,
				0.26373239824836,
				-1.8842360381157,
				-0.54302543671826,
				-1.1743020952575,
				-0.0198083982457981,
				-0.225579390613295,
				0.999808625133415,
				-0.215302464322266,
				0.776900211916356,
				-0.934956848770873,
				0.222536034843335,
				-0.579691235677721,
				-0.0623192552483121,
				-0.436295009696825,
				0.01770504427514,
				-1.38022245180754,
				0.287168202205404,
				-0.882805487009481,
				-0.371999094345496,
				-0.0223579995316336,
				0.264660801161603,
				-0.481860303862564,
				0.0211420509276223,
				0.0762367067081994,
				0.0271397726293343,
				-0.897805587489384,
				0.0168233434487694,
				-0.772085260336715,
				-0.625808858052994,
				-1.64692592482775,
				-0.580656744263328,
				-0.998433318310489,
				0.265235864078503,
				-0.296824881448483,
				0.976599784945825,
				-0.89184757527636,
				0.848399900820062,
				-1.10686223384271,
				0.734006067615514,
				-0.179343637073535,
				0.141482351895316,
				-0.865987473401455,
				-0.1605483866957,
				-0.970779543868841,
				0.00545065688332896,
				-0.0264027586799131,
				1.15402457781806,
				0.320966271724251,
				0.490675202098278,
				-1.26807607887042,
				0.107274224204563,
				0.452846972493099,
				0.0642721007044933,
				0.064707306306648,
				1.32610011453311,
				-0.795624851214915,
				-0.624495643854354,
				-0.491698147234421,
				0.0627500208995214,
				-0.119453982696558,
				1.15518277634877,
				-0.286756140095754,
				0.130902071409563,
				-0.175399339839536,
				0.501472960355925,
				-0.832533916219767,
				0.895831509036905,
				-0.158601945343909,
				0.896977825995092,
				-0.895326280783349,
				0.231541599221696,
				-0.808779246766838,
				-0.0879207371956725,
				-0.256170125442402,
				0.637223697971613,
				-0.455431736935402,
				0.437608481954451,
				-0.807319324602345,
				0.32551385528162,
				0.555207323459746,
				-0.0947662010760552,
				-0.0301417645289548,
				0.593009013095496,
				-0.446600850002307,
				-0.46961363633202,
				-0.748327390658357,
				0.418924736008592,
				-0.662927311642346,
				1.02745238830225,
				-0.585311903795382,
				0.683615350873503,
				-0.82795414390278,
				0.801573185248709,
				-0.236165539659838,
				0.963672319075123,
				0.178329814085965,
				1.22723356063027,
				0.0826541153806662,
				0.967639651024224,
				-0.375581472787195,
				0.816820925046609,
				-0.709622672232525,
				0.789528233685853,
				-0.0496041150736325,
				-0.439608877236398,
				-1.26867590472699,
				0.00290961652416538,
				0.416569955585914,
				0.346951666246392,
				-0.0907472395801644,
				-0.128250350398647,
				-0.684051804653909,
				-0.259268160696504,
				-0.602407801936981,
				0.763362087703528,
				-0.119601533175799,
				0.861998031012568,
				-0.612717288333284,
				0.0890316638381118,
				-0.690414549764609,
				0.460743316434156,
				-0.662306796978657,
				0.506225864629073,
				-0.255226369962109,
				0.856002825257192,
				-0.289972976795525,
				0.849619291447332,
				-0.672820004879491,
				1.0508387086497,
				-0.45456026043746,
				0.570904750985077,
				0.0356055319042848,
				1.03103196472217,
				-1.28144741482038,
				-0.322866257543037,
				0.16311759738882,
				-0.10437404828091,
				-0.223909495637414,
				0.130596073814478,
				0.166995316995417,
				0.959154168959573,
				-0.384243393673918,
				0.730047279308471,
				-0.429398585948061,
				0.843400709939007,
				-0.532458153137705,
				0.392648661669428,
				-0.885444384014907,
				0.0129586777606675,
				-0.894444262985636,
				0.999601434869259,
				0.252184145921051,
				0.649932041681174,
				0.236397230034987,
				0.680897168609492,
				-0.505857637750514,
				0.7176556888822,
				0.0383644096283517,
				0.771171085790494,
				-0.0639121916924315,
				0.674928123993531,
				-0.738723513017677,
				0.116817063392471,
				-0.00497199101339502,
				0.465624873329835,
				0.130904356007953,
				0.476665180040433,
				-0.547540970782881,
				0.759926709827823,
				0.328627475265094,
				1.0058459623331,
				-0.416022540102938,
				0.441429818091165,
				-0.855172931064111,
				0.10409317971341,
				-0.66637515993362,
				0.410568182978203,
				-0.400544377169364,
				0.440871023324424,
				-0.0386175554304897,
				1.16645827601378,
				-0.0683959087234399,
				1.43903148597814,
				-0.250194159237409,
				0.478060686498907,
				-0.537820239332361,
				0.0161517269094565,
				-0.924076348359002,
				0.424484619397151,
				-0.485172115418015,
				0.586884213524178,
				-0.883572373796112,
				-0.628616566420651,
				-0.76189180174333,
				0.124416849066557,
				-0.611886089936854,
				0.0165342688095567,
				0.256906097019421,
				0.163497638213773,
				-0.252264274635971,
				0.199050971219109,
				-0.859948582684332,
				0.559808781966342,
				-0.935735499793754,
				0.282111855473783,
				-0.365553171300785,
				0.83963816201801,
				0.0930954456818309,
				0.451726651757913,
				-0.357445831734286,
				0.647537924250917,
				-0.214180163860781,
				0.96812988396975,
				-0.105707789970425,
				0.490467605167545,
				-0.04415395353016,
				0.239556114773247,
				-0.474570849814451,
				0.855920130996834,
				-0.393102538663762,
				-0.661835478450639,
				-0.03245871622362,
				0.625097498380454,
				-0.896786884069658,
				0.395449313174894,
				-0.637201026396928,
				0.673867906911007,
				-0.0706658123916323,
				1.03792126019396,
				-0.908816238677196,
				0.642164522019156,
				-0.19453661665066,
				0.345165611405468,
				-0.797486621682424,
				0.572765598964765,
				-0.541082588974325,
				0.346823948035183,
				-0.783951007229026,
				0.705332328762558,
				-0.590476820550203,
				0.483745165998146,
				-1.34859949637599,
				0.160141619983883,
				-0.292814484361997,
				-0.250791950667288,
				0.80345160602549,
				-0.0720360650775266,
				-1.2436995740232,
				-0.327007045177289,
				-0.536732840044204,
				0.102507113515458,
				-0.105374183794519,
				0.471547498791677,
				-0.725758827891004,
				0.626242786285493,
				-0.871404157044659,
				0.843476060038134,
				-0.937740050990452,
				0.422588288515149,
				-0.55881408581455,
				0.849547166772907,
				-0.55894319561187,
				0.210022369640298,
				-0.197107679877595,
				0.939261234643041,
				-0.172097056887278,
				1.10900742469022,
				-0.295057661958081,
				0.124301524858917,
				-0.481806533030117,
				-0.102103509142801,
				-0.292107722855281,
				0.700488443177515,
				0.755110733093996,
				0.625010693557388,
				-0.334235348763323,
				0.520326618263463,
				-0.795579473388392,
				0.328694624326116,
				0.375275300343736,
				1.14743717110847,
				-0.210068806607734,
				0.83392739201539,
				-0.351932526159374,
				0.0706205649076583,
				-0.538989937337984,
				0.517306559960035,
				-0.721185180694417,
				0.341582924752302,
				-0.584072450592823,
				0.824798029778995,
				-0.386118775710014,
				0.52894815713849,
				0.192533956198106,
				0.701955205419657,
				-0.0464266292007603,
				1.00708394002694,
				0.29699942922934,
				0.693309360093179,
				0.104462803865739,
				1.2607529522866,
				-0.127717970727165,
				0.554212949161662,
				0.263150153934082,
				0.560957885600106,
				0.145040253564225,
				0.881153463462044,
				-0.140391028056105,
				1.41260389894336,
				-0.0802378361650713,
				0.369272166979789,
				-0.903178784446975,
				0.292983621255386,
				-0.29226961634284,
				0.89731673099907,
				-0.271728335540615,
				0.828998912046197,
				-0.751603298239225,
				0.17192862577607,
				-0.391749162010396,
				0.89206586155078,
				-0.000869864674828997,
				0.9748405735663,
				-0.53771030819109,
				0.543400848635832,
				-0.624933590496441,
				1.30078004457737,
				0.00817109206669817,
				0.875501553763917,
				0.880899952916083,
				1.48034917223384,
				0.312362812747129,
				1.50010949442315,
				-0.480218351349099,
				0.548792890739218,
				-0.505294936091857,
				0.440368438829889,
				-0.157412832244572,
				0.15430156512063,
				-0.648551261195673,
				0.789980870108777,
				-0.185101935726172,
				0.761461980995472,
				-0.00682016508971349,
				0.410515445941368,
				-0.89066388406356,
				0.0978144663841531,
				-0.236067106270536,
				0.110840829991292,
				-0.0646607896262878,
				0.385697193826966,
				-0.889837036195136,
				1.00208649505227,
				-0.686019168879809,
				1.03459214897484,
				-0.372200922866056,
				0.398812534189382,
				-0.0850534575631102,
				0.311023775978863,
				-0.592795048118553,
				0.3479706592738,
				-0.461768508215608,
				0.28798056387325,
				-0.548554173496293,
				0.917918645459782,
				-0.494697257039101,
				0.115656419296397,
				-0.46858833332946,
				0.708656392855875,
				-0.207154878511631,
				0.0814186842559924
			]
		},
		{
			"bias": 0.861330453241864,
			"weights": [
				-0.637944079301294,
				0.489155027311833,
				-0.608142958305843,
				0.641835729890426,
				-0.353580353014907,
				0.742062552246294,
				-0.554072937254828,
				0.313838600792847,
				-0.668072532242198,
				0.722882202697397,
				-0.235067107824174,
				0.927980105824759,
				-0.0794924457695352,
				0.516828949175178,
				-0.702389117799587,
				0.105232519004431,
				-0.893213477867289,
				0.152055073134627,
				-0.467709067495404,
				0.767388854533149,
				-0.0969645651508889,
				0.537137565918796,
				-0.305584884856634,
				0.386860440665325,
				-0.853535912862763,
				0.259206815277788,
				-0.114929336176687,
				0.903826027598151,
				-0.767923268847132,
				0.629226133054693,
				-0.52740847017961,
				0.903700001958618,
				-0.991167526623367,
				0.860451683973197,
				-0.283870324431437,
				0.491215145862521,
				-0.0721791295828403,
				0.31585206456845,
				-0.0474247392250047,
				0.495262064926021,
				-0.832011355823274,
				0.927129459628333,
				-0.863207749297724,
				0.70872272109088,
				-0.113837649143396,
				0.405738754885065,
				-0.42035012365293,
				0.382808079522876,
				-0.79729133923737,
				0.0235333590430837,
				-0.574720182011717,
				0.556976823483616,
				-0.739445811016227,
				0.314029829722843,
				-0.420823069485288,
				0.100806513382497,
				-0.183570142455199,
				0.221282517640517,
				-0.788299815513893,
				0.0946978189509022,
				-0.626477817445284,
				0.650190299882074,
				-0.542146442550937,
				0.0524753293874431,
				-0.241460109026364,
				0.291863284770212,
				-1.00351111092033,
				0.161977373312873,
				-0.217263803713682,
				0.186715876764593,
				0.167737701125705,
				0.745820863731857,
				0.0242183685721574,
				1.0121223398144,
				-0.896161500698519,
				0.218993881841274,
				-0.529367855298961,
				0.68200175621983,
				-0.213791935241042,
				0.491201544178519,
				-0.835866266790392,
				0.739726459821168,
				-0.099567089741848,
				0.750373809947806,
				-0.0538512775925227,
				0.970807150458362,
				-0.203854997875193,
				0.640377476140777,
				-0.435628957074666,
				0.208686496815519,
				-0.288474593247328,
				0.901137777806689,
				-0.620668256998858,
				1.00354751382821,
				-0.880877411397029,
				0.104182258339952,
				-0.32654329266115,
				1.05108721985209,
				-0.49461325745726,
				0.851832446300703,
				-0.390193223166143,
				0.208174858674204,
				-0.0879766369333093,
				0.337711510994445,
				-0.331409502935967,
				0.735877357571205,
				-0.454931966278812,
				0.810198092773344,
				-0.464140386108063,
				0.285186822059342,
				-0.48846842281065,
				0.532218298656968,
				-0.00247539859380359,
				0.338351362547263,
				-0.296987757480934,
				0.86557151300495,
				-0.484091144491421,
				0.891370677757386,
				-0.735507128683881,
				0.555902538865922,
				-0.117092608155274,
				0.131087194954578,
				-0.84575206195127,
				0.0416902867759314,
				-1.28555866473287,
				-0.232833389446168,
				-0.307518695893378,
				-0.0636997944921493,
				0.287426000008274,
				0.685310006194719,
				-1.17732017811691,
				0.38927631403388,
				-0.706909942707268,
				0.159310396434925,
				-1.33376379122484,
				0.323453753070491,
				-0.687202148766277,
				0.329509776578327,
				-0.84291872083742,
				0.0571619777067098,
				-0.488248118426766,
				0.412127214675828,
				-0.301006346766457,
				0.155348592241122,
				-0.670342450969103,
				0.938912896255989,
				-0.854815185963103,
				0.210057074987625,
				-0.911475117698264,
				0.559812076070927,
				-0.77589944021338,
				0.378846839748981,
				-0.944423183325667,
				-0.0956862709122529,
				-1.16614117227504,
				0.237965691366916,
				-0.265093761563023,
				0.362302766278684,
				-1.55412532146468,
				0.731498490873007,
				-0.953933762259888,
				0.669324844905798,
				-0.502923859125371,
				0.680902634012793,
				-0.347516636972976,
				0.656850234963747,
				-0.359220024609342,
				0.595848771161787,
				-0.355245447883031,
				0.623733678641293,
				-0.325266147686876,
				0.0173026152584306,
				0.0168077211592715,
				0.928502796308312,
				-1.00989288718272,
				0.849362947545123,
				-1.02826569613078,
				0.761228362014395,
				0.0259428872316128,
				0.419587364510128,
				-0.139035651761769,
				0.221457294479817,
				-1.2301020779912,
				-0.301324308683175,
				0.368822759231866,
				0.764748089874877,
				-0.709678347237745,
				0.675113746789794,
				-0.582465737570836,
				0.912613192403242,
				-0.215169061594083,
				0.360251725590293,
				-0.928258926682884,
				0.757357109818471,
				-0.294832328736166,
				0.0819059889677365,
				-0.794302731616634,
				0.526661789188212,
				-0.859742024664027,
				-0.00125453706452705,
				-0.461533689099136,
				0.213812659563316,
				-0.816118620735465,
				-0.0562436999690265,
				-0.37966220240178,
				0.924904116541338,
				0.176346203117008,
				1.53800486122467,
				-0.273449308760719,
				0.636498398081068,
				-0.102288106200223,
				1.36681652023033,
				-0.119606641452526,
				0.688534935583508,
				-0.316206670180173,
				0.863023787108361,
				0.092626604899368,
				0.698137029539203,
				-0.492963216391292,
				-0.0180802005195686,
				-1.39171275227932,
				0.14651669462390502,
				-1.01064563148822,
				0.569233526717294,
				-0.412937328137968,
				0.808414194903494,
				-0.160383318019956,
				0.196801588789673,
				-0.80853456080119,
				0.462850357343368,
				-1.00807087036639,
				0.636719646188744,
				-0.596584960678888,
				0.920143856593732,
				-0.362603477375975,
				0.376552555567427,
				-0.595898718591389,
				0.0696604124906362,
				-0.434578747158313,
				0.930360110394254,
				-0.524672376041231,
				0.910091767961547,
				0.171941409179492,
				1.27405048387313,
				-0.0642662549468467,
				0.60991700546037,
				-0.940065809649838,
				0.0513479190223904,
				-0.85211810300028,
				0.0809806855857772,
				-0.110803396025672,
				0.337564579479751,
				-0.802876761193314,
				0.732359626007002,
				-0.17154220543009,
				0.079359680729926,
				-0.506908822879437,
				-0.191299601676623,
				-0.736472030559983,
				1.16814556823077,
				-0.319183375084414,
				0.805316590821831,
				-0.165143507445712,
				0.427271110483564,
				-1.27760911418849,
				0.519460600132557,
				-0.0912490399620115,
				0.435954196789818,
				-0.416151615965002,
				0.840270093822343,
				-0.443391855581385,
				1.02149559331769,
				-0.671205690910372,
				0.296832357154765,
				-0.619517626528483,
				0.297003531418633,
				-1.32264868653403,
				-0.0256983720384958,
				-0.0357110711904931,
				0.0638778314597918,
				-0.101557289394136,
				0.732785503745232,
				-0.97238198481572,
				0.317531957943469,
				-0.688162191197654,
				0.423232814455818,
				-0.724531052867031,
				0.969238981055835,
				-0.386399720110369,
				1.37613720319542,
				-0.417332222478032,
				0.697446812737147,
				-0.990288170971396,
				0.369118590964764,
				-1.01770455539761,
				0.785381315976134,
				-0.616789511612121,
				0.482083644574502,
				-0.920166432548066,
				1.15062253068273,
				-0.414343090426552,
				0.186372270305276,
				-0.722247476810137,
				0.17327837916161,
				-0.787587699196692,
				0.216710912625205,
				-0.429494705178873,
				0.45948044988057,
				-0.414359383788202,
				0.21777961530656,
				-0.105648915603469,
				0.207589188746965,
				-0.269830309357222,
				0.666238253772124,
				-0.450217039220579,
				0.986136232732546,
				-0.0843970615490977,
				1.49749005969898,
				0.169643260307311,
				0.570266041676541,
				-0.174255905114386,
				0.0530712922152182,
				-0.426521025791033,
				0.784652440964973,
				-0.794342534475569,
				1.05812266320829,
				0.0895116781386984,
				0.470884117154441,
				-0.680311160171838,
				0.876296049909717,
				-0.311629799311569,
				0.105747176106939,
				-0.433991182044088,
				0.130626577573705,
				-0.82860024366528,
				0.850515779655005,
				-0.0271940718701562,
				0.353279207837375,
				-0.911208204567768,
				0.237424503704657,
				-0.178137863743749,
				0.292755100218017,
				-0.169160363704692,
				1.10421545560464,
				-0.237808177129703,
				1.05933561340287,
				-0.118424915067502,
				1.62729329222723,
				-0.466043078254713,
				0.603334165565664,
				-0.0529280880351848,
				0.907283779170628,
				-0.188388595070869,
				0.60232120216824,
				-0.503842508468091,
				0.29374625057574,
				-1.14663162351474,
				0.328235102933325,
				-0.793586088152291,
				0.778899941864063,
				-0.0637848105217143,
				0.0212743257602286,
				-0.972688863835349,
				0.573911669003688,
				-0.870409656985579,
				0.805324174749162,
				-0.971318702641405,
				-0.035443615252851,
				-0.718123470362459,
				1.03758528874486,
				-0.22518718443229,
				1.00138315174697,
				-0.209790591527525,
				0.991250025383944,
				0.330650176195179,
				1.39010320124813,
				-0.27018199253034,
				0.199581255156396,
				-0.0683713533191016,
				1.26706276026019,
				0.588919361441924,
				0.362138939114976,
				-0.500122162447624,
				0.294544962239057,
				-0.788594485583701,
				0.776746514046283,
				-0.78170694285796,
				0.710294441355579,
				-0.452559428790891,
				0.632547649335691,
				-0.926161447652363,
				0.319429373735153,
				-0.704103080174543,
				0.329469856877844,
				-0.141313772280402,
				0.132112148851698,
				-0.0234764694908022,
				0.252082596207384,
				0.0646279813813206,
				0.90487845878617,
				0.115031877032323,
				1.01863868619698,
				0.068728241011268,
				1.1447133426809,
				0.400326966660073,
				0.00589770314866665,
				-0.293232032809465,
				0.418062875212638,
				0.419040255439345,
				1.26572519252352,
				-0.392693400307796,
				0.277004627704236,
				-0.446809592752318,
				0.164055235108875,
				-0.159591586928135,
				1.04995331087909,
				-0.496655447040673,
				0.572167305776163,
				-0.876578810977236,
				0.235800376122572,
				-0.802829632363992,
				0.232388175840579,
				-0.578736072541871,
				0.166724929345538,
				0.0763093559618335,
				0.289887597245498,
				-0.0809708348467463,
				0.772357531516987,
				-0.438743095644684,
				0.622365907605536,
				-0.676395316783084,
				0.00113146677034052,
				-0.630584665718058,
				0.413501328330183,
				0.270163781485883,
				0.790310808318088,
				0.067981406115315,
				0.628433831590148,
				-1.01828257351272,
				0.913473617013515,
				-1.02124564949868,
				0.757168831502519,
				0.129479077534136,
				0.80831477459741,
				0.17311606249681,
				0.249594925290567,
				-1.04827903761456,
				0.596350431672066,
				-0.908019894389227,
				0.315034630273909,
				-0.529482453701415,
				0.736001250686358,
				-0.105317113859542,
				0.898531412259758,
				-0.877243459006181,
				0.45084092615535,
				-0.0566722122895385,
				-0.472631335428931,
				-0.592836818408156,
				1.33990634711496,
				-0.389740116567963,
				-0.00485360825590344,
				-0.222827939041381,
				0.52295120093667,
				-0.502568845492455,
				-0.0505282443227932,
				-0.386194410626081,
				0.948800150159506,
				-1.10544456390029,
				0.837145441158287,
				-0.362165970870959,
				0.44838820115163,
				-0.45921142205689,
				0.251979942579113,
				-0.398029413886955,
				0.0939069088368342,
				-0.849767632246841,
				0.109525593542991,
				-0.923997546079999,
				0.815788153904904,
				-0.430829659889015,
				0.487822641092824,
				-0.666713525593264,
				0.493642646952179,
				-0.704642908542564,
				-0.109878003538335,
				-0.977094256042515,
				0.0446723331936636,
				-0.984096917811594,
				0.541593480468683,
				-0.596869293317345,
				-0.190096652334533,
				-0.869160672310597,
				0.836813292050113,
				-0.507931616805952,
				0.861386919833686,
				-0.356344500339594,
				0.759794903535012,
				0.191322745585478,
				0.725174949449094,
				-0.782486097606989,
				0.290329760130639,
				-0.673685401071363,
				0.0277740447084767,
				-0.540904892912877,
				0.385170309471174,
				-0.92958795020994,
				1.0045283889543,
				-0.574978159685751,
				0.500260151705807,
				-0.924510939656462,
				0.399200341561988,
				-0.766082606987126,
				0.114583417138432,
				-0.76812754786287,
				-0.197236634249669,
				-0.814440890489835,
				0.802668109174267,
				0.0824685489294772,
				0.461215349994915,
				-0.932985564042064,
				0.470211353187646,
				0.546741925735225,
				0.418035685693642,
				-0.548862840938629,
				0.885856212696313,
				-0.200478815684737,
				0.941767148905185,
				-0.339841457559017,
				0.473504728084021,
				-0.891136749524814,
				0.909178915770181,
				-0.864852198665936,
				0.819051809574122,
				-0.778113454449867,
				0.189630567294074,
				-0.31804453742912705,
				0.116592380921076,
				-0.73290368879432,
				-0.379944712954967,
				-0.386405152970954,
				0.192522634352196,
				-1.165832125598,
				0.526886642653863,
				-0.720768467595443,
				0.454279480062128,
				-0.728649755098539,
				0.157421088170586,
				-0.461508203481622,
				0.195251874766767,
				-0.162638590973234,
				0.482746972094481,
				-1.15918102081984,
				0.915131965078356,
				-0.448699289631226,
				0.236164539100836,
				-0.0352752185142878,
				0.479497024242683,
				-0.69898938802528,
				0.833031248009667,
				-0.771058048946344,
				0.273852769692298,
				-0.480679726982489,
				0.00726672853688976,
				-0.434420380551153,
				0.077587877047308,
				-0.617371059345796,
				0.227384184053097,
				-0.759492357206621,
				0.49129628219483,
				0.449857993124244,
				0.61824316595169,
				-0.69325079525093,
				0.694804894871278,
				-0.494059707226604,
				-0.0855019877854497,
				-0.95116469566675,
				0.11992473671535,
				-0.717335314300356,
				0.900595879814859,
				-0.729217752003118,
				0.224912658268514,
				-0.50457544812025,
				0.693564321132083,
				-0.994273876612189,
				0.44962736616248,
				-1.00524683490206,
				0.930204263300035,
				-0.390387116212224,
				0.575753913402618,
				-0.0470242925623224,
				0.469113177763476,
				-0.298093789694528,
				0.0833433190532975,
				-0.490566888314282,
				0.686637539802088,
				-0.279691008633851,
				0.529983172940922,
				-1.02925562049523,
				-0.0127202078212331,
				-0.230873587374375,
				0.857051530865111,
				-0.531200144148236,
				-0.409397597649906,
				-0.920570676703773,
				0.87054466565526,
				-0.756529487372624,
				0.601772812688121,
				-0.831405021572034,
				0.193865481062816,
				-0.460821088034361,
				0.303498657132191,
				-0.969585764739859,
				0.782755327911591,
				-0.0628673630974495,
				0.432564637492311,
				-0.0414230763477563,
				0.503365310473175,
				-0.191397010915955,
				0.398750518863866,
				-0.473174665490554,
				0.337824192218936,
				-0.63339854429208,
				0.987452183991577,
				-0.399699572267173,
				0.33127702732681,
				-0.346841812828482,
				0.73434477759589,
				-0.235996072367263,
				0.479673447971065,
				-0.156844450116578,
				0.00589089677124262,
				-0.605896081068811,
				0.290507367762605,
				-0.83135921282697,
				-0.139790955520322,
				-0.581581247727273,
				-0.371457242543417,
				-0.854500373051311,
				0.727021652727653,
				-1.02638821334311,
				-0.0151807430628519,
				-0.211045016121249,
				0.214589729206549,
				-0.387762021919602,
				0.258058486160849,
				-0.778703534668792,
				0.242452646729574,
				-0.0861816641633448,
				0.940343907925188,
				-0.556380864046075,
				0.379971613585591,
				-1.05689391901169,
				0.0973811260111922,
				-0.643804259561582,
				-0.0526250257839211,
				-0.329115073386168,
				0.664309618178989,
				-0.435995545728095,
				0.0133156634119178,
				-0.216029371875263,
				0.544683990015026,
				-0.365795293931263,
				0.477654865342458,
				-1.18779610376715,
				-0.304303193112261,
				-0.339584208325623,
				0.0805139164984046,
				-0.419333137115173,
				0.874449862556356,
				-0.813099088599737,
				0.867093363249252,
				-0.125898023194586,
				0.209652107306594,
				-0.624080958985808,
				0.501504447761531,
				-0.740160924019154,
				0.838526027555671,
				-0.418928733111458,
				0.10524008402606,
				-1.02580279790565,
				-0.0192389175726553,
				-0.812535052633453,
				0.632973144535705,
				-0.763124937278475,
				0.426630340856254,
				-0.213085818965702,
				0.890906381201629,
				0.0309498862473714,
				0.206442200870401,
				-0.580857422677969,
				0.820115924306705,
				-0.583716532254006,
				0.111004904436309,
				-0.585976981645674,
				0.0352316969717356,
				-0.757513931174739,
				0.928287850526215,
				-0.249681906539214,
				0.272850718941936,
				-0.253535837053105,
				0.589931251290222,
				-0.904313406707399,
				0.245970845604367,
				-0.011879096528994,
				0.887188052615662,
				-0.421227029730966,
				0.487677515107473,
				-0.505748238672106,
				0.0536164571971453,
				-0.353573196980265,
				0.847878580955042,
				-0.209182591573844,
				0.613835968306745,
				-0.273390618361735,
				0.156874338171981,
				-0.407144107411185,
				0.52740797299691,
				-0.512047516986799,
				0.416750733378657,
				-0.649763641435456,
				0.387924872981898,
				-0.0518799099122677,
				0.138203461611957,
				-0.373047346480707,
				0.962435586753728,
				-0.34993160785282,
				0.794598888510186,
				-0.724296393675868,
				0.588246075244735,
				-0.694700187861314,
				0.0282822541323395,
				-0.464421200996513,
				0.30942175840735,
				-0.850402580911688,
				0.144243097405225,
				-0.313183203955031,
				0.374164417048798,
				-0.739407069820249,
				0.799433227577337,
				-0.260664586523362,
				0.839605753419911,
				-0.143603497699811,
				1.00916681919407,
				-0.927540556286917,
				0.578632978964343,
				-0.6819671259844859,
				1.01572447332972,
				-0.968550219111758,
				0.307753726361313,
				-0.716208193329074,
				0.25899160682873,
				-0.306424111675007,
				0.962869896349436,
				-0.504630888115908,
				0.89292337414479,
				-0.493766024473014,
				0.771184446183585,
				-0.864521956473832,
				0.0616688430596464,
				-0.539406157768944,
				0.612341375744526,
				-0.791942628055124,
				0.862316701157291,
				-0.419638355097668,
				0.255218752130744,
				-0.498962797475676,
				0.843815520788088,
				-0.648734016679285,
				0.219287515239747,
				-0.767115316319139,
				0.0377090368288229,
				-0.65241885638276,
				0.83905401732479,
				-0.0225625534473294,
				0.93402383917282,
				-0.167031804264627,
				0.104686507882871,
				-0.222292143933156,
				0.812303045418235,
				-0.272774578199151,
				0.353180994909807,
				-0.804229175580772,
				0.41138899252349
			]
		},
		{
			"bias": -0.729834036310126,
			"weights": [
				-0.415011050372855,
				0.723156241105476,
				-0.50112445210159,
				0.807668554972703,
				-0.990253127641162,
				0.621596327806635,
				-0.600574326981126,
				0.432547410220163,
				-0.746789039460378,
				0.239082066919227,
				-0.658980346126007,
				0.0382035412072221,
				-0.338631514091365,
				0.546338477486876,
				-0.681009100121092,
				0.0489603588733489,
				-0.8334430995553,
				0.359471396710478,
				-0.764802643454076,
				0.51221786183874,
				-0.69206350142698,
				0.62912769551814,
				-0.463853290054879,
				0.947317399060036,
				-0.566710367131378,
				0.729459148705685,
				-0.36732470214708,
				0.570816786294252,
				-0.0317749180978979,
				0.788894264860495,
				-0.18623373619571,
				0.808039236258734,
				-0.380706776111994,
				0.997185420336636,
				-0.00837520971598276,
				0.528651826602644,
				-0.994755235234878,
				0.0485630837656665,
				-0.646902987976286,
				0.604079205733036,
				-0.200094985968033,
				0.602282042393157,
				-0.90881464511078,
				0.598546610001425,
				-0.361796175027117,
				0.899750465381238,
				-0.824857814814927,
				0.580057331830736,
				-0.519480597490122,
				0.783691933666305,
				-0.439407796868803,
				0.993709607101404,
				-0.0394265321266961,
				0.89917113068475,
				-0.169266951814884,
				0.785883354854716,
				-0.259302951050598,
				0.553807053041555,
				-0.240958187839064,
				0.260794054572413,
				-0.254271653793399,
				0.0297575504430717,
				-0.40077248215631,
				0.957906710307101,
				-0.0527970173704612,
				0.850879365156082,
				-0.657153642442346,
				0.342891065181092,
				-0.52386739322429,
				0.162654270746546,
				-0.0495650298614577,
				0.788088233562843,
				-0.70887298959534,
				0.161626970757436,
				-0.316295073411281,
				0.0859533088658375,
				-0.727840501522388,
				0.857254798079592,
				-0.590791416827557,
				0.667027567428996,
				-0.904599299247623,
				0.787221012740801,
				-0.0514589762554779,
				0.247987488865847,
				-0.349562786216644,
				0.192524137996381,
				-0.768612622300153,
				0.481532238863045,
				-0.827905328432361,
				0.220560308883402,
				-0.27097197539868,
				0.443946079625615,
				-0.797387379018674,
				0.396140051573794,
				-0.33385253073421,
				0.191140215252211,
				-0.131033097701251,
				1.00892970689003,
				-0.4914661859027,
				0.533326109667402,
				-0.231261049672721,
				0.481466415301894,
				-0.0507037265372329,
				0.37646006790626,
				-0.725169831853841,
				0.652528712576699,
				-0.280053609021224,
				0.878682380731809,
				-0.587011672558869,
				0.0795099666158872,
				-0.0605279946339605,
				0.398951499908674,
				-0.96306181883582,
				0.573964800497628,
				-0.356167033844038,
				0.467019650071787,
				-0.979474917616546,
				0.150600967801582,
				-0.605353840071558,
				0.86413580489597,
				-0.071277744565552,
				0.216327697811042,
				-0.46936401808656,
				0.369536045243155,
				-0.789137937325185,
				0.688912401843642,
				-0.920973657181728,
				0.338590238524561,
				-0.804232264332018,
				0.169077399507498,
				-0.862026745152595,
				0.811996421871091,
				-0.335443575909887,
				0.0589613242318891,
				-0.444208641296747,
				0.410956382670656,
				-0.7462834327639,
				0.685424758400608,
				-0.518385453383756,
				0.695127080347072,
				-0.911274706437846,
				0.890018073790715,
				-0.894454946549224,
				0.764924877271484,
				-0.145773801297506,
				0.886217872364216,
				-0.473984705944331,
				0.241285078043125,
				0.00320650615502792,
				0.920883365818732,
				-0.123967300223954,
				0.122970217192792,
				-0.244339440799789,
				0.748821209759939,
				-0.345329929878888,
				0.10825523061336,
				-0.910534561102049,
				0.813903019075289,
				-0.405471731487405,
				0.175200241538744,
				-0.649339468292189,
				0.950880178330149,
				-0.0713551694446381,
				0.441215336862483,
				-0.191416645018065,
				0.279363155417753,
				-0.0930418234674515,
				0.877967648905136,
				-0.149191627814058,
				0.934925442395167,
				-0.721942382917122,
				0.310246757119862,
				-0.618732131484317,
				0.927855301752009,
				-0.944386904381508,
				0.224825343152052,
				-0.245495832281073,
				0.809324268337692,
				-0.0822775046320301,
				0.08950564150544,
				-0.0126689322427979,
				0.869035319469193,
				-0.157018031022062,
				1.05578250622851,
				-0.797950674478592,
				0.969069626419235,
				-0.356962388458447,
				0.723150524748093,
				-0.586622239762761,
				0.406831224075622,
				-0.426821333260288,
				0.056788301081931,
				-0.170428727650743,
				0.408377529517888,
				-0.0147385199987525,
				0.958097172215167,
				-0.823460737593358,
				0.448319754260325,
				-0.555488362325371,
				0.898453809538455,
				-0.757869537072229,
				0.632719155322742,
				-0.0144953010157285,
				0.153408949274163,
				-0.103258432151351,
				0.977763318727239,
				-0.32105768824372,
				0.574913619037342,
				-0.520685676707256,
				0.447255425743559,
				-0.54014191608515,
				0.420403926519756,
				-0.346632959723507,
				0.691060588358284,
				-0.787665705186166,
				1.0623879114081,
				-0.542247646400537,
				0.227606622073808,
				-0.429702113819896,
				0.430018782227325,
				-0.778383778863896,
				0.489562926419384,
				-0.205125393978071,
				0.790601536984105,
				-0.48444290333021,
				0.70273794750302,
				-0.0911385468408913,
				0.272090117713422,
				-0.841984362342829,
				1.06793901727087,
				-0.271105150374901,
				0.942031797226932,
				-0.0922322494141863,
				0.394578720942389,
				-0.0423821650572993,
				0.792153324655365,
				-0.379358482523244,
				0.442219892151569,
				-0.507532503695311,
				0.220341081480055,
				-0.205845171056019,
				0.222339944342183,
				-0.666136409580696,
				0.580394228424937,
				-0.428177906130595,
				0.336486697077374,
				-0.374989221158479,
				0.789534380023862,
				-0.369844093164003,
				0.11340699282391,
				-0.289601499488763,
				0.683670910984303,
				-0.954410535130583,
				0.201508491630066,
				-0.0349742700990152,
				0.351527963538227,
				-0.330266347312952,
				0.370603384082123,
				-0.497000427793781,
				0.581469779136854,
				-0.657904541665662,
				0.351368255955184,
				-0.341408834755781,
				1.01149177620531,
				-0.628902051491187,
				1.16901362475472,
				-0.721742858587292,
				0.491422040363831,
				-0.0381507252395948,
				0.612536275255401,
				-0.102817637536423,
				0.588348248107714,
				-0.261622145210347,
				0.518539238845601,
				-0.889016090087727,
				0.847318896810227,
				-0.563541401367862,
				0.798522272890712,
				-0.216595457710933,
				0.236955555773551,
				-0.258317064151398,
				0.359916935875375,
				-0.809943668542125,
				0.828561830423823,
				-0.664866893865945,
				0.728721225370495,
				-0.792613813625351,
				0.102478216680811,
				-0.104433214827854,
				1.04500535471628,
				0.0257162375196307,
				0.542180190995586,
				-0.431446131533774,
				0.435244365404632,
				-0.0716849847851369,
				0.392357650323981,
				-0.319546195674003,
				0.298672961686416,
				-0.385193987273326,
				0.737490898700099,
				-0.13537908148778,
				0.217002094145755,
				-0.425192673330387,
				0.987879243762442,
				-0.805842846066443,
				0.841327655392989,
				-0.312171837771411,
				0.509370650283605,
				-0.278634801295461,
				0.219296320555721,
				-0.718860369366014,
				0.598850398759317,
				-0.0504945681645287,
				0.412009915337547,
				-0.13049164906892,
				0.562557855695401,
				-0.234455595277027,
				0.837398788270588,
				0.0510890241748256,
				0.28191854612118,
				-0.00581590390267254,
				1.04966270173237,
				0.107808818332231,
				0.414383913882733,
				-0.163059605713761,
				1.03790285018132,
				-0.679794049563187,
				0.16734373339794,
				-0.0950803144295247,
				0.747644171463125,
				-0.276739925455138,
				0.495861608728172,
				-0.20713146629628,
				0.59671637168613,
				-0.985959307991821,
				0.114485950076738,
				-0.875106094141235,
				0.834261987650512,
				0.000316095412127374,
				0.856770537190128,
				-0.369691112222758,
				0.410167541276419,
				-0.655261649959216,
				0.143474235299492,
				-0.0657270773117413,
				0.687358544657493,
				-0.193900785019827,
				0.314409771907716,
				-0.0455700443162175,
				0.8779719722701,
				-0.700410311344761,
				0.859451153894139,
				-0.00129638764053805,
				0.507063254565734,
				-0.376784967009839,
				0.377803461403008,
				0.0239918990322437,
				0.217908997553739,
				-0.650765247346103,
				0.930717216339158,
				-0.965516639448154,
				0.254705579102542,
				-0.310941439751041,
				0.59579057831869,
				-0.887369989760078,
				0.255981246690274,
				-0.383650763506433,
				0.481402831477583,
				-0.391510235305701,
				0.123809123348266,
				-0.484541299803206,
				0.66228945835539,
				-0.58993692374853,
				0.333835714614008,
				-0.675834058307634,
				0.816889239570388,
				-0.170211496636684,
				0.190777737140886,
				0.0521937998992829,
				0.843577769735757,
				-0.533352251952025,
				0.772894854173096,
				-0.795351800770748,
				0.494013715304057,
				-0.724269587129117,
				0.605442375628658,
				-0.36677426285203,
				0.846942850101551,
				-0.0193825418939314,
				0.731205873756709,
				-0.0390269698870225,
				0.705633321144942,
				-0.153737741369675,
				0.100100419582019,
				-0.883017376414519,
				0.125366287101295,
				-0.0569319594910669,
				0.140281124382784,
				-0.0586875915463742,
				1.04280926695079,
				-0.0291239103244595,
				0.949063416600268,
				-0.605420075744419,
				0.205227194914924,
				-0.116754588585529,
				0.507446632431383,
				0.169143424032248,
				0.960799297153329,
				-0.485597272798722,
				0.954516952717005,
				-0.845275238637898,
				0.0914943367213075,
				0.0404427747588863,
				0.972610910123116,
				-0.256699965800676,
				0.34053171310727,
				-0.277890053209765,
				0.920534781666757,
				-0.784214378354146,
				0.324976466910925,
				-0.871470053974047,
				0.561534869275036,
				-0.433369305373564,
				0.659520386850586,
				-0.0516158570811996,
				0.86182328506144,
				-0.331441427401228,
				0.671035319409438,
				-0.204028229680725,
				0.84983662374624,
				-0.410224116338089,
				0.337348287824235,
				-0.702965157888175,
				0.411929246231721,
				-0.323890848630874,
				0.912808608714284,
				-0.693868896522974,
				1.03909847474934,
				-0.0154143163658513,
				0.547815162406877,
				-0.464762220145174,
				0.542577098094505,
				-0.193849848413931,
				0.227625121214586,
				-0.721870123856583,
				0.0219670374744945,
				-0.656082053596224,
				0.213029815806934,
				-0.819464770639708,
				0.566423818068325,
				-0.818307512845293,
				0.138886726174731,
				-0.345953801032762,
				0.799432935456892,
				-0.0158066367895995,
				0.672041473078494,
				-0.274155470186869,
				0.326843876689248,
				-0.808068936140298,
				0.582143607853733,
				-0.722428517036415,
				0.678458518509411,
				-0.30468228507106,
				1.00032160932832,
				-0.0461335329017576,
				1.00424508385975,
				0.0539795499960888,
				0.947953697010316,
				-0.325818275784734,
				0.500120069766621,
				-0.454674342928195,
				0.412675724832332,
				-0.744104043555048,
				0.307945690064185,
				-0.815263001832086,
				0.36492186920712,
				-0.333535310501948,
				0.229476629461118,
				-0.91094241697366,
				0.0261602763428967,
				-0.205219101941163,
				0.171498327165738,
				-0.730482001088835,
				0.810761576460839,
				-0.783137162042563,
				0.602272728898962,
				-0.690706169966338,
				0.287955788790987,
				0.0484741591207214,
				1.11673645722783,
				-0.274630982589355,
				0.709621197465186,
				-0.76794084366446,
				0.902340097579942,
				-0.37857181986576,
				0.133651319729729,
				-0.900274682992499,
				0.327469573630261,
				0.0220276657909182,
				0.94085780598627,
				-0.904688302658966,
				0.779501290675307,
				-0.838668622228617,
				0.354942292130287,
				-0.0747043955200698,
				0.437195546761621,
				-0.367925534926207,
				0.0409549985736708,
				-0.974707325146749,
				0.714501119302772,
				-0.187477989880239,
				0.218733252948573,
				-0.190178036751278,
				1.01367024146265,
				-0.114228059533336,
				0.870231473667473,
				-0.535584138402821,
				0.946547236807213,
				0.056423236088894,
				0.721498882261508,
				0.108710878956673,
				1.10060723072222,
				-0.638301848947305,
				0.495735810429716,
				0.0125253390024856,
				0.865609413080994,
				-0.397577610876265,
				1.04200182770288,
				-0.749376542720831,
				0.76656319072446,
				-0.420185466912862,
				0.0215901209686205,
				-0.222533403134399,
				0.0104275517947252,
				-0.0792585896855227,
				0.428959991503268,
				-0.316678869682661,
				0.46853535102538,
				-0.632222642468268,
				0.488038360511878,
				-0.0839960514532561,
				0.804030858435428,
				-0.0936353732498983,
				0.461625580576042,
				-0.581370985782639,
				0.431955423150865,
				-0.30301261488405,
				1.082436821339,
				-0.397797826603002,
				0.919883661015878,
				-0.276524658968476,
				0.22069415025932,
				-0.183506062429167,
				0.401663109611135,
				-0.779353379968607,
				0.0545805816518467,
				0.0320821759383246,
				0.457698247816862,
				-0.323928617264681,
				0.240944438017162,
				-0.997047078328695,
				0.36883391087167,
				-0.247959889585109,
				0.242922119639914,
				-0.277319659092009,
				0.284575675443216,
				-0.883699877663506,
				0.304245506124077,
				-0.821683873623889,
				0.81371298647339,
				-0.408229594638548,
				0.297525390387315,
				-0.0204691794928078,
				0.768944369301451,
				-0.397139790602931,
				0.443288699130486,
				-0.558442465970552,
				0.569182164717537,
				-0.5251524388598,
				0.864544752587606,
				-0.343425145220834,
				0.540079665665182,
				-0.32961503246244,
				0.0990556400098101,
				-0.277326252228444,
				0.304720036747058,
				-0.75788441870043,
				0.904258356945595,
				-0.159121182136615,
				0.0776959454648769,
				-0.415622926293417,
				0.899952140248692,
				-0.104920491793511,
				0.464547384495665,
				-0.400727953983926,
				0.804083775004525,
				-0.475855714976931,
				0.994903956025584,
				-0.0113060757298148,
				0.527223452799798,
				-0.267913224040436,
				0.297965944182395,
				0.0499581443388528,
				0.981844140574197,
				-0.0743029994541368,
				0.419292875189644,
				-0.780086608918933,
				0.763110760746311,
				-0.686541433245612,
				0.628491969852344,
				-0.15891840567866,
				0.673245963353533,
				-0.679140210426617,
				0.59496564588083,
				-0.801129137343488,
				0.541604930850085,
				-0.963693853231791,
				0.193462726100748,
				-0.929534970454131,
				0.985800400847045,
				-0.485460591348722,
				0.0431510678661207,
				-0.0482103627038499,
				0.852961615199819,
				-0.271721198538159,
				0.625821285387291,
				0.0303173469806097,
				0.808121344611627,
				-0.0864766179461366,
				0.89652324036503,
				-0.600447320654357,
				0.983447120311461,
				-0.0787609812659766,
				0.445979525164377,
				-0.220669281960128,
				0.381966396291456,
				-0.278315690717425,
				0.619440417130927,
				-0.719818402398996,
				0.101360872302139,
				-0.294679212534029,
				0.126738246373122,
				-0.133664278919734,
				0.59886213752161,
				-0.861437925073057,
				0.783295518152088,
				-0.185387414941062,
				0.531435428184921,
				-0.626206170653012,
				0.909578859132024,
				-0.778091072316195,
				0.366458450617782,
				-0.905116727690032,
				0.196992872850951,
				-0.862909131331824,
				0.43488198603971,
				0.0156344044263792,
				0.409452256987644,
				-0.417373823856261,
				0.796293919656266,
				-0.0340829441963603,
				0.4088443357682,
				-0.320266538248479,
				1.05030448903813,
				-0.723256542364418,
				0.392722046004789,
				-0.319424429778299,
				0.424737937944367,
				-0.229571753653097,
				0.507919755008445,
				-0.193404247753995,
				0.401204648614491,
				-0.413511233131174,
				0.860786173893505,
				-0.661211280300112,
				0.373205379689391,
				-0.870043274084441,
				0.509120124058843,
				-0.893956476580904,
				0.617297298514171,
				-0.309521173254473,
				0.620659711845087,
				0.00714416404555753,
				0.410178073485514,
				-0.854026535238935,
				0.566096292585555,
				-0.782909090798774,
				0.21432295441548,
				-0.243755123132044,
				0.085768224288419,
				-0.159531617084161,
				0.0594100324307071,
				-0.039680681158284099,
				0.0735793570386659,
				-0.896542185063887,
				0.0667967675958977,
				-0.694682533479406,
				0.13880376773302,
				-0.81967255188335,
				0.513927207567695,
				-0.41438484630286,
				0.769141411766941,
				-0.301560697475992,
				0.127921700023032,
				-0.684929848901162,
				0.410321441786085,
				-0.884560586839051,
				0.161307215224364,
				-0.425048518880171,
				0.599503596394342,
				-0.42038644750852,
				0.632832800330191,
				-0.303703834683695,
				0.996041478882898,
				-0.273606151905814,
				0.68316634441057,
				-0.105729808207517,
				0.17685646117747,
				0.0253143552656899,
				0.316296840454851,
				-0.46902208164917,
				0.231234024891512,
				-0.055938100171785,
				0.222580339693279,
				-0.273580132546997,
				0.15287150340392,
				-0.346115222797864,
				0.344105879470755,
				-0.961493855789999,
				0.602725325432944,
				-0.678055959138114,
				0.746204964145526,
				-0.667271940022874,
				0.427061490192636,
				-0.137098939625961,
				0.60923256117934,
				-0.235778244198161,
				0.957385169921013,
				-0.611596113299496,
				0.592936778699421,
				-0.52653045914391,
				0.781759723284137,
				-0.633827481203511,
				0.832807091069492,
				-0.487558817937901,
				0.705086659882578,
				-0.632232197492705,
				0.105423874603363,
				-0.737637786402164,
				0.270816339307867,
				-0.873042485461218,
				0.580879712160969,
				-0.11132864858192,
				0.505036469784246,
				-0.0475594452803766,
				0.181998565412126,
				-0.714373266191396,
				0.0779841393595488,
				-0.852158963611424,
				0.539020126936501,
				-0.0609522875177053,
				0.558898569777723,
				-0.165251066679724,
				0.863575105260767,
				-0.880954818057335,
				0.725342439480218,
				-0.895064545255091,
				0.945424770619258,
				-0.817444883873162,
				0.723480860880231,
				-0.387720573423242,
				0.236685315161751,
				-0.483070356560297,
				0.498712995327613,
				-0.724000275058866,
				0.717561295232483,
				-0.562079879556055,
				0.252551384345078,
				-0.688213859110134,
				0.605651106666277,
				-0.481872270108141,
				0.246459830201445,
				-0.60609182650507,
				0.691177225993563
			]
		},
		{
			"bias": 0.762468047329443,
			"weights": [
				-0.0972317699795737,
				0.634025844574918,
				-0.166327403004434,
				0.376648400154267,
				-0.955582080388247,
				0.895640225101095,
				-0.160788151044766,
				0.101067260420447,
				-0.0857549123865342,
				0.499418462859196,
				-0.00265058968339609,
				0.588981651975299,
				-0.806805797964904,
				0.921184319763802,
				-0.810009975218989,
				0.772804739923752,
				-0.725673853757639,
				0.281801889316087,
				-0.0166362435634417,
				0.880113231893682,
				-0.640522921290492,
				0.0916752759794124,
				-0.644251055384172,
				0.751949588652677,
				-0.335507058694729,
				0.619917824687398,
				-0.461824670649052,
				0.389751760470565,
				-0.246511307194136,
				0.0571478568283598,
				-0.81449245745991,
				0.952806737717617,
				-0.474202009746894,
				0.133613801218033,
				-0.791481783282102,
				0.0830932955352613,
				-0.723339288056823,
				0.574352873164034,
				-0.863323780710429,
				0.825308239761353,
				-0.239387009383789,
				0.121258279562034,
				-0.407480195478833,
				0.9665893053908861,
				-0.752204256874666,
				0.121802494782122,
				-0.756188111884117,
				0.331353399027565,
				-0.878143325722434,
				0.832699261336166,
				-0.75638500564045,
				0.964456885342796,
				-0.589455582941629,
				0.811063994099882,
				-0.089311115019634,
				0.0055564940001613,
				-0.989774789190746,
				0.414377814351757,
				-0.0411433760134251,
				0.335651755737066,
				-0.433859581525723,
				0.77085772686003,
				-0.862389739672725,
				0.0108686570291238,
				-0.683380492389809,
				0.0604434896088291,
				-0.0632023059419755,
				0.700766576004694,
				-0.110051403132077,
				0.696302521757991,
				-0.030993155550838,
				0.171198552361838,
				-0.433093547334293,
				0.0936189705681864,
				-0.776782082794181,
				0.479618885284176,
				-0.703633414909904,
				0.669412036755494,
				-0.0104525171818174,
				0.210294262954311,
				-0.864776402470215,
				0.130456612345487,
				-0.511529301065732,
				0.413668446435439,
				-0.300949440477858,
				0.849834516574552,
				-0.363582205191725,
				0.66339832503103,
				-0.0450749305561522,
				0.779905589928498,
				-0.121234613606939,
				0.236074763513345,
				-0.558095567253437,
				0.504055562872466,
				-0.368031462243058,
				0.483741339028237,
				-0.318973504615803,
				0.311770323659344,
				-0.151252739152045,
				0.915982989818597,
				0.169568253975093,
				0.362811658711053,
				-0.0180174137319883,
				0.277792128339439,
				-0.795287675453704,
				0.462287117390804,
				-0.564954057035424,
				0.413033367587944,
				-0.232938482799354,
				0.574676779461189,
				-0.320482198956596,
				0.313182833750352,
				-0.412864517147124,
				0.828706018039846,
				-0.471245126623043,
				0.291293548546987,
				-0.295076513789351,
				0.241269610078168,
				-0.969259829140488,
				0.53844245956914,
				-0.938680346994514,
				0.449955179617974,
				-1.00314555799444,
				0.0492849036689573,
				-0.703503060179771,
				0.414266514418688,
				-0.410095868153275,
				0.717788146201463,
				-0.830984630945144,
				0.556830590117751,
				0.0854674850001744,
				0.82602853391717,
				-0.0436547174156116,
				-0.0158419914876132,
				-0.825872581739948,
				0.381581068147335,
				-1.31662439554873,
				0.172258478222182,
				-0.716595191043007,
				0.701748275456154,
				-0.30470708073336,
				0.964794231096652,
				-0.502944764460996,
				0.435217266889806,
				-0.704852962425961,
				0.37241020154456,
				-1.29589402971288,
				0.565155971960641,
				-0.423078332044195,
				-0.390241028845309,
				-0.971160916314206,
				0.244126728105653,
				-0.376682034593803,
				0.762958084025751,
