[
  {
    "bias": -0.460075644059142,
    "weights": [
      -0.505737666276161,
      0.093579921449339,
      -0.0552037032578158,
      0.367695315446563,
      -0.234268700347407,
      0.617527616497841,
      -0.205508034306349,
      0.143057472139158,
      -0.240843714327013,
      0.96912166195415,
      -0.94986109945451,
      0.822522972627786,
      -0.1048439540613,
      0.755993293096559,
      -0.0463590902038385,
      0.852165687247005,
      -0.253355425900479,
      0.887794230546706,
      -0.766258434283667,
      0.397623544278379,
      -0.755431256143111,
      0.958557301647289,
      -0.121400896982011,
      0.1048701568995,
      -0.371152946898319,
      0.925043216871583,
      -0.557154958861486,
      0.484124402741028,
      -0.287204388197141,
      0.645250673706294,
      -0.998575425240479,
      0.117338529376936,
      -0.518780556195473,
      0.846893584634734,
      -0.616665262828075,
      0.989451920476347,
      -0.925527888359941,
      0.980499003907883,
      -0.618303290771443,
      0.527409705884144,
      -0.636720963048491,
      0.618191844202449,
      -0.402584650725153,
      0.74285174009988,
      -0.587113695576297,
      0.28572840224142,
      -0.959294302453628,
      0.959577968360218,
      -0.928222726803381,
      0.994892297553018,
      -0.0108650765476799,
      0.631994744519254,
      -0.0542410058221971,
      0.479698203261801,
      -0.504674306374357,
      0.547180364628872,
      -0.972179024467328,
      0.950333546358316,
      -0.99654236647715,
      0.309611996345097,
      -0.0603145946747512,
      0.734447480139204,
      -0.826833218245295,
      0.667612639682989,
      -0.826427959395857,
      0.997456234206496,
      -0.0825411627021474,
      0.478753311782069,
      0.0538118677234707,
      0.223273684422181,
      -0.752189056154932,
      0.413731861848024,
      -0.096833460547805,
      0.40164242643788,
      -0.603846608906308,
      0.246031507292363,
      -0.504486072176184,
      0.450131315902544,
      -0.456291776503869,
      0.139237425273793,
      -0.929325716237583,
      0.60926182173775,
      -0.550522583327499,
      0.297126414858329,
      -0.631234317380578,
      0.367571869570563,
      -0.063097517881741,
      0.0484923233509969,
      -0.326071445578675,
      0.120367758009888,
      -0.922122477606229,
      0.165325405170556,
      -0.732624671252753,
      0.641760926677282,
      -0.154887740757042,
      1.15192857225225,
      -0.516070591459949,
      0.967489510081758,
      -0.518331488785385,
      0.911300164996501,
      -0.851569717951252,
      0.715970256754016,
      -0.806162513135071,
      0.934569129444289,
      0.045771679811781,
      0.898228703833805,
      -0.215943650264293,
      0.983039920589709,
      -0.692009861954424,
      0.368572485611591,
      -0.00621602974369124,
      0.578471404769677,
      -0.45836619821301,
      0.886967207705414,
      -0.363604618514716,
      0.449634445541971,
      -0.200856970240485,
      0.536442927607631,
      -1.04241199274517,
      0.535119379425735,
      -0.752874849300171,
      0.359117577785535,
      -0.824992494660952,
      0.105511383052086,
      -0.0692858795054423,
      0.848472621608424,
      -0.249684731047922,
      0.849963281230501,
      -0.729484768215593,
      0.756416877350308,
      -0.287588112704453,
      0.845828775690742,
      -0.268627387981404,
      1.05562085840133,
      0.131879950662164,
      0.499222183694783,
      -0.618930796902328,
      0.766311999147986,
      -0.189378302865336,
      0.921389008835189,
      -0.977282902680935,
      0.272686013147554,
      -0.277912932022973,
      0.953670171917635,
      -0.173719943028215,
      0.311495782191218,
      -0.689537097941257,
      -0.0061920528734629,
      -0.996336899515197,
      0.904112737703085,
      -0.660056681028955,
      0.30983393638037,
      -0.714311211496257,
      0.44795659459175,
      0.377260914472291,
      0.998579281012653,
      -0.117646406104027,
      1.18346540189201,
      -0.372349567286396,
      0.609542279403718,
      0.137757521686947,
      0.799922248103252,
      -0.677183596156015,
      0.154835507255816,
      -0.811847653578809,
      0.290187381788501,
      -0.946405506156522,
      0.747189087766698,
      -0.735227417077509,
      0.108239437548732,
      -0.707219227058869,
      0.387312196512487,
      -0.500061976315424,
      -0.162031396112238,
      -0.784370311262912,
      0.278599985158398,
      -1.00552026935029,
      0.660089767135235,
      -1.05614850318453,
      0.302156272557725,
      -0.475267730468617,
      0.169891290603179,
      -0.825705852595912,
      0.653977591948684,
      -0.853484600192455,
      0.184625931722351,
      -0.852841348009265,
      0.61221141771009,
      -0.559524605996304,
      0.462850407570582,
      -0.492356404772683,
      0.67127828637839,
      -1.11688508891972,
      0.873015406090868,
      -0.567576694133257,
      0.49260657687379,
      -0.304047903480503,
      0.277018807844915,
      -0.105906613191116,
      0.723087904816679,
      -0.658324088875111,
      0.60923718727525,
      -0.530388386230525,
      0.626888644357958,
      -0.420417205984404,
      0.130772856562146,
      -0.868532612956139,
      0.487262759886981,
      -0.600622644456616,
      0.0507930534359776,
      -1.08980212888063,
      0.0730554785016539,
      -1.25315785914212,
      -0.540693265892271,
      -1.34730840344597,
      -0.300457389391093,
      -0.903756199889262,
      -0.222824073668816,
      -0.359498338909695,
      0.345317165055858,
      -0.552577822738524,
      0.407883568706562,
      -0.0411383183221559,
      0.286856368758215,
      -0.579455672559975,
      0.807879082919398,
      -0.481265488743461,
      0.367473980550271,
      -0.631961545533839,
      0.0178722396224491,
      -0.281014061656863,
      0.423128151690312,
      -0.826316172101701,
      0.191778433124925,
      -0.278196091030938,
      0.301755845746899,
      -1.05629258845253,
      -0.275719603635727,
      -0.899849822312657,
      0.0151554873371563,
      -0.883872984469919,
      -0.658789627934712,
      -1.47557120006628,
      -0.241481372495498,
      -0.971185426945647,
      0.33179426056586,
      -1.20923001742387,
      0.783262984071897,
      -1.07453982503781,
      0.475499261592505,
      -0.883275528505051,
      0.177523577236063,
      -0.249934738571419,
      0.474372559101839,
      -0.383168203447388,
      -0.0524654508570517,
      -0.847937698234734,
      -0.0380586330555817,
      -0.362535500103693,
      0.350592212115382,
      -0.662737771537573,
      0.544202439031946,
      -0.230256971422645,
      0.240269148797093,
      -0.276088250125023,
      0.948199962885443,
      -0.889879894315697,
      0.311580599168504,
      -1.22371108597769,
      -0.197909564211579,
      -0.855973996697469,
      -0.0536813525452218,
      -0.940997641821778,
      0.0929154506688997,
      -0.396115039004996,
      0.276141185963805,
      -0.537018235375231,
      0.842833098163559,
      -0.487672989802236,
      0.820419247321099,
      -0.850169137588511,
      0.501662989102966,
      -0.479409868443765,
      0.929698946275151,
      -0.215600646637652,
      -0.0680321192088793,
      -0.488547092574078,
      0.417697699595879,
      -0.516941254552527,
      0.572238395168253,
      -0.408859414574393,
      0.769154519732977,
      -0.505430680286016,
      0.222208327038701,
      -0.468572761895849,
      -0.219406795633136,
      -1.19596414055589,
      -0.237021763082126,
      -1.24132199932706,
      0.329967743145127,
      -1.04427284576062,
      0.14107669790806,
      -0.301945508950661,
      0.392552566892949,
      -0.359710002034873,
      0.459330281618786,
      -0.574910914569007,
      0.869746121292421,
      -0.319207988915654,
      0.988764054942576,
      -0.499575537554931,
      0.874301326580067,
      -0.54574017796376,
      0.294716533529467,
      -0.741503044413533,
      0.228721404238609,
      -0.871409862587937,
      0.201102342514811,
      -0.244466219697618,
      0.0765291970714132,
      -0.491257452189371,
      0.669920200138858,
      0.0561566424826712,
      0.116365579402554,
      -1.28324565980051,
      -0.516081818855597,
      -0.912551561163204,
      0.13307336336298,
      -0.611254095516825,
      0.0891042028219466,
      -0.677867688658964,
      0.895996839645526,
      -0.840516413780593,
      0.841987513387741,
      -0.916341934685405,
      0.715500452723745,
      -0.299364945074104,
      0.973185669436248,
      -0.606679766209539,
      0.748647046102202,
      -0.459354526241422,
      0.221042554655418,
      -0.417866636535133,
      0.339304429296694,
      -0.883671821535752,
      0.461829014268704,
      -0.772705794013678,
      -0.190550257329209,
      -0.439917478576115,
      0.604240961429503,
      -0.0437581188224151,
      0.200288851770375,
      -0.537412401042009,
      0.0697137696391289,
      -0.222056931081747,
      0.371876377057727,
      -0.00178584046291468,
      0.824891949060931,
      -0.50557523567923,
      0.228432087842876,
      -0.578910503452671,
      0.167481891577266,
      -0.260723840047255,
      0.27678597233823,
      -0.320820551350377,
      0.547825911050101,
      -0.920889733141951,
      0.744766526640701,
      -0.601638561337415,
      0.409776367273691,
      -0.582570355813537,
      0.404100633596528,
      -1.07917963759745,
      -0.04963937995035,
      -1.33557404098964,
      0.507683320206807,
      -0.420241130734374,
      0.685245735525402,
      -0.461773032538853,
      1.18471314750713,
      -0.584177681160582,
      0.285470334042601,
      -0.0676533750432764,
      0.147329434478368,
      -0.69894618839401,
      0.239570547590104,
      -0.486370196324169,
      0.522716295379237,
      -0.400521392605496,
      0.661886352423972,
      -0.628342554983865,
      0.612405807400714,
      -0.257653831835143,
      0.427518983597445,
      -0.0497461854205662,
      0.374075620021711,
      -0.455726065336269,
      0.24459025054616,
      -0.943547660314361,
      -0.350334553373487,
      -1.13170768802843,
      0.253629460998153,
      -1.09205388665466,
      0.0920102969495378,
      -0.194069981032691,
      0.867422385928021,
      0.111609929393605,
      1.30066630741744,
      -0.440851807406949,
      0.146080771663285,
      -1.17250915476488,
      0.509618086113111,
      -1.12109210825788,
      0.57598322646209,
      -0.391844796961932,
      0.316461281747587,
      0.116632358062416,
      0.201923286540447,
      -0.438999269139319,
      0.0030139689380238,
      -0.979824579388866,
      0.484381316794974,
      -0.225147353954724,
      0.958980213262045,
      -0.40001277963192,
      -0.084156657796914,
      -0.912763150588255,
      -0.0941009774204503,
      -0.690872255341919,
      0.0217618775391593,
      -0.925300700894335,
      0.397897897844275,
      -0.502028585489649,
      1.10179744794488,
      0.63745818275046,
      0.705048796305854,
      -0.443163528761966,
      0.0743204066273915,
      -1.01660079209623,
      0.0401346480112277,
      -0.954195957174377,
      0.323816703990827,
      -0.827562443124532,
      0.231764721589903,
      -0.574780258182594,
      0.962180207225297,
      -0.687923908551666,
      0.508355031863878,
      -0.0944729139133626,
      0.729969213181804,
      -0.377791738804359,
      0.142730129798535,
      -0.521018470515678,
      0.0979832862114418,
      -0.322341750558741,
      0.122186078452188,
      -0.541791968951586,
      0.583676917461434,
      -0.378177273102662,
      0.905756840997639,
      -0.211410794625792,
      0.979787972090041,
      0.364817377285076,
      0.68396928813866,
      -0.524835052087867,
      -0.275362303193894,
      -1.0656019688793,
      -0.010347071369435,
      -0.941423362740916,
      -0.18380656498008,
      -0.852690850565905,
      0.485630123634691,
      -0.295113495080814,
      1.070432843017,
      -0.269576734097115,
      0.357945783097419,
      -0.768548245899635,
      0.933573238990676,
      -0.338370407669372,
      0.262547453523909,
      -0.874646757045551,
      -0.0995154918063021,
      -0.18543763525854,
      0.603968823264564,
      -0.206431408964104,
      0.371264019720331,
      -0.29359160496803,
      0.855784137485994,
      0.257218994580529,
      1.59739094284573,
      -0.0842042625626094,
      1.04932951462031,
      -0.052633007206908,
      0.436440124420658,
      -0.806067999096395,
      0.261306082228297,
      -0.119240845328918,
      0.328595705562442,
      -0.703899270349022,
      0.332723738322389,
      0.0826597243895748,
      0.496975075800001,
      -0.830825465893014,
      0.976964086483204,
      -0.057935482493832,
      0.892405033741328,
      -0.829630972837742,
      0.28640476796902,
      -0.163583144770857,
      0.734840921493333,
      -0.369368309159763,
      0.649754369134383,
      -0.261738070841552,
      1.20271308646633,
      0.223707938976739,
      0.943394563798883,
      0.547280247190832,
      1.50306329200803,
      0.291591182472226,
      0.342525349712705,
      -0.67911565638775,
      0.346564943936961,
      0.0986604938519418,
      0.931130809379592,
      -0.239351652936198,
      0.721294481243643,
      -0.24662062365256402,
      0.663907071896105,
      0.0954626480931297,
      1.01356587247642,
      -0.284142694107276,
      0.272647156936017,
      -0.299712608966946,
      0.973392045335532,
      -0.270521432257761,
      0.299219325975755,
      -0.321844810049612,
      0.316785626566868,
      -0.12691445702177,
      0.659886319058887,
      -0.09924360133613,
      1.41872773702224,
      0.454895043518423,
      0.95524535297499,
      0.460957041785469,
      0.887346894095792,
      0.17428152496645,
      0.49344449892114,
      -0.162528421055688,
      0.520659805559747,
      -0.131695106478309,
      0.360966979170951,
      -0.24086020197376,
      0.43563789975031,
      -0.187855670624329,
      0.894380887153118,
      -0.18268882442276899,
      0.99887840706169,
      -0.676413136460216,
      0.212389772409157,
      -0.674023005493927,
      0.24164484418719,
      -0.266596648139211,
      0.192242570937817,
      -0.527525809303139,
      0.424886237057291,
      0.183512582892077,
      1.0708881649973,
      -0.0283455971998318,
      1.39721741671661,
      0.402119317066549,
      1.16911115921457,
      0.0779236512239363,
      0.996094235864575,
      -0.286169751355547,
      0.273476832129203,
      0.113183431029966,
      0.527278215487144,
      -0.455165310647054,
      1.19024695830305,
      -0.368156597408551,
      0.85408044919801,
      -0.901936595448044,
      0.998897962522463,
      -0.413100384686597,
      0.23855994482578,
      -0.861953741767626,
      0.851427774714467,
      -0.61866362476959,
      0.527889053503483,
      -0.0783344314422868,
      0.338327450300486,
      -0.514424201683225,
      0.495818729958951,
      -0.214832500027934,
      0.792659734896588,
      -0.158780093621822,
      0.456243478231605,
      -0.47284875821888,
      0.963988439645454,
      0.235484763854614,
      0.916582507012759,
      -0.181530075740681,
      0.884420333187304,
      0.0274631911629103,
      0.650305846119184,
      -0.410655534865149,
      0.702850320299163,
      -0.770695497453416,
      0.358014918449144,
      -0.438430510326489,
      0.94408459806555,
      0.014094299597378,
      0.747868794007085,
      -0.681857581656737,
      0.762965170485286,
      -0.272032577757944,
      0.465321553960248,
      -0.782885273659991,
      0.337854435046714,
      -0.436236173463346,
      0.37412318090203,
      -0.851464490728718,
      0.351073942510616,
      -0.502606546692542,
      0.781246321447259,
      -0.151712699181907,
      0.800192538117524,
      -0.249212282343702,
      0.134519961296006,
      -0.20201534442257,
      0.919011330634085,
      -0.469261104852149,
      0.15434402049561,
      -0.648358260378898,
      0.68987757864963,
      -0.124584526166172,
      0.410368099466825,
      -0.490885240922298,
      1.04068777847871,
      -0.352647785989367,
      0.347403519341788,
      -0.940202793162733,
      0.32163765615288,
      -0.845246457422733,
      0.248205525916165,
      -0.369991009303645,
      0.788992278716347,
      -0.685312138958877,
      0.705843403879645,
      -0.285131116843857,
      0.0175346943352538,
      -0.407332428794435,
      0.156934148284067,
      -0.631930959801983,
      0.429596544167147,
      -0.970024669453128,
      0.269605373024574,
      -0.0797596522874224,
      0.191637520026168,
      -0.392500845227045,
      0.692088596689493,
      -0.25670501441196,
      0.777946853011222,
      -0.714179916577445,
      0.913625292214436,
      -0.0572340740105494,
      0.882410062141216,
      -0.953160473539009,
      0.982548293086938,
      -0.456148913344224,
      0.0873059183765696,
      -0.761681630165168,
      0.843301401400613,
      -0.983874682745047,
      0.131649904377723,
      -0.468273388062331,
      0.418443082921405,
      -0.54556060399152,
      0.20725700799118,
      -0.695961468910809,
      0.117528092155881,
      -0.56111212295443,
      0.247310499604908,
      -0.0549379007979812,
      0.147882421313108,
      -0.625866191684488,
      0.0186700981112663,
      -0.865784022177629,
      0.853506505096929,
      -0.832255523613078,
      0.872549807882007,
      -0.0884073051920005,
      0.513421808393283,
      -0.574340220734715,
      0.565013197771096,
      -0.0938502291084431,
      0.183204239608559,
      -0.395470333449216,
      0.132000897141174,
      -0.0273662712552428,
      0.533186854111583,
      -0.864167331670561,
      0.708289856355925,
      -0.372159877035919,
      -0.0334144681773795,
      -0.574110657669321,
      0.246046503238047,
      -0.847488792949863,
      -0.266885859773644,
      -0.829348352975593,
      -0.0588067020939738,
      -0.413828262763294,
      0.26534159350894,
      -1.04798726715637,
      0.612634286673147,
      -0.774412779854006,
      0.552429308461033,
      -0.823701241005551,
      0.690862165001124,
      -0.0508794664740763,
      0.177198270140131,
      -0.879810450802476,
      0.0568742409431067,
      -0.160662182252342,
      0.59888846085212,
      -0.926802298963113,
      0.292046604348368,
      -0.224547501292335,
      0.433035703577584,
      -0.0680188299473463,
      0.191462142035272,
      -0.17759581074067,
      0.188544030705546,
      -0.490969858944334,
      0.909696961568818,
      -0.613810432511583,
      0.443777837822569,
      -0.277797489460217,
      0.862461315666032,
      -0.785508466674157,
      0.1617523734732,
      -0.563388060465228,
      0.800552058903699,
      -0.47108914667102,
      0.441345993253716,
      -0.788379282070017,
      0.587769958279438,
      -0.730733950137414,
      0.707903636192944,
      -0.984881274917493,
      0.37317619055887,
      -0.422862718803001,
      0.668001573927244,
      -0.09997546491212,
      0.843712258545548,
      -0.652310659481357,
      0.798408195748184,
      -0.554809886754868,
      0.750191226019613,
      -0.104284118641356,
      0.155417942674523,
      -0.221735341621394,
      0.137966096851259,
      -0.994129450117147,
      0.299913224384998,
      -0.157381314214,
      0.902467450586012,
      -0.0643675380467388,
      0.79907110670916,
      -0.350122454582175,
      0.0388442354171383,
      -0.544365638495672,
      0.783511041412622,
      -0.0205772054610927,
      0.790297372693337,
      -0.7197875399732,
      0.983295085547814,
      -0.658557098952921,
      0.675392769035932,
      -0.820325196636992,
      0.32722966900432,
      -0.571069939327924,
      0.506299790696381
    ]
  },
  {
    "bias": 0.043273441513662,
    "weights": [
      -0.694610619309643,
      0.768603995334638,
      -0.505868117560571,
      0.0957949725425779,
      -0.629347575190173,
      0.299847864685509,
      -0.75138130213664,
      0.987039722961858,
      -0.42448589737736,
      0.861516930564082,
      -0.570764853884822,
      0.0156223317680984,
      -0.325974709251279,
      0.905263671862223,
      -0.106063911947052,
      0.340782944065352,
      -0.856518824052307,
      0.548834366979466,
      -0.924476828390954,
      0.367531018968453,
      -0.936948927555675,
      0.826663955034066,
      -0.631736689075705,
      0.654485948688577,
      -0.3040975119472,
      0.124966815637875,
      -0.667706999307362,
      0.140825857473922,
      -0.879417111109671,
      0.929866029382621,
      -0.776976318460412,
      0.584495977305107,
      -0.714225356800145,
      0.677925202851974,
      -0.305329593520338,
      0.51560758794563,
      -0.664066769390998,
      0.795729484308706,
      -0.44782561890587,
      0.491491830706146,
      -0.622154423159687,
      0.0270691024429081,
      -0.138035824111398,
      0.935595813969349,
      -0.423954691094084,
      0.798063109531742,
      -0.395353740622323,
      0.0769590603771566,
      -0.553870533127818,
      0.333429745237147,
      -0.964206325336218,
      0.77839521740867,
      -0.64659311093697,
      0.138768771727927,
      -0.523126716503467,
      0.867946664275577,
      -0.136867306258933,
      0.851382168871994,
      -0.791697460596947,
      0.503511917807966,
      -0.631903344774469,
      0.608118711895996,
      -0.133993381874143,
      0.448668228173936,
      -0.156618640183867,
      0.870418093766898,
      -0.433541571433934,
      0.560832989227354,
      -0.663345297563353,
      0.443940986015912,
      -0.812331211739327,
      -0.02067742659895,
      -0.144867945677103,
      0.394282905697674,
      -0.816101402687589,
      0.819434915414939,
      -0.722495414257254,
      0.673974960942394,
      -0.255106045117033,
      0.516726102137801,
      -0.737370471173773,
      0.600268645041346,
      -0.589411119273589,
      0.544703591402948,
      -0.966059656797936,
      0.998581016435558,
      -0.937729372347633,
      0.57439979907473,
      -0.157111020070344,
      0.417149026780831,
      -0.404724958207122,
      0.731802349964307,
      -0.0849194882594896,
      0.8418492744443,
      -0.794717502450279,
      1.06480203526978,
      -0.699449208635447,
      0.861580222797854,
      -0.448356761563014,
      0.824313887479822,
      -0.246464163386982,
      0.843908650650408,
      -0.460814927820127,
      0.840512428970067,
      -0.689544749046052,
      0.808294883450004,
      -0.78225937398896,
      0.170249625812787,
      -0.399646659076503,
      0.629823879646061,
      -0.164528079811034,
      0.434739721210087,
      -0.6396469914539,
      0.267855607993335,
      -0.772286439877841,
      0.0434357687944623,
      -0.00749780317108848,
      0.570781818382329,
      -0.525938063500864,
      0.136501242399318,
      0.0694944036055113,
      0.82338804301946,
      -0.291077289936927,
      0.324255077255151,
      0.0275521882043319,
      1.12071441914721,
      0.222974286123644,
      0.443067740982039,
      -0.317928126679427,
      0.907555959021843,
      -0.928122331403133,
      -0.0733759408234646,
      -1.00568783484583,
      0.469474713288372,
      -0.352139068773926,
      0.788993178233979,
      -0.222205934984258,
      0.565974772020214,
      -0.910395006478273,
      0.0448945733236761,
      -0.335251762687812,
      0.719134611878141,
      -0.204542873642063,
      0.551254086665143,
      -0.16373955682579,
      1.08110157253414,
      -0.0160270415718523,
      0.864131024140442,
      0.0132199805680058,
      0.819754326801903,
      -0.65540825782962,
      0.573973378520699,
      0.15369739540957,
      1.10725323172857,
      -0.203222339214381,
      0.730295066422481,
      -0.158267665823549,
      0.429302658019709,
      -0.627638834503562,
      0.660756921282797,
      -1.21049368557836,
      0.146812595252469,
      -0.938840631101005,
      0.300863779242006,
      -0.889442293899087,
      0.0228297476464382,
      -0.57970762615934,
      0.882757444424544,
      -0.222872325322997,
      0.791996724481679,
      -0.919074661931052,
      0.454899542703485,
      -0.466287400662516,
      0.736570408691808,
      -0.35684461670906,
      0.626772776969147,
      -0.298376020888785,
      1.03922446044892,
      -0.269603894057205,
      0.750068355116188,
      -0.255711982169244,
      0.31100954517352,
      -0.269739825202007,
      0.631927244609704,
      -0.799686352443678,
      0.866430867320271,
      -0.50727751901019,
      0.0428175353815895,
      -0.470594765892213,
      0.0380357209662855,
      -0.863035913741117,
      0.707923514108868,
      -0.977264462684413,
      0.101880483432379,
      -0.15235367973443,
      0.858591718728105,
      -0.0634583487769365,
      0.622053371306256,
      -0.806106321155777,
      0.290145186687595,
      -0.0441829671436352,
      0.670035526720282,
      -0.0578176971314482,
      0.805252813373184,
      -0.338462316439992,
      0.953283470736529,
      0.171905096991743,
      1.21543688248496,
      0.385736846221882,
      0.33404456381742,
      -0.147502716179696,
      0.23723011869711,
      -0.421725511563352,
      0.854386309136413,
      -0.413908856299427,
      0.81603488377829,
      -0.32186235260406,
      1.03388132465815,
      -0.593223085958915,
      0.169391915088782,
      -0.275857977232519,
      0.392919326120888,
      -0.53400820457074,
      0.929869043375289,
      -0.0571210592601503,
      0.101743063689176,
      -0.557655816776969,
      0.667931609980973,
      0.115986530416568,
      1.28317233382753,
      0.296498969744985,
      1.05402155561275,
      0.265041476619673,
      1.05767363647463,
      -0.14098484613128,
      0.980687375724067,
      -0.221551919936455,
      1.01888940731152,
      -0.0476953480942616,
      0.776701692964811,
      -0.28832119835779,
      0.67156707902589,
      0.296810257376801,
      0.525983503448384,
      0.0916589744291661,
      0.480807160518641,
      -0.312728364668846,
      0.200611115547339,
      -0.451745800308854,
      0.404493587490279,
      -0.425027916400167,
      0.148758834290617,
      -0.834126828955418,
      0.715043616780484,
      -0.0152043657749008,
      1.10248522200897,
      -0.299690686425384,
      1.03739805033997,
      -0.0934898776858454,
      0.651297742531129,
      -0.873897004701705,
      0.225889424515767,
      -0.310240350405521,
      0.16005378299999,
      -0.403943347172735,
      0.94040722389028,
      0.87180485934845,
      1.25719370026291,
      -0.0189971506307675,
      1.07730306220903,
      -0.484237344372627,
      1.04491694495794,
      0.0750237720355849,
      0.747169123132766,
      -0.180976618727009,
      0.657723961924469,
      -0.6117636469209,
      0.200367612770255,
      -0.884197625609624,
      0.611531862404193,
      -0.634026448620361,
      0.388571574772595,
      -0.221986067745787,
      1.0382461926603,
      -0.188504566822647,
      0.0909687669351271,
      -0.331270916094413,
      -0.266112587299704,
      -1.10796181099108,
      0.0643949287665552,
      -1.27734006566855,
      -0.115344441309607,
      -0.449102627068497,
      0.236866242091549,
      0.418298409225615,
      1.19207333370706,
      0.569073966343882,
      1.48701590716391,
      -0.00499670848128549,
      0.916583021215867,
      -0.195393080424144,
      0.872389625936834,
      -0.494539239120122,
      0.472445137799502,
      -0.848022228405049,
      0.620055672148008,
      -0.0884458473162441,
      0.309302116098787,
      -0.435739515386548,
      0.357796829338842,
      -0.480995066952064,
      0.596579601743743,
      -0.539650824150663,
      0.283582417142224,
      -0.843021859549388,
      -0.328860713951396,
      -1.65451742868487,
      -0.591496701980388,
      -1.42919543590106,
      -0.372696649119502,
      -0.987821269472433,
      0.498396540384293,
      -0.588839676582461,
      0.900246452853196,
      -0.400945867710957,
      0.803920872770293,
      -0.334028261469383,
      0.186901468890048,
      -0.149571816692077,
      0.402115675210307,
      -1.005066129123,
      0.00526317021062798,
      -1.07576807825596,
      0.114481366042907,
      -0.311654744805927,
      0.808091775545078,
      -0.919049586031764,
      0.575190530716344,
      -0.198195130198471,
      1.01131046111428,
      0.0606707810949301,
      0.277308281003793,
      -1.70323076569168,
      -0.722559612364254,
      -1.44918716160627,
      -0.795594575481591,
      -1.48100335576527,
      -0.254354740738335,
      -1.52338533724166,
      0.284067521568924,
      -0.888974215262552,
      0.222841508040406,
      -0.562560564588191,
      0.453316588136774,
      -0.6341430489415,
      0.399427737813546,
      -0.904402162558738,
      0.161187142225445,
      -0.622509324571199,
      0.243460202938731,
      -0.51385943961042,
      0.06418847401931389,
      -0.0632290692134818,
      0.754713789836147,
      -0.661464476935474,
      0.1114312357094,
      -0.589442516118462,
      0.70542944686689,
      -0.292633009780109,
      -0.0992185412768617,
      -1.37595791125225,
      -0.446177081366598,
      -0.929068499715843,
      -0.100673350008662,
      -0.983278454190055,
      -0.158716628221016,
      -1.1428973976091,
      -0.30111085143674,
      -0.934241499869044,
      -0.193348202051313,
      -0.790993790865846,
      0.392003644938938,
      -0.419024886244626,
      0.374046404738956,
      -0.316154146192872,
      -0.240966558223499,
      -0.691580694502158,
      -0.549099846139315,
      -0.98095682082782,
      0.762838620614051,
      -0.887351839354627,
      0.289381517001636,
      -0.523880196934501,
      0.376621143981471,
      -0.653859753030333,
      1.10967637631774,
      -0.588053738821879,
      0.060498498828311,
      -1.07007173487651,
      -0.291851010621018,
      -0.846611206980799,
      0.304315513587402,
      -0.373679269177946,
      0.384645380431273,
      -0.555490686177629,
      -0.487161438857768,
      -0.842737005139362,
      0.102678874736898,
      -0.611200819636622,
      0.497623294082584,
      -0.816028570966378,
      0.320665545605626,
      -0.277598174352933,
      0.433246628300895,
      -0.70869095183251,
      0.0736626153324623,
      -1.08878522109789,
      0.678850664656687,
      -0.619039558562305,
      0.642236675628957,
      -0.0251053209306186,
      0.588603006183681,
      -0.902751893119561,
      0.807042600020824,
      -0.267301829451369,
      0.454388415546705,
      -1.10024033267809,
      0.540935890356176,
      -0.234007577514276,
      0.519250120659302,
      -0.836896884573654,
      0.195127354420984,
      -1.17829124140624,
      -0.366084516075239,
      -1.00041895477914,
      -0.0195363868392824,
      -0.882455574862213,
      0.606105745651041,
      -0.106208164385513,
      1.00603111086235,
      -0.36025713941188,
      0.717487313570363,
      -0.965138501361698,
      0.737225825377642,
      -0.819158661954291,
      0.855440836756113,
      0.0037096893838989,
      0.938651884737209,
      -0.892858922546761,
      0.304150191678317,
      -0.0268453281172554,
      0.305630383761823,
      -0.193869982747562,
      0.269109722253017,
      -0.328710790862395,
      -0.0312213615296677,
      -0.831435426212685,
      0.522827818228708,
      -0.19628796792737,
      0.189507875278095,
      -0.531908851200788,
      0.0777757474889619,
      -0.788067743066988,
      0.0440998643096452,
      -0.353744239710046,
      0.518509592096467,
      -0.0214781896850067,
      0.494387365048185,
      -0.502007107342488,
      1.03876495469318,
      -0.446593490058591,
      0.450786081551169,
      0.0269252476802517,
      0.955444992951564,
      0.0523153241632849,
      0.537988530334238,
      -0.621891420624168,
      0.294694875180707,
      -0.68084586880566,
      0.911876464895195,
      0.074452615428673,
      1.27711006112146,
      -0.932767189540386,
      0.654164532641515,
      -0.602076608185989,
      0.29153145009533,
      -1.11923771906391,
      0.279164170821985,
      -1.14653601245236,
      0.0514545605891068,
      -0.795177293267561,
      0.406372686858605,
      -0.401578745503677,
      0.769839752146855,
      -0.172804594735247,
      0.566612906234361,
      -0.487647936727854,
      0.776706376489062,
      0.0771810633790992,
      0.774233211574576,
      -0.161858304851823,
      1.19820702993229,
      -0.0486250606282905,
      0.979268801914511,
      -0.439982128637287,
      0.810128410280024,
      -0.927158784729957,
      1.00291014615518,
      0.460000907507888,
      1.01741996926566,
      -0.301614413245312,
      0.560336467114549,
      -0.82217123265064,
      0.149518013279509,
      -0.6281808244823,
      -0.254979082177582,
      -0.966975539432801,
      0.271327680515308,
      -0.510202856720004,
      0.362535153065183,
      -0.373364291523323,
      0.538254323277444,
      0.310804963541319,
      0.836283079485665,
      0.087056187770598,
      0.302924235810466,
      -0.380879857760463,
      0.659135572542251,
      0.141275600365467,
      1.1770891843547,
      -0.480316773179096,
      0.0614363848574626,
      -0.822312135224161,
      0.12221976354752,
      -0.335886101766483,
      0.533077370831192,
      -0.38005776341662,
      1.34821100871923,
      -0.144631534562506,
      0.864592288878349,
      -0.488509952872772,
      0.354562722051484,
      -0.968554039225675,
      -0.134566661879424,
      -0.342221036011906,
      0.0333589119235318,
      -0.529271926383434,
      0.270176926711205,
      -0.167449852282349,
      0.327741926468146,
      0.0923667980950272,
      0.73346286048433,
      -0.558459569803191,
      1.09264991576091,
      -0.186087464063395,
      1.10990792908637,
      -0.51129307186614,
      1.08815014184234,
      -0.652930979052591,
      0.427657202860557,
      -0.0901630148711442,
      0.51235971076557,
      -0.736696259069332,
      0.274288076101272,
      0.201826493260025,
      0.813785674158339,
      -0.359053003176507,
      0.968510223611984,
      0.347804822514268,
      0.476426254295655,
      -0.219315376067958,
      0.431341940258278,
      -0.431537256489348,
      0.867587183277114,
      -0.402481845549955,
      0.129869721002958,
      -0.470055452635003,
      0.121208138985166,
      -0.556852553698186,
      0.304617519980002,
      -0.0254315445642713,
      0.462002080565954,
      -0.105052859268016,
      0.739204517888832,
      -0.42263912942567,
      0.3241753436265,
      -0.218913543848892,
      0.829071468916965,
      -0.937187377877339,
      0.435564568529787,
      -0.59955367887283,
      1.11930947561058,
      0.227888923845338,
      1.29104885282024,
      -0.249295903396667,
      0.596401772709508,
      -0.00547531743664834,
      1.00244537259229,
      -0.659636983372238,
      0.788139290454936,
      -0.605926732130142,
      0.0119484334524107,
      -0.0871923826814757,
      -0.281819170803389,
      -0.448465847237476,
      0.560661921218092,
      -0.595458946349665,
      0.861029544845817,
      -0.167587751493632,
      0.67047046196585,
      -0.423523432897362,
      0.507470332904309,
      -0.073311199585975,
      0.621874303471596,
      -0.306945678188587,
      0.5595330961616,
      -0.378213200506106,
      0.165091306201963,
      -0.452843012335782,
      1.05745412457457,
      0.168314221373358,
      1.30684542353022,
      -0.25137299177091,
      1.05095953499716,
      -0.197538107612486,
      0.61490701043732,
      -0.279007840896494,
      0.488119051240943,
      -0.155329306717108,
      0.670569885359526,
      -0.683704212612961,
      0.506901359149671,
      -0.232736965247767,
      0.0377122343266024,
      -0.511130248396849,
      -0.0458730774802874,
      -0.4978365992649,
      0.790406208012194,
      -0.49990761370434,
      0.729576221972475,
      -0.46237602656859,
      0.440598710775934,
      -0.517033041829025,
      0.0204409197823872,
      -0.071118704076446,
      0.162720716168508,
      -0.821874744210309,
      0.709568010480091,
      -0.366726693742003,
      0.552098244666434,
      -0.321940637518236,
      0.594249964931999,
      -0.167980518766046,
      1.18721403149524,
      -0.486870349767483,
      0.426762592306701,
      -0.189529452947204,
      0.618488946159848,
      -0.685562651092143,
      0.356062248809138,
      -0.490098420009156,
      0.149495988209523,
      -0.722132579339895,
      0.543985134571312,
      -0.337613936070268,
      0.390972512169335,
      -0.179811345342682,
      0.00647101614292048,
      -0.873868270624986,
      0.298834445698074,
      -0.191555245320701,
      0.455748031593742,
      -0.715108810791331,
      0.736295299016077,
      -0.545225285360216,
      0.697805202824363,
      -0.27246206832377,
      1.11660204174409,
      -0.19166935429919,
      0.630085743458733,
      -0.163986280787291,
      0.980427320502238,
      -0.503039668231479,
      0.611969842936507,
      0.0460643426681367,
      1.08529591370765,
      -0.118002063775482,
      0.664790571609388,
      -0.0939783035207668,
      0.0610103495542537,
      -0.992552907734786,
      0.430163303549151,
      -0.53069717090654,
      0.50117441419193,
      -0.382978217914762,
      -0.0526210153142945,
      -0.846672314998854,
      0.665298901859881,
      -0.989035407020196,
      0.43528156095896,
      -0.0783024565681361,
      0.743125509816746,
      -0.851376220666958,
      0.289420089581671,
      -0.931674177515286,
      0.532708787037082,
      -0.433084105188426,
      0.731395591905504,
      -0.10121108844653,
      0.341529067759823,
      0.292999271138772,
      0.776336901415352,
      0.423034758222201,
      0.728474368376001,
      0.192671963252284,
      1.00024405792988,
      -0.263299209813425,
      0.434084970371241,
      -0.367605751661931,
      0.196341575300852,
      -0.496595487519775,
      0.404023725883237,
      -0.901256043913003,
      0.453945398062758,
      -0.467314354099159,
      0.439471454237786,
      -0.263073951397115,
      0.987877991044837,
      -0.487752819660936,
      0.541521798140147,
      -0.86375117900956,
      0.715973998668398,
      -0.887422475044245,
      0.0653773978317373,
      -0.261063066036427,
      0.847457295702158,
      -0.783776775827386,
      0.615081916363463,
      -0.0456427783698353,
      0.193031426238012,
      -0.136229567679624,
      0.604698365601993,
      -0.0821480482189297,
      0.410127129322062,
      -0.0783672535894532,
      0.708879448055873,
      -0.516531845258338,
      0.829717672234301,
      -0.621354678474964,
      0.373516706821693,
      -0.496087136333093,
      0.293263829595781,
      -0.348964667298387,
      0.632246949128849,
      -0.13761298923642,
      0.477295540495448,
      -0.937087550264358,
      0.35565671527556,
      -0.824190015357076,
      0.516156704871057,
      -0.170624315128872,
      0.512314202778208,
      -0.163413315394997,
      0.806169813443308,
      -0.179801189680346,
      0.334079356689341,
      -0.415977338397494,
      0.0324599688998379,
      -0.163471664009765,
      0.334786377124876,
      0.0471621051069707,
      0.956978011833683,
      -0.392433100548594,
      0.260538918503334,
      -0.154690597539039,
      0.616545180752249,
      -0.469722835281772,
      0.569835544575842,
      -0.212527764967557,
      0.939371280928254,
      -0.775658836018135,
      0.493164373325726,
      -0.395954376736635,
      0.0549346772278355
    ]
  },
  {
    "bias": -0.833568116106823,
    "weights": [
      -0.566196626781578,
      0.367031983736452,
      -0.250240140711069,
      0.935770933952076,
      -0.755443957986051,
      0.907254812264468,
      -0.459753608079512,
      0.777424945858039,
      -0.585982472443014,
      0.934079953904301,
      -0.65933288664526,
      0.531894754866089,
      -0.32324956358216,
      0.0580748237508809,
      -0.950797342374667,
      0.0975260183852482,
      -0.656675807971822,
      0.583923346169257,
      -0.300958771398737,
      0.432504128866132,
      -0.593574586135137,
      0.86523508553637,
      -0.130335921948001,
      0.445499167519388,
      -0.531099670813931,
      0.00883863121682714,
      -0.366425034760695,
      0.144002113558353,
      -0.887512466817867,
      0.740497868852922,
      -0.677466791904283,
      0.116251181865228,
      -0.104327033234037,
      0.765918705744207,
      -0.61124238455078,
      0.963888757601104,
      -0.180213308971272,
      0.0741806184363231,
      -0.437400204313799,
      0.378634983110246,
      -0.544212037809991,
      0.123117369929883,
      -0.853627357063108,
      0.278368562778187,
      -0.531821674716784,
      0.0668834349914406,
      -0.153200529952331,
      0.495042331880812,
      -0.291564074598718,
      0.813796438148984,
      -0.132664788859876,
      0.909238132391615,
      -0.0949956053378971,
      0.622430548361703,
      -0.449698855378525,
      0.700961541245208,
      -0.236696061788451,
      0.804740973191681,
      -0.404671263772969,
      0.74660347674776,
      -0.540857794073342,
      0.314702289680392,
      -0.904175591848734,
      0.824426244996918,
      -0.28882220811568,
      0.514443272770432,
      -0.463059722133477,
      0.530878589612489,
      -0.433792239842363,
      0.937184673225327,
      -0.970656606023661,
      0.505951492550984,
      -0.177275998764979,
      0.892542915105076,
      -0.934681993810027,
      0.40815238051020299,
      -0.0853567228171344,
      0.776621931956065,
      -0.954911973117475,
      0.435222734551313,
      -0.869916466257887,
      0.854804558057271,
      -0.88314760331211,
      0.0483581875676094,
      -0.621514840806608,
      0.768225764747814,
      -0.0199399402597774,
      0.483209533544908,
      -0.317624603719404,
      0.912264397836338,
      -0.709438423744747,
      0.386546654504676,
      -0.587779789773234,
      0.812676107342892,
      -0.718854863495388,
      0.350105066839683,
      -0.118100221881703,
      -0.0144548186297862,
      0.131387922480351,
      1.04118710522915,
      -0.644747365037313,
      0.428359901547058,
      -0.219053726598962,
      0.0631444406437054,
      -1.07037981848769,
      0.390257813525508,
      -0.833501836894588,
      0.110555451563377,
      -0.746948950727363,
      0.977122500560207,
      -0.682957832851669,
      0.390909468937157,
      -0.886656700580687,
      0.948190444470915,
      -0.881698020588861,
      0.685555733046794,
      -0.443934501211094,
      0.839198467521302,
      -0.241095116790024,
      0.41275684741291,
      -0.398178531395377,
      1.01081103365132,
      -0.131260149260209,
      0.638311504641683,
      -0.00414397800907426,
      0.578353427861887,
      -0.632516261826384,
      0.590491709810367,
      -0.00912893852252256,
      0.668956592974968,
      -0.270491482018582,
      -0.051344329356284,
      -0.802382299021031,
      0.737709174852821,
      -0.868882542453622,
      0.185559561439965,
      -0.811447046071971,
      0.571226801043922,
      -0.129904572500415,
      0.079288489078519,
      -0.0110195525973195,
      0.843508711943174,
      -0.749937142367863,
      0.327127059732237,
      -0.293633688929445,
      0.287599845735778,
      -0.453082900189709,
      0.664983603823181,
      -0.725578520981221,
      0.169791514277865,
      -0.701442551429268,
      0.49570475011593,
      -0.350936242406272,
      1.03002201755924,
      0.162077762392561,
      1.00821778871056,
      -0.071432916141152,
      0.615789860928737,
      0.141064385226254,
      0.429184607794416,
      -0.528151095237711,
      0.164183722839626,
      -0.173779162316691,
      0.019683682893405,
      -0.802991641548443,
      0.616836672376765,
      -0.573291398046497,
      0.951367150431249,
      -0.13875867851952,
      0.607529998553026,
      -0.892167882553976,
      0.818443787750723,
      -0.755855412234683,
      0.1410963549133,
      -0.444788006730938,
      0.555495131489599,
      -0.182036955468654,
      0.503082966647837,
      -0.542121597251636,
      0.774687881813409,
      -0.0749712958315463,
      0.376029895991247,
      -0.463277455119348,
      0.802990623373679,
      -0.903173432143117,
      0.559393527503778,
      -0.28045734128327,
      0.176459559702085,
      -0.445040027802411,
      0.0742059946627054,
      -1.0439305089016,
      0.100313320715878,
      -0.696429801822606,
      0.664448278278935,
      -0.450513091453889,
      0.720544654884009,
      -0.740425638315787,
      0.688571982145712,
      -0.595269253837316,
      0.525381268209631,
      -0.791868123483413,
      0.538529766852398,
      -0.601402712193747,
      0.238933154405758,
      -0.34508268572773,
      0.619129612401258,
      -0.739201279683612,
      0.361071294687531,
      0.123932778077601,
      0.835756237427015,
      -0.284229651873979,
      0.342129160311799,
      -0.388259878412179,
      -0.259468422893687,
      -0.491563531834671,
      0.387023821889133,
      -0.511931506497142,
      0.14107267616857,
      -0.333715199346064,
      0.711253694369456,
      -0.653860955185606,
      0.178904210317863,
      -0.487195620708764,
      0.0307016722319723,
      -0.678913746149216,
      0.639794637214433,
      -0.25317600889457,
      0.916873097567824,
      -0.711275653373715,
      0.854909566286605,
      -0.913596772387298,
      0.464075552639817,
      -0.332471474007182,
      0.557571287043031,
      -0.211302274807285,
      0.378579913042163,
      -0.419637447759596,
      0.480564196385094,
      -0.365054427617076,
      0.729271922129852,
      -0.109353759055084,
      0.228433517466791,
      -0.234473439665947,
      0.621399816821957,
      -0.590043714822749,
      0.283480224596343,
      -0.287553636428696,
      0.159550139736009,
      -0.77861628831253,
      0.810786816406386,
      -0.113192444682473,
      0.555204094430302,
      -0.499942035355376,
      0.657117794003944,
      -0.14727772086721,
      0.438735634223612,
      -0.0458396770157089,
      0.628944308880778,
      -0.596792794390789,
      0.375556316699007,
      -0.765391468899432,
      0.563437897950433,
      -0.851931581440051,
      0.337004343508121,
      -0.82870358950313,
      0.104001553435031,
      -0.0256835083429857,
      0.744647430977407,
      -0.65674657364387,
      0.776130417570288,
      -0.636114197693717,
      0.327080864001567,
      -0.62064988004367,
      -0.0645293492119148,
      -0.94641581296444,
      0.439054297607346,
      -0.377324477506556,
      0.639231966247556,
      -0.459715224197576,
      0.194073697342129,
      -0.598672521388408,
      0.744460770817539,
      -0.532367239739882,
      0.68289639153328,
      -0.718358814035825,
      0.200208620271038,
      -0.220228783094375,
      0.298655173024411,
      -0.675642064069425,
      0.415048617570269,
      -0.366689382267259,
      -0.250238222930537,
      -1.24569722658733,
      -0.281880859504936,
      -0.0735472048769909,
      0.645910188067495,
      -0.551093094262969,
      0.838962028624353,
      -0.789505936776287,
      0.49435865177153,
      -0.531423364226093,
      0.0747528390410217,
      -0.866497626002644,
      0.30178621246966,
      -0.329121949604504,
      0.863967920539836,
      -0.0412306142602385,
      0.222947847821591,
      -0.88743596782498,
      0.331967785151916,
      -0.392112731159697,
      0.215003178542373,
      -0.214782092951003,
      -0.0594350211574608,
      -0.492110438738265,
      0.211053730668065,
      -0.791463139013413,
      -0.289831697493388,
      -1.06256756544733,
      -0.371656647323466,
      -1.83234033693067,
      -0.289411021417654,
      -1.02455471831376,
      0.166237871203127,
      -0.260670075341451,
      0.490840262918962,
      -0.305173292814265,
      0.333789959416537,
      -0.514517122434394,
      -0.278330244187984,
      -0.559823613410476,
      -0.213255683917243,
      -1.07155828574436,
      0.828180496041587,
      -0.810536261524941,
      0.0366748087168335,
      -0.198897781442904,
      0.889772059755901,
      -0.590766858822036,
      0.673366759889262,
      -0.558176555797476,
      0.151374842111001,
      -1.48644033612553,
      -0.676509857970876,
      -1.08639296858966,
      -0.491099725695845,
      -1.61555623605943,
      -0.427498421359827,
      -0.871387763987648,
      -0.273885256117347,
      -0.443829937097128,
      0.108391972990057,
      -0.469727956581147,
      0.00464794090376102,
      -0.775550200915819,
      0.53308788227064,
      -1.04816061888095,
      -0.139575036118215,
      -0.641915843091209,
      -0.186536713945847,
      -0.954731850182006,
      0.581569928890878,
      -0.109594061120118,
      0.547938065427244,
      -0.182585390412721,
      0.222075694805922,
      -0.307614577062871,
      0.25642676648236,
      -0.692707097161964,
      0.31511336830852,
      -1.54069781867534,
      -0.416791118298947,
      -1.09032598388426,
      0.499617582528561,
      -0.625702661892875,
      -0.501780333360726,
      -0.888076712027746,
      0.452157248264196,
      -1.106022704035,
      -0.0939618263597325,
      -1.16111753460235,
      0.120193344283532,
      -0.841309545904448,
      0.40808646055746,
      -0.521329329045508,
      0.187686283431247,
      -1.30029083267081,
      0.0957351849898269,
      -0.497503458443073,
      0.900596921758396,
      -0.288244194143634,
      0.914201726809101,
      -0.58002284055331,
      0.29010424918086,
      -0.997274704844804,
      0.789694247586848,
      -0.865200055542578,
      -0.281039730078832,
      -0.543839277454902,
      -0.376758293579,
      -0.860294982341593,
      0.48171439720306,
      -0.443755305773555,
      -0.188021405164304,
      -0.448864668497195,
      1.11094238787189,
      -0.595335649491382,
      0.224258175488719,
      -0.568294908548724,
      -0.0277410474797931,
      -0.661988468382802,
      -0.277427028322773,
      -0.562134761356718,
      -0.0926013612345869,
      -0.709052728594646,
      -0.121340405591584,
      -0.283129829495434,
      0.263737364677143,
      -0.364920588537246,
      0.489666561838109,
      -0.322997372286498,
      0.72797947267029,
      -0.102021864270102,
      0.613832615783391,
      -0.760111779590049,
      0.703963998747345,
      -0.769725636287154,
      0.402483486689605,
      -0.521365401933049,
      0.367225055409096,
      -0.584466899647068,
      0.336313243887595,
      -0.305773307494136,
      1.17991800009224,
      0.0780758724361388,
      0.391340274920776,
      -0.73938614900219,
      -0.0320239562679312,
      -0.726563886587101,
      -0.151642100626075,
      -1.10773428625142,
      0.325053083866083,
      -0.535111419372706,
      0.653749097569248,
      -0.628625791285936,
      0.380940711284314,
      -0.475482991868428,
      0.392425257572452,
      -0.919874326304709,
      0.817682939233066,
      -0.733164598226699,
      0.441621523698089,
      -0.75382533783808,
      0.674058502719867,
      -0.616623471938798,
      0.566864622662612,
      -0.0592579337484392,
      0.72978149487389,
      -0.48865868152789,
      0.35012319768118,
      -0.178389288230515,
      0.895279186632961,
      0.167833735611184,
      1.05828623989526,
      -0.931920097645795,
      0.333255186250233,
      -0.78995783994468,
      0.0861731461062555,
      -1.08092431034767,
      0.0338915927757121,
      -0.731398547079937,
      0.646218591287593,
      -0.483560515020401,
      0.593272749042911,
      -0.460034346834565,
      0.783502318299195,
      -0.420358627764675,
      0.242392266727309,
      -0.110315949177023,
      0.388904648715415,
      -0.0652015581245948,
      0.539324797229249,
      -0.0724845987116384,
      0.447892281524039,
      -0.263287888822452,
      0.0763426062188927,
      -0.696984225145322,
      0.89043626234364,
      0.286245081212557,
      0.740197476637737,
      -0.0608912925019916,
      1.04787045622745,
      -0.22923054768343,
      0.444719424956926,
      -0.980346015381243,
      0.180480940823236,
      -0.191218040293409,
      0.361927195875095,
      -0.829984290314183,
      0.919444044728028,
      -0.297241669463369,
      0.579074540405304,
      -0.257437113209959,
      0.878049956567876,
      -0.113567213610935,
      0.0430069884528563,
      -0.860869367617068,
      0.494646012381982,
      0.247711350657457,
      1.12117227618111,
      -0.359613126326088,
      0.550010196758402,
      -0.227755028450434,
      1.07280847787615,
      -0.216405733617599,
      0.972192061275747,
      0.449820772735628,
      1.1435304647339,
      0.502337557545135,
      0.898210411823597,
      -0.330066289324449,
      0.239900761882345,
      -0.424092955123629,
      0.575426472411229,
      -0.312053348214485,
      0.753008701093561,
      -0.278600862783138,
      1.01597046330077,
      0.235229287231544,
      0.53870610191307,
      -0.510409948174519,
      0.0831412980887813,
      -0.290541373010682,
      0.330630324454879,
      -0.847404030758566,
      0.133363407202987,
      -0.781494652371044,
      0.985490028481478,
      -0.517858137166979,
      0.836652718095481,
      0.227348578775242,
      0.655031781205637,
      -0.2347616138457,
      0.771933292395557,
      0.593618937654629,
      1.32862251984167,
      -0.0113879959268035,
      -0.136632569645771,
      -0.876226350701874,
      -0.140735350114312,
      -0.571861107282799,
      0.751786839450536,
      -0.759539292014216,
      0.268710752869918,
      -0.11000928710481,
      1.40395274641913,
      -0.296678733990068,
      0.695889337992279,
      -0.481451575027346,
      0.386129827519568,
      -0.410450175595679,
      0.11072039643722,
      -0.19562185312639,
      0.820351739016042,
      -0.180990879556157,
      0.97418918522453,
      0.200671780652446,
      0.435959862765726,
      0.423708353836194,
      0.691674150625028,
      -0.344699331524273,
      0.870073283110283,
      0.0895067262907015,
      0.811668164017454,
      -0.5029209354742,
      -0.13780393319531,
      -0.97587410621211,
      -0.198534038853572,
      -0.662431713321834,
      0.806661647491763,
      -0.00877239576388993,
      0.682377457971791,
      -0.548024213085502,
      0.786896983968739,
      -0.399663158372067,
      0.999252426901326,
      -0.0331405114544596,
      0.147667565403329,
      -0.852206169442834,
      0.853242312649731,
      -0.247768197256017,
      0.561588910070537,
      0.0662381950262837,
      0.781033768160155,
      0.0775689536392479,
      0.481131336707333,
      -0.454495414562963,
      0.381580408383036,
      -0.468279967463526,
      0.435189752434009,
      -0.75295778551196,
      -0.127756663103702,
      -1.2259612391054,
      -0.044098836594353,
      -0.51292601903795,
      0.613531416191049,
      -0.378048530462593,
      0.387911995249304,
      -0.231108879653089,
      0.736261939597549,
      0.341500714154578,
      1.11674440688871,
      -0.495837258282025,
      0.791833920385353,
      -0.184729948719375,
      0.836836195468798,
      -0.18356965479188,
      0.906631560790458,
      -0.979564187649309,
      0.594072004570608,
      -0.514218385855366,
      0.917814532757681,
      -0.035417118312714,
      0.47450998856847,
      -0.598073302524597,
      0.41491689048505,
      -0.447815109551022,
      0.333000188899913,
      -1.07933550033557,
      -0.188146078211116,
      -0.865896900143614,
      0.187868772839043,
      -0.554740515539855,
      0.125020335367192,
      -0.163853524206133,
      1.13087192820033,
      -0.201226727940236,
      0.747499149065896,
      0.209442443824898,
      1.12671394946021,
      -0.19872221750484,
      0.928290793277478,
      -0.554114369112918,
      0.49144116485416,
      -0.763063204830076,
      0.442393216976148,
      -0.750268227214189,
      0.320260042805651,
      -0.317050138385379,
      0.376313212645968,
      -0.819583593748924,
      0.24969929121852,
      0.166117614314907,
      0.382342065044268,
      -0.9266033301268,
      0.19797604909005,
      -0.735579156345329,
      -0.196622042781836,
      -1.3778215504163,
      0.153479115255332,
      -0.686660153615107,
      0.621102765097687,
      -0.377231468125188,
      0.453765327137606,
      0.18595979118562,
      0.620496771366635,
      -0.213207273486836,
      0.74127016556672,
      -0.34447616001471,
      0.495886726465085,
      -0.11305171487959,
      0.882790569161433,
      -0.773457111219623,
      0.0263823312830098,
      -0.239717716672224,
      0.723813653565595,
      -0.271156958381227,
      0.689281630227323,
      -0.685553330960815,
      0.214878773461342,
      -0.994828722341811,
      -0.228291966457097,
      -0.651391571431237,
      0.000860920014131938,
      -0.735413408557444,
      -0.090316709080824,
      -0.742352556035848,
      0.851756376753441,
      -0.229963489915542,
      0.639124370580804,
      -0.620751177689731,
      0.151956306689167,
      -0.555308807158142,
      0.455310643034832,
      -0.521315681613343,
      0.491975136322815,
      -0.354764269385298,
      0.416449439071956,
      -0.298507053506411,
      0.419879148444105,
      -0.931588182659628,
      0.098745733545509,
      -0.954849909328039,
      0.943007204803094,
      -0.197593553057037,
      0.0119405856154392,
      -0.392044573281994,
      -0.107015258672351,
      -0.305736409274824,
      -0.00952576077734993,
      -0.590555487282548,
      0.185112972196158,
      -1.14933194071342,
      0.078178760947931,
      -0.194982824211957,
      0.0651736565542627,
      -0.69151668876439,
      0.0442274171748793,
      -0.782509402135388,
      -0.0103101781152104,
      -0.767093635399985,
      0.490060438119693,
      -0.542219942869303,
      0.60287223014954,
      -0.957811214161445,
      0.922224489816139,
      -0.315001914540917,
      0.339930388303441,
      -0.500219008652595,
      0.769274006024596,
      -0.38889994210978,
      0.878232614904333,
      -0.453090298783508,
      0.15584992053266,
      -0.529567239149111,
      0.564480247377302,
      -0.206691073350419,
      0.309918358236644,
      -0.173162954319025,
      0.36576694237067,
      -0.907386533867802,
      0.543935057794392,
      -0.957626089416983,
      0.872487223664483,
      -0.428286703799097,
      0.0503497226510482,
      -0.267806351844225,
      0.277064041433317,
      -0.426776647708854,
      0.23950243984241,
      -0.937339989759297,
      0.151552089485071,
      -0.723221631489976,
      0.239692306278334,
      -0.727191924921792,
      0.398253219387612,
      -0.57676461505553,
      0.347293104672475,
      -0.989663951559767,
      0.268451897552447,
      -0.753398825472235,
      0.928519592794555,
      -0.574128696014597,
      0.28364367330467,
      -0.850453690234628,
      0.446951687207016,
      -0.0196143228205207,
      0.765685251896706,
      -0.769025267040092,
      0.433014181251546,
      -0.0881423949376033,
      0.203847243017758,
      -0.0353933925126863,
      0.285712961902883,
      -0.202921235149593,
      0.112848120840221,
      -0.611140634794218,
      0.627524913347874,
      -0.189074736405389,
      0.906980254182779,
      -0.650369540159763,
      0.0355500029565534,
      -0.924494713044024,
      0.25104216265075
    ]
  },
  {
    "bias": 0.669212770959927,
    "weights": [
      -0.236741760855886,
      0.155103058626458,
      -0.209688267302554,
      0.434117340219262,
      -0.122938071434823,
      0.00604722788839006,
      -0.845763701873721,
      0.344015588678427,
      -0.889508053608941,
      0.645868582020453,
      -0.931660756902611,
      0.00439376337658324,
      -0.642894336249065,
      0.0405973434433395,
      -0.973674866570209,
      0.0319726921513405,
      -0.497842558425778,
      0.520432247556947,
      -0.980156470546572,
      0.165247175919473,
      -0.731767726005878,
      0.118378717507412,
      -0.436016511840754,
      0.0383323840975447,
      -0.611840495193303,
      0.788250854605926,
      -0.94808193480041,
      0.158234980962349,
      -0.0826837113512138,
      0.618082357392685,
      -0.717848817220819,
      0.0040343757737588,
      -0.321899865982723,
      0.4512941172795,
      -0.611534304243361,
      0.301096331135876,
      -0.794697985549018,
      0.347040030506447,
      -0.62090912679858,
      0.441247919192087,
      -0.230355032158015,
      0.854586837262355,
      -0.15084606723571,
      0.633623196057032,
      -0.276666638722186,
      0.107321101524939,
      -0.968166415038338,
      0.586153826367387,
      -0.216943784740292,
      0.873263310826581,
      -0.151674543044854,
      0.515077654724757,
      -0.944338242497453,
      0.0857949867312773,
      -0.101800390100945,
      0.118363043348474,
      -0.719086546785704,
      0.17135588320501,
      -0.822276842390565,
      0.334007664041152,
      -0.0586304614648396,
      0.694568979084046,
      -0.254316679518609,
      0.284397385089356,
      -0.919299114539413,
      0.947025688269116,
      -0.652372769388656,
      0.190429606706365,
      -0.455339917366056,
      0.654610682115186,
      -0.24488639665203,
      0.17733432743186,
      -0.81732946033884,
      0.616680723426685,
      -0.857527447555989,
      0.930615071292625,
      -0.925211784247967,
      0.830704582420931,
      -0.749386321445379,
      0.503179578934624,
      -0.820447772395306,
      0.360403947886898,
      -0.938481108722501,
      0.212046778393931,
      -0.4655553756587,
      0.202731061821213,
      -0.0626061735850425,
      0.232862771965498,
      -0.335840943947326,
      0.512308799447089,
      -0.566688869851415,
      0.631135683517434,
      -0.51882100362834,
      0.322076283375943,
      -0.410501903459836,
      0.472443851961868,
      -0.775125835056867,
      0.737726505786189,
      -0.824911271452574,
      0.243430610071031,
      -0.488741156881156,
      0.884570260744051,
      0.0444689319643135,
      0.79891711383124,
      -0.433527091320181,
      1.12165880337957,
      -0.504395717519764,
      0.455623214758113,
      -0.156833015123606,
      0.238205205544299,
      -0.144164179248679,
      0.924406572675522,
      -0.40272266436495,
      0.321125434542058,
      -0.520975804961636,
      0.679358330776655,
      -0.739088448141355,
      0.077794280807315,
      -0.797575248180466,
      0.69019765770919,
      -0.901300257175272,
      0.420753845797848,
      -0.960051770640756,
      0.724793258795932,
      -0.423655025739205,
      0.173402236842357,
      -0.962695515178616,
      0.240077109011425,
      -0.199211963958385,
      0.530914868237632,
      0.11171621319326,
      0.656405794339536,
      0.358384045353401,
      0.654511261929453,
      0.0981366753100488,
      0.176512412735119,
      -0.146655569018255,
      0.41739613795566,
      -0.584136967258635,
      0.472825173899689,
      -0.56925536532386,
      0.66628238450097,
      -0.0804846471310475,
      0.108863171867498,
      -0.317411306720408,
      0.696405065674976,
      -0.14767404134579,
      0.364188799004159,
      -0.640717739917964,
      0.697229815618901,
      -0.868357242106094,
      0.326895943603009,
      -0.529945831269876,
      0.636083406535485,
      -0.644294938701752,
      0.97617466917252,
      -0.624213554829626,
      0.388803826098625,
      -0.0400428148978239,
      0.491364498251344,
      0.247491626308123,
      0.604052180404704,
      0.178716046113739,
      1.23214743719555,
      -0.640698700100011,
      0.145363428911385,
      -0.836365800974642,
      0.974050758147632,
      -0.248974958084978,
      0.485611438960057,
      -0.486060006479957,
      0.323421546672318,
      -0.446194715005634,
      0.409227400632083,
      0.0185468573317377,
      0.523619863459163,
      -0.281728310673131,
      0.87330226992595,
      -0.646725757839214,
      0.0778465309543334,
      -0.924236411612626,
      -0.0886143575634541,
      -1.30599612826518,
      -0.243416417829324,
      -1.03062965475413,
      0.288954181834349,
      -0.114190284364279,
      -0.0164879866467638,
      -0.538498989558139,
      0.519746674477659,
      0.409863722571577,
      0.482387682579839,
      -0.604043372988912,
      0.65996627730983,
      -0.11664091971229,
      0.515121030308066,
      -0.452254687720699,
      0.295740099342903,
      -0.179067689310002,
      0.288894639176503,
      -0.791290943596846,
      0.335050249492781,
      -0.647144407736043,
      0.61301180321823,
      -0.349557995142637,
      0.312757335208736,
      -0.51729552426449,
      0.149997441831984,
      -1.46466218398836,
      -0.553561049159819,
      -1.57830367767845,
      -0.983478418225561,
      -1.65075385241536,
      -0.12137058169375,
      -1.24234099250364,
      0.271740794937527,
      -0.458042697864977,
      0.592468483133325,
      0.0110534391166129,
      0.408345098116601,
      0.252438985739097,
      0.918183411548848,
      -0.0166127709306434,
      0.155461253312715,
      -0.398089975849737,
      0.471930213400164,
      -0.422640285637625,
      0.905305129746541,
      -0.197809836781963,
      0.645355506204579,
      -0.454726564847145,
      0.122383098848714,
      -0.566523012145265,
      0.226091795079146,
      -1.00388907234805,
      -0.369916321826822,
      -1.1381077828093,
      -0.390779781977056,
      -1.33094070942314,
      -1.14168652229691,
      -1.75237040244106,
      -0.604824004578825,
      -1.12943283410063,
      -0.107992091235875,
      -0.921763585567222,
      0.584842794494171,
      -0.536311725072639,
      0.931526957076699,
      -0.748194265548343,
      0.348766931777478,
      -0.253999604711947,
      0.737579753055247,
      -0.0873882487306735,
      0.927250675581707,
      -0.296086815249599,
      0.0252337242321361,
      -0.254010216283208,
      0.699700476819725,
      -0.761097371835402,
      0.815023681639509,
      -0.0244960422030252,
      0.11998913197141,
      -0.71813621896532,
      -0.137950178410797,
      -0.914925702315347,
      0.081603592262337,
      -1.44167087118491,
      -0.966559071795515,
      -1.1771356981557899,
      -0.245436898333936,
      -0.767333987999713,
      0.114230380203287,
      -0.731803471652132,
      -0.256088092119564,
      -0.798593989894722,
      0.594146404576266,
      -0.528852118747891,
      0.341674737679062,
      -0.7039848215331,
      0.538681404840821,
      -0.0887677250583875,
      0.448145799545793,
      -0.0761223772300697,
      0.981564735578463,
      -0.387769350894329,
      -0.0596444735667138,
      -0.778510418083506,
      0.741828026149175,
      -0.768253352584052,
      0.490286651096004,
      -0.818537302032221,
      0.767118720416538,
      -0.315251991529642,
      0.348168989877004,
      -0.591780766476205,
      -0.161385234418954,
      -0.777447976633307,
      -0.209396790192006,
      -0.484729453079171,
      0.025388381029016,
      -0.418095742946169,
      -0.159350305050881,
      -0.896154230132226,
      0.0599783790338846,
      -0.981072436370164,
      0.360329059172113,
      -0.370703009647279,
      0.00866166425364625,
      -0.347426578906703,
      0.581013203681896,
      -0.567743567994516,
      0.937774561992517,
      -0.0926226565001332,
      0.372188671660616,
      -0.446779945776342,
      0.791014040531575,
      0.116368059968746,
      0.529476461941666,
      -0.229823609077295,
      0.93850550761426,
      0.0794081027776471,
      0.27988878236036,
      -0.687143315138055,
      0.547170312043617,
      -0.279041233738993,
      0.668451526346092,
      -0.496536283583066,
      -0.0405741802034168,
      -1.13113273922401,
      -0.271476104045489,
      -1.20238197439425,
      0.190347503359251,
      -0.350669197304458,
      0.64535785031319,
      -0.364567085387338,
      0.0361316514971971,
      -0.848413425223013,
      0.757410536988321,
      -0.131348735991987,
      0.988914975805761,
      -0.611492771379737,
      0.896312326678778,
      -0.00420038482874196,
      0.66201743934141,
      0.069603058000817,
      1.28375623922674,
      0.206455875885139,
      1.18070354701952,
      0.23747106158058,
      0.710804069420474,
      -0.497603859844098,
      0.276584869873268,
      0.0592402649052536,
      0.656572163596235,
      -0.468308387730807,
      -0.157579792301134,
      -0.611361543213845,
      0.56217459020345,
      -0.657304513420846,
      0.198721307990093,
      -0.3407799143487,
      0.493887001042483,
      -0.0123758474857151,
      0.282757708528518,
      -0.648123393939319,
      0.150436227317284,
      -0.703666991914219,
      0.421854940800736,
      -0.893888695582325,
      0.564283672643844,
      -0.244799670630707,
      0.53546114220454,
      -0.184695869145774,
      1.30505530811842,
      0.220678915578741,
      1.60498053586395,
      0.209508504157064,
      1.02138003412207,
      -0.955705478222208,
      0.507885551145024,
      0.182669424327403,
      1.04758889308166,
      -0.558923955069943,
      0.367389474817755,
      -0.483233251082056,
      0.652169212723817,
      0.0935122959608552,
      0.785025218019349,
      -0.163381899527839,
      0.263884786062117,
      -0.316820746069374,
      0.0145352572106457,
      -0.120744275148766,
      0.940456331464448,
      -0.609489005069966,
      0.245567050895402,
      -0.897797635319529,
      0.937401443665164,
      -0.160953580357703,
      1.08971948205676,
      0.0863625710986197,
      0.763725939657769,
      0.467041851564144,
      1.06520181944614,
      -0.0105939250998268,
      0.152536031888303,
      -1.04481236281347,
      0.282713754748498,
      -0.419271973175677,
      1.02923717839227,
      -0.0120593046577101,
      0.811351279826771,
      0.274364753651232,
      1.09949652855648,
      0.34363474998576,
      0.721579557395773,
      -0.340059384267649,
      0.550382021318778,
      -0.673892991832724,
      0.918288662301552,
      -0.0130655367320439,
      0.15335911856646,
      0.0290322711263932,
      0.818367024335602,
      -0.259557698323337,
      0.653207824886237,
      0.283115129708836,
      0.542916741700301,
      0.0636135374789093,
      0.907545599186557,
      -0.141604014031493,
      0.88594532221409,
      -0.135793493139728,
      0.902327960403362,
      -0.0201240502582984,
      1.15380774230861,
      -0.181327114920504,
      0.801932257480603,
      -0.312499590901199,
      0.887674189754196,
      -0.298458100099428,
      1.14457206793651,
      -0.143250803617188,
      0.940824875960782,
      -0.645572662012545,
      0.494959578058444,
      -0.979516441516951,
      0.143653351699179,
      -0.804301114717871,
      0.286093838722916,
      -0.537006112766263,
      0.410250791953123,
      -0.417314260497846,
      0.826476421634634,
      -0.428717948567966,
      0.268133148757383,
      -0.319299890509639,
      0.206004384009819,
      -0.130079429105788,
      0.264828203633161,
      -0.803556035375006,
      0.817058299517047,
      0.668874765418547,
      0.850953190491227,
      0.120763428618143,
      0.468895099705097,
      -0.268589716184797,
      0.422227585363667,
      -0.0697679856650279,
      0.734641160132683,
      -0.206857686406458,
      0.337983745040919,
      -0.734746511103154,
      0.142249678393791,
      -1.03193925104862,
      0.267079529683865,
      -0.410333085064931,
      0.454292214766715,
      -0.916703255112448,
      0.644863191722073,
      -0.966057635242978,
      -0.0351712780586525,
      -0.547270261882328,
      0.916455076116266,
      -0.0471775163094164,
      0.00244764194893724,
      -0.636242800749517,
      0.24587925045359,
      -0.0938991292114433,
      0.685908626624906,
      0.249001390253129,
      0.489067786365021,
      -0.21261923967524,
      0.535974777332361,
      -0.354379318283389,
      0.831329082143326,
      -0.0682194540358101,
      0.816919481757989,
      -0.197570638310887,
      0.439249891847801,
      -1.03436447880436,
      0.613663245351167,
      -0.615936743484273,
      0.444034614562459,
      -0.66288927354425,
      0.465940267017371,
      -0.651127003024329,
      0.00911273020523418,
      -0.998126851656427,
      0.336330697285564,
      -0.775571946825955,
      0.648683267467186,
      -0.590246553084281,
      0.25681062179141,
      -0.382034999701324,
      0.770766976494291,
      -0.415817716601709,
      0.513540011797863,
      0.364942214268117,
      -0.0834190892851711,
      -0.00918365396000617,
      0.0599500341676939,
      0.0212384145959974,
      0.326208157729093,
      -0.533744760227087,
      0.463527554564448,
      -0.598555558706458,
      -0.0210876414620923,
      -0.922444452948187,
      0.182571064619541,
      -0.724362378474299,
      0.792875278028875,
      -0.0999997086824864,
      0.655321973867956,
      -0.703969116015069,
      -0.0224930521772172,
      -0.650833399745398,
      -0.020087862931428,
      -0.60179266583772,
      0.309837603134678,
      -0.670739550847582,
      0.0863653511888368,
      -0.68429871220677,
      0.37391441734145,
      -0.367237465210881,
      0.90317949051723,
      -0.32565165501717,
      0.103418679431783,
      -0.156760088686672,
      0.28030007496403,
      0.276125793898335,
      0.534370884660155,
      -0.362124101663676,
      0.187151982920702,
      -0.331182286884892,
      0.645053907304046,
      -0.759394286796941,
      0.0758840762905929,
      -0.681078927783754,
      0.296724869256056,
      -0.841220123153748,
      0.584057046693558,
      -0.274662460663376,
      0.575348963163361,
      -1.02777567771667,
      0.684983975197674,
      -1.01391219240323,
      0.482595010297894,
      -0.988713392593867,
      -0.153862659839951,
      -0.620157832608529,
      0.491655794814615,
      -0.40169559922879,
      0.665265922449982,
      -0.0849970256144054,
      0.770414511242856,
      -0.274546162038872,
      0.571342833697868,
      -0.475924982854584,
      0.1238440187211,
      -0.570357225807098,
      0.203335705528542,
      -0.905209371388989,
      0.0481387294175117,
      -0.387997337261388,
      0.198400044327505,
      -0.238187639742597,
      0.763388295128759,
      -0.514532667579699,
      0.935295374048664,
      -0.439406922838043,
      0.312438428702432,
      -0.670012702838821,
      -0.237428044554888,
      -1.06345609394431,
      0.409799765561235,
      -0.624951536510745,
      0.508176528504988,
      -0.614621707090388,
      0.681941728628514,
      0.0488290386643937,
      1.02548376497622,
      -0.0807210643586809,
      0.357460877050075,
      -0.447405465905725,
      0.772870127340789,
      -0.0375734503309486,
      0.341921310040256,
      -0.676485686215714,
      0.212673342223174,
      -0.265988374200157,
      0.736322508868191,
      -0.39463225849191,
      0.557516712161486,
      -0.653089166407862,
      0.307802897899621,
      -0.989384801808779,
      0.953474129511289,
      -0.384950467601665,
      0.598215314894937,
      -0.742914134408118,
      0.735718641411418,
      -0.639737223586887,
      0.29591344012163,
      -1.22182864361279,
      -0.19782672669655,
      -0.83651493728204,
      0.761375131146018,
      -0.536654566803769,
      0.618376285549769,
      -0.389225191523715,
      0.585762509655506,
      0.0996153085334535,
      0.509232904552506,
      0.223972764553345,
      0.745824170909704,
      0.064021837646241,
      0.230729639107597,
      -0.401221564348055,
      0.348274007876878,
      -0.842281287098194,
      0.983329434662762,
      -0.920498554574425,
      0.128113905371521,
      -0.881150150150596,
      0.512627893831873,
      -0.0637126080840568,
      0.986630717896436,
      -0.359070123434924,
      0.458723465260549,
      -1.15753522032739,
      -0.226318248915955,
      -0.917240034262061,
      0.585881359968664,
      -1.07304496167252,
      -0.199653850939173,
      -0.464232227653692,
      0.5084756243749879,
      -0.607493272967123,
      0.560132323074228,
      -0.807665543934622,
      0.599282584746729,
      -0.497600028654327,
      0.262734493647236,
      -0.527737111858379,
      0.240345982117926,
      -0.848830625190346,
      0.814334648594521,
      -0.644719308043101,
      0.831482168067486,
      -0.211710106679686,
      0.681769449581285,
      -0.614505909203787,
      0.915233223659561,
      -0.838007255160632,
      0.723283578294563,
      -0.0126850508983278,
      0.22379039666216,
      -0.972891034407171,
      0.0437600448804086,
      -0.319826876680393,
      0.486478705385295,
      -0.672255885236818,
      -0.102235062988451,
      -0.603526492838955,
      0.390458256646293,
      -0.440913400694651,
      -0.0777113005281553,
      -0.68548775289547,
      0.611359068114003,
      -0.377830241754499,
      0.300221760093323,
      -0.697728220296185,
      0.519162714056429,
      -0.583730768639468,
      0.0677230041133089,
      -0.389609971718111,
      0.641472455303934,
      -0.387691317059153,
      0.648269259672737,
      -0.674349320435128,
      0.145367239203941,
      -0.430201971751128,
      0.508898561129433,
      -0.297943031681619,
      0.229551391614307,
      -0.646619097861564,
      0.349788816906297,
      -0.454648894518411,
      -0.385464706279682,
      -0.506316472260301,
      -0.265122052729335,
      -1.24493889811928,
      -0.133980000820367,
      -0.887356420458746,
      -0.213239764485135,
      -0.504423933528128,
      -0.0924710183960865,
      -1.10352559298439,
      -0.125057108865641,
      -1.20611876973551,
      0.503149253550978,
      -0.490306003445759,
      0.62289969466558,
      -0.497058546254476,
      0.833134865771821,
      -0.914159959027489,
      0.0994814518371045,
      -0.394994012729728,
      0.703666589084857,
      -0.380935257943783,
      0.37302754496148,
      -0.863452554069457,
      0.14113397537281,
      -0.629913684330241,
      0.841843401855139,
      -0.577595588039108,
      -0.250747095104545,
      -1.06697068683876,
      0.032924775514226,
      -1.20209790536645,
      0.372400557133608,
      -1.31209128305309,
      0.0404087699398284,
      -1.05984119042534,
      -0.125156939013525,
      -0.657008206715407,
      0.260369752609368,
      -0.965509834880783,
      0.220508216908942,
      -0.06616840628384,
      0.720039637052537,
      -0.98513409715517,
      0.145017229088137,
      -0.717334122265379,
      0.951328566740886,
      -0.739200902981311,
      0.790730727739041,
      -0.0248861913685157,
      0.456676602576243,
      -0.352189369941378,
      0.435762379601436,
      -0.209178881982818,
      0.435266165120807,
      -0.735590725396741,
      0.713625306140109,
      -0.379191415556146,
      0.650540288465736,
      -0.769296129495368,
      0.723915493822601,
      -0.881150285815032,
      0.0179147718984209,
      -0.83405317874713,
      0.325054544278752,
      -0.284067639186284,
      0.22623190492471,
      -0.750929110676325,
      0.00510629849213173,
      -0.81194903478481,
      0.337849907446877,
      -0.334815114426806,
      0.45272440810349,
      -0.308427367503022,
      0.0338191548519857
    ]
  },
  {
    "bias": -0.395345726700195,
    "weights": [
      -0.63903810253322,
      0.405969951956519,
      -0.713044103101382,
      0.472241070807092,
      -0.608593989447036,
      0.215404108267,
      -0.569161000926588,
      0.999726399779192,
      -0.313165314641392,
      0.991253321520637,
      -0.525834345503633,
      0.488775973901514,
      -0.545358255629895,
      0.661449707085176,
      -0.109835162106574,
      0.793189544372134,
      -0.807603751219625,
      0.715622987000096,
      -0.0216887225497927,
      0.56200223349128,
      -0.959310261979378,
      0.913810467307368,
      -0.637894639576736,
      0.863416345260766,
      -0.484262841979164,
      0.205061474444839,
      -0.730402704668419,
      0.979808544730678,
      -0.687051776650851,
      0.121861488149437,
      -0.899464987171565,
      0.127300245746644,
      -0.175250889190375,
      0.765642592649818,
      -0.0936285963653397,
      0.313053078997046,
      -0.640432822803501,
      0.217943938948894,
      -0.142130028563843,
      0.550114746232485,
      -0.239461266019774,
      0.0693727023066263,
      -0.515320916780728,
      0.338819421218432,
      -0.753819397104843,
      0.744366606003983,
      -0.204512245737537,
      0.344144410579041,
      -0.701642589667272,
      0.544083354022591,
      -0.527304680793305,
      0.737127350712116,
      -0.28673864495323,
      0.471816921360705,
      -0.709902508980549,
      0.725227635225853,
      -0.768075312379783,
      0.849627757840617,
      -0.987975067756884,
      0.403352019921079,
      -0.484588744676219,
      0.588223858412185,
      -0.314223007099297,
      0.184660146289097,
      -0.0987841592677833,
      0.385619104170917,
      -0.327614800396718,
      0.777822564984577,
      -0.560428906560083,
      0.815922313984438,
      -0.131902351899108,
      0.608058619695832,
      -0.556969038473707,
      0.485887898976967,
      -0.300282553383544,
      0.917398448541692,
      -0.369231792640272,
      0.317117967154543,
      -0.0996808056774313,
      0.74213758517492,
      0.00150292605810517,
      0.387658492961671,
      -0.278199093080218,
      0.142929337053992,
      -0.594650124942255,
      0.16236356606817,
      -0.840582940595586,
      0.701952139714514,
      -0.0527266274248088,
      0.378649113261184,
      -0.534292584208259,
      0.787845831479086,
      -0.222417569175333,
      0.771926827457926,
      -0.0150011773516707,
      0.730967310919096,
      -0.637561750419571,
      0.441375346116229,
      -0.125653002988532,
      0.473470822507499,
      -0.339566240108017,
      0.520093289788774,
      -0.671505542494998,
      0.946188314125495,
      -0.356018751385304,
      0.962198302135446,
      -0.138574489963696,
      0.823558535413302,
      -0.113963104349499,
      0.827899466951022,
      -0.326255641484343,
      0.468178932307371,
      -0.741977950903577,
      0.248010882882612,
      -0.403031483334523,
      0.102430383812938,
      -0.265821027340949,
      0.235406099482529,
      -0.546672575737195,
      1.04229149062672,
      -0.369232763892189,
      0.766194938121722,
      -0.480664458636673,
      0.397461127715623,
      -0.0688697937754885,
      0.53818362660468,
      -0.225444518014743,
      0.803563832353343,
      -0.569833472798782,
      0.54101798084976,
      -0.120116076555027,
      0.070654196242487,
      -0.107966049206707,
      0.705229331743295,
      -0.385593969802118,
      0.482179504168827,
      -0.611328999052887,
      0.370152357548315,
      -0.753192284310237,
      0.656688964508208,
      -0.0035202843153478,
      0.0215504248726882,
      -0.562598572433811,
      0.238421425516836,
      0.0316512660890962,
      0.192707533583595,
      0.0521070309480552,
      1.14208459839743,
      -0.204120222908587,
      1.06270196288998,
      -0.199081630024142,
      0.680850722243607,
      -0.427295604433149,
      0.566827339001472,
      -0.595722774560398,
      0.890920261502128,
      -0.644881756442166,
      0.521495747773913,
      -0.617425567339918,
      0.0521952681045427,
      -0.622110819397654,
      0.157456692754911,
      -0.608777456942174,
      0.302885325885866,
      -0.740734919928845,
      0.237053974043322,
      -0.425623636553537,
      0.987065352513375,
      -0.938831218489833,
      0.829627503931444,
      -0.484270253336979,
      0.964380628624286,
      -0.302198984780406,
      1.12651181105292,
      -0.695646334609269,
      0.731706646046184,
      0.109885546533662,
      0.574096365269007,
      -0.103027176398168,
      0.149941359824827,
      -0.303914294158648,
      0.449287168547807,
      -0.335037341916328,
      0.531252684161533,
      -0.410648993727123,
      0.389524995414657,
      -0.431432310955299,
      0.499934657742309,
      -1.12978642476624,
      0.23920374257476,
      -1.12916886311047,
      -0.27052533495736,
      -0.912645990264946,
      0.602879628889566,
      -0.119789003675582,
      0.681448438081711,
      -0.602479015629265,
      0.112694573699741,
      -0.517662836722004,
      0.825485365845727,
      -0.491408415595742,
      0.289213899431499,
      0.231982955631782,
      0.698027169520142,
      -0.357309125576265,
      0.482319876663908,
      -0.313415909792936,
      0.598800568241113,
      -0.31101252613581,
      0.259154611096567,
      -0.643817715536333,
      0.333785142677694,
      -0.253283987551747,
      0.52058450018634,
      -0.786925357938874,
      0.021253069095807,
      -1.00937847376725,
      0.68419408170956,
      -0.439486321868573,
      -0.192208265090852,
      -1.3124369514945,
      0.471407811694183,
      -0.079617781289384,
      0.445789520502059,
      -0.966623414385105,
      0.437126778695638,
      -0.212913603471826,
      0.722826657793109,
      -0.651625959748736,
      0.496897214260547,
      -0.717905527510136,
      1.02939098282175,
      -0.895845415120444,
      0.254224333446447,
      -0.761751637097275,
      -0.0221692490293095,
      -0.472106624408551,
      0.0688305378088486,
      -0.738550925517483,
      1.26833571882469,
      -0.0868259375722856,
      0.69308785372397,
      -0.245345341009083,
      0.570043995800712,
      -0.92945873572788,
      0.307247491745096,
      -1.09341827104017,
      -0.325800658383841,
      -0.616360981309887,
      0.551332111481125,
      -0.917100582681407,
      0.60854065927595,
      -0.0296339529255492,
      0.347784005059243,
      -0.888840412444914,
      1.01176860663406,
      0.155796910811446,
      0.782016172014074,
      -0.418031546632344,
      0.0502706323785121,
      -0.237569811277193,
      0.242126719279159,
      -1.26637195999819,
      -0.221332774529208,
      -0.512102656649283,
      0.729813545246199,
      -0.00201062603905189,
      0.665580416217571,
      -0.472372229894789,
      0.863657583852972,
      -0.694624194052176,
      0.668526627191167,
      -0.268825585131201,
      -0.168015402736823,
      -1.2669658608726,
      -0.224412563985384,
      -0.900695312484971,
      0.020292661852066,
      -0.775951075107225,
      0.317529928690211,
      -0.802654823469441,
      0.982931644091032,
      -0.658169600201438,
      1.01232316532568,
      -0.203193405034009,
      0.315222705900612,
      -0.952146991853313,
      0.501060404295949,
      -0.72939379805561,
      0.164633595729665,
      -0.593765065382958,
      0.408367681042094,
      -0.681382240949785,
      0.92014776941358,
      -0.310399438719673,
      1.37157972528191,
      -0.122924433773414,
      0.468451786771355,
      -0.120143219272596,
      0.960396054480412,
      -0.455217975771573,
      0.372480239555908,
      -0.520949555245614,
      0.166627645897427,
      -0.375223292013855,
      -0.0809612286533102,
      -0.579493459750182,
      0.918616019351375,
      -0.523200632968018,
      0.545962366162157,
      -0.639877682529326,
      0.690651357933315,
      -0.77855946297561,
      0.161053310584589,
      -0.438778255432533,
      0.0290394314295547,
      -0.948399331012085,
      0.58911613828741,
      -1.0547287697499,
      -0.380912534620121,
      -1.16089941502919,
      0.678183988048301,
      -0.156017175978545,
      1.00061749429814,
      0.213856360479826,
      0.42480208242609,
      0.0142187101157395,
      0.371304584385242,
      -0.230910900789782,
      0.841434709567915,
      -0.786528931414791,
      -0.0431648246790356,
      -1.13085792385621,
      0.769906867035994,
      -0.919337723721247,
      0.208377401615576,
      -0.716036582779228,
      0.0940648137695308,
      -0.974165982859026,
      0.265859875876606,
      -0.666849186892138,
      0.886102940966332,
      -0.27622725644231,
      0.87103012870657,
      -0.77673941023853,
      0.302950317702095,
      -1.20680549063205,
      -0.23786908539053,
      -1.02897219415648,
      0.514719391269804,
      0.21862766884350402,
      1.08909299802899,
      0.0659949050773364,
      0.576698871035326,
      -0.68761660235463,
      0.814906325621661,
      0.0331315859464653,
      0.86476397600248,
      -0.385971456091354,
      0.736830133397031,
      -0.867090317265736,
      0.377612384929551,
      -0.587300720180304,
      0.563274690711053,
      -0.841874427009295,
      0.511381129459603,
      -0.670504926963406,
      1.00201260741952,
      -0.185119693578475,
      0.0142169606078066,
      -0.549244053377437,
      0.658544948012294,
      -0.796211221682411,
      0.294095351551119,
      -0.582560889096659,
      0.509125589866834,
      -0.72241013207379,
      0.710227652935775,
      -0.0668857516912898,
      0.990510749236056,
      0.121703603562191,
      0.272361683780094,
      -0.416772553205969,
      0.805337636214164,
      -0.766913822149861,
      0.0714469022216413,
      -0.805128311581744,
      0.492202912601149,
      -1.00590828883168,
      0.134061499601909,
      -0.138215354547062,
      0.890047465111411,
      -0.726878973088596,
      0.113898768138281,
      -0.454883176578225,
      0.367410050497923,
      -0.266756257184271,
      0.60150177178777,
      -0.108770164083688,
      0.373482479830273,
      -0.862212500908438,
      0.623730189152562,
      -1.15605627352669,
      0.290962162568284,
      -0.332115430853102,
      0.393847010551277,
      -0.338569463339663,
      1.21100787225969,
      0.123859968680958,
      1.11881450824781,
      0.0241292078967347,
      0.487003202623279,
      -0.0941696016215811,
      0.790056554808224,
      -0.631543091172114,
      0.624918293309775,
      -0.97683527555452,
      0.880976149237285,
      -0.628898402380225,
      0.835193002929549,
      -0.760775867253967,
      0.0457819369205134,
      -0.0557160638833916,
      0.209809978241391,
      -0.73204648201845,
      0.75283104894269,
      -0.858912049551985,
      0.888596690582316,
      -0.203950206173863,
      0.586494335092933,
      -0.778440647158592,
      -0.130685630781497,
      -0.42558119842745,
      0.640692024818793,
      -0.294738035476526,
      0.644194361862359,
      -0.187420239454482,
      0.873546167477927,
      -0.385345207258835,
      0.69527967071562,
      -0.0725206391851315,
      1.03442804810908,
      -0.427345046270754,
      0.855614682675108,
      -1.05189152468294,
      0.726251528712895,
      -0.618947083698019,
      0.979084428646327,
      -0.478234906858978,
      0.734000587277556,
      -0.446580337072733,
      0.595158211031588,
      -0.720151114990003,
      0.454833447124753,
      -0.510490499541558,
      0.784476994750765,
      -0.843038944987311,
      0.537994234196702,
      -0.993136758647288,
      0.415732649197866,
      -0.148336626061566,
      1.31254188068945,
      -0.171288143707958,
      0.386360082606315,
      -0.339616029488793,
      0.132933193350378,
      -0.817005491280538,
      0.174927061899508,
      0.079180312747015,
      0.431676641168721,
      -0.505003782372161,
      -0.0445534782942243,
      -0.45190823584622,
      0.049027556612076,
      -0.556870564519404,
      0.839125127930177,
      -0.529068867922327,
      0.11218146948116,
      -0.207862197138892,
      0.295390195195399,
      -0.752799980176542,
      0.146867725373912,
      -0.320520751371115,
      0.297749265252532,
      -0.400047964424969,
      -0.0680209084300383,
      -0.181190485327498,
      0.255033291027214,
      -0.337126978263827,
      1.24953994352061,
      -0.240667689611302,
      0.321617104849649,
      -0.338929102198235,
      0.866801016814549,
      -0.285154908614233,
      0.488501629818433,
      -0.0632611654168622,
      0.463630176877943,
      -0.360315753941877,
      0.605270721774707,
      -0.906189490191595,
      0.613001650207458,
      -0.913290220441662,
      0.216172666379362,
      -0.0905967553481268,
      0.441790440394125,
      -0.144683095649826,
      0.983998492890211,
      -0.516276815566385,
      0.790599549748235,
      -0.520288832311169,
      0.526217118547442,
      -0.723298327023165,
      0.328777265103583,
      -0.770491310998539,
      0.226633966176196,
      -0.432968649444625,
      0.592033010211106,
      -0.686028453929661,
      0.334351159290311,
      -0.0807633480899431,
      0.526872149061344,
      -0.447269622076176,
      0.362703485815574,
      -0.60365552501074,
      0.528821533545363,
      -0.723831188706806,
      0.236604858126852,
      -0.910203039043153,
      0.206454916975564,
      -0.629378569427172,
      0.275281912751165,
      -0.57551697078942,
      0.514865276884339,
      -0.310709850775578,
      0.516838305332697,
      0.187278747207542,
      0.175953441518253,
      -0.558480707701767,
      0.679899854865041,
      -1.08109230959852,
      -0.124583872960586,
      -0.940807889308209,
      0.486588372939942,
      -0.755439545359481,
      0.674076102451682,
      -0.608034069101162,
      0.525164820561647,
      -0.341178029919877,
      0.949513349652843,
      -0.606426975556007,
      1.03600317857749,
      -0.308153269419965,
      0.336579188055569,
      -0.539968141461382,
      0.0871360210730621,
      -0.28184985043096,
      0.73666590656869,
      -0.453123648032653,
      0.745349751608432,
      -0.587544179329436,
      0.822037004573191,
      -0.045596273857355,
      0.628348329405288,
      0.0779990877464691,
      0.107018912207154,
      -0.345640852421252,
      -0.271659673876689,
      -0.603256698354353,
      -0.220607029483477,
      -0.745518828948344,
      -0.26902235891711,
      -0.506862720516763,
      0.536453949700098,
      -0.466824757800828,
      0.701515993129672,
      0.104981906446717,
      0.8027167354496479,
      -0.298046468205706,
      0.987809302524007,
      -0.511465542480313,
      0.360289013906409,
      -1.02500895697431,
      0.690309953930021,
      -0.45607024982706,
      0.835079211267954,
      -0.821346533243103,
      0.41107415371182,
      -0.914012850059665,
      0.125388210325945,
      -0.178165242164905,
      0.485254948261898,
      -0.501338068316821,
      0.538083961061819,
      -0.532165547382467,
      -0.193074329831957,
      -0.578619093146378,
      -0.294158321834719,
      -1.15017364444098,
      0.000627738709692881,
      -0.885996100780147,
      0.35434417207274,
      -0.418788484833209,
      0.158027678958185,
      -0.572019144573118,
      0.780735892305926,
      -0.569732455014551,
      0.672555000710225,
      -0.498452196956095,
      0.737139256809404,
      -0.265263664592134,
      0.486667143920406,
      -0.0951932670777355,
      0.505917407430822,
      -0.0873896113732659,
      0.318658903091785,
      -0.85442590224809,
      0.23101034979896,
      -0.0873927648083035,
      0.397567281396,
      -0.022621834439777,
      0.792543168880149,
      -0.160399502870058,
      0.0779399677839152,
      -0.256283196824137,
      0.596065636373845,
      -1.07158962178282,
      -0.0116983080937474,
      -0.914828027310129,
      0.1429677455479,
      -0.639365726286872,
      1.04530907943668,
      -0.610499305718945,
