[
  {
    "bias": -0.157708543426221,
    "weights": [
      -1.94120859730756,
      0.292732564923824,
      -1.48251728696457,
      -0.757403731181727,
      -1.12691183198497,
      0.741739694761682,
      0.117646353080891,
      0.380763816996982,
      -0.292562319962206,
      0.727935841322924,
      -0.379891238267877,
      0.659166982852556,
      1.44125695641336,
      0.885757831991537,
      1.26913055734378,
      -0.974883556870768,
      -0.0786237527121267,
      1.10752585590579,
      -1.10708364072039,
      -0.767233459372569,
      -0.759734088703917,
      -1.23685546894312,
      -1.06407058660998,
      0.840001626324344,
      -0.711263472350722,
      -3.14495607010601,
      -1.04557266559768,
      2.08226875534956,
      2.32743805041855,
      0.158306430844788,
      -0.881608501922295,
      1.31705807732483,
      -1.10233035203424,
      -0.101637225138347,
      -1.0691538868694
    ]
  },
  {
    "bias": 0.376095194079026,
    "weights": [
      2.36448541611505,
      -0.847754129263486,
      0.711409684159205,
      0.26848663215349,
      0.393459433055233,
      0.652571841389527,
      -2.56098403552584,
      0.669246894729965,
      -1.15912360687642,
      0.9533616244504169,
      0.450467623298809,
      3.28577900253913,
      -1.80109390632157,
      1.19927409245751,
      -0.67196509282727,
      -1.4817753918477,
      1.39369425485591,
      0.111961975595011,
      -0.1995672895565,
      0.195440993319655,
      -0.535807729095333,
      0.82400201244189,
      -0.269335178014344,
      -1.85217211287401,
      -0.644698289329791,
      0.477901606641048,
      0.472900517764455,
      -1.21571807190014,
      -1.49263225049959,
      0.0213343708501653,
      -0.1470997129289,
      -0.23856341372731,
      -1.0928300786557,
      0.0543607794463253,
      -2.15004057710326
    ]
  },
  {
    "bias": -0.954041418132392,
    "weights": [
      1.08074219036225,
      1.89499555117478,
      2.67319610547837,
      -1.01843171090647,
      -0.558706832414532,
      -1.29278245271962,
      2.20232396080113,
      -0.366327670922931,
      -0.213284269270455,
      0.191074661040015,
      0.349219381259017,
      -0.910086036668004,
      -1.36528703644936,
      0.619660012454484,
      1.04429468065476,
      0.934315227767639,
      -2.06798323740898,
      -0.751528737139536,
      -1.21300773671685,
      -0.192403352489958,
      -0.946225327506569,
      0.976351084572619,
      -1.13959863431572,
      -0.69624960984669,
      -0.615084886090669,
      -0.614205405971342,
      -2.6061297536376,
      1.01632770802555,
      -2.68170751833217,
      -0.30909898407911,
      -1.83480418881657,
      0.766981178618819,
      -0.28321401834824,
      0.497422143655652,
      -0.851220545840647
    ]
  },
  {
    "bias": 0.925848629291099,
    "weights": [
      -1.8335216244155,
      2.31060657519179,
      -1.46104743309013,
      -0.359449277006722,
      1.09942969090411,
      1.17604350808467,
      1.30142818683886,
      -0.362888785717188,
      -2.13198411584741,
      0.841051568735726,
      -0.411765566482151,
      -0.682766906293399,
      -1.98677537817716,
      -0.937904349054677,
      -0.655918206450437,
      -0.509084809381812,
      1.94937449374818,
      -1.59484285360182,
      -1.84122981158559,
      0.589007948209622,
      -1.49773242007042,
      0.611006210568114,
      -1.91951259354092,
      1.98735556110188,
      -1.78881315184776,
      0.905829947219219,
      1.95306869324983,
      0.744462222567006,
      0.694813235393627,
      0.331826349514389,
      -2.30439879091975,
      -1.01250058588459,
      -1.32207761445763,
      0.777844056214595,
      -1.16309198484631
    ]
  },
  {
    "bias": -0.96960392220393,
    "weights": [
      -1.96575265713099,
      -0.799385778465649,
      -0.970147591693962,
      2.81511108931532,
      -0.789381466257202,
      0.720369788716737,
      -0.86400944946704,
      -1.66546151119229,
      -0.913287375519206,
      1.95361486322701,
      0.886731722637471,
      0.268108414591304,
      0.0491651035321803,
      -0.378173427165795,
      -0.875333658154699,
      1.9953606730173,
      -1.04073905632401,
      0.294860742287266,
      -1.00532539071168,
      -0.376055638452837,
      -0.602753858230913,
      1.25055914605555,
      -0.519038530145285,
      1.10262748346171,
      -0.96330646965265,
      -0.024914266231432,
      -0.737584734496389,
      -0.695905327258966,
      -0.297358656859922,
      -3.04843330074364,
      1.36138135803509,
      1.49821022440208,
      -0.876338773164048,
      -0.774701366701272,
      -1.56089369600809
    ]
  },
  {
    "bias": 0.0352605562821313,
    "weights": [
      0.0537944529285509,
      -0.354463750505849,
      0.00631305118244578,
      0.447440184059778,
      -1.51690993897829,
      -0.0164292340166846,
      -1.22808934135425,
      -0.0168984779373599,
      2.71672448119492,
      1.23899688842579,
      -3.68332440620699,
      0.308341428837493,
      1.14470286852655,
      1.4276368492851,
      -0.758251003539375,
      -0.829070018609881,
      0.673917883653497,
      1.60443798666626,
      -1.5979870274864,
      1.85512310197599,
      -0.61767871303947,
      -0.496400949077946,
      -0.725750418233645,
      -0.0956314483421584,
      -1.41363434748353,
      3.36045959863384,
      0.214800694198417,
      -0.240499697839148,
      -1.53259981541309,
      -0.720176296317812,
      -1.31334295672628,
      -1.0112705409692,
      -1.24360442131717,
      -1.26275815932432,
      -0.755858254120204
    ]
  },
  {
    "bias": -0.943376687328972,
    "weights": [
      1.82424955665705,
      -2.48752200236873,
      -1.63073108556689,
      1.67481612387434,
      -0.247010115587673,
      0.19065092931495,
      -1.94272493679199,
      1.73932171680775,
      0.366235026960247,
      -1.21277602012309,
      0.870659168002827,
      -0.037540880689809,
      -1.43838136470068,
      0.165139810144516,
      -0.671190097433721,
      1.31393255379982,
      -1.5951124347181,
      0.537824439881764,
      -1.27583812362526,
      -0.442398589750166,
      -1.09887375208079,
      1.0281721403177,
      -1.27217510528701,
      1.22302587630385,
      -0.591711301810805,
      0.105890177185127,
      -1.81540346204622,
      1.79865389362324,
      1.36109321878471,
      -0.0121074624946056,
      -0.544407376777611,
      -0.912598987584899,
      -1.29194528273817,
      0.714416441305541,
      -0.653532070762633
    ]
  },
  {
    "bias": 0.819853374650634,
    "weights": [
      -1.97745676657289,
      2.09169721757844,
      -0.438739058466966,
      0.205174607044031,
      -0.218278802953661,
      0.733421765081595,
      0.544187070839896,
      1.74025604354007,
      -1.67391800863751,
      -0.672071856681486,
      -1.30449928142844,
      0.211677797893387,
      0.186090399789732,
      -0.0844209211994965,
      -1.5654932292573,
      0.867210618953036,
      -2.06251553374187,
      -0.216451548341931,
      -0.813206040006499,
      -1.25808583735129,
      -0.872179681942292,
      -2.44528762794174,
      -1.28467572379178,
      -2.38721237930334,
      -0.824105847096658,
      1.23543784162153,
      1.98526740589047,
      -1.33252040673574,
      1.36748927579722,
      0.283776421162202,
      1.74126569444831,
      0.99588673694236,
      -1.28733258228097,
      1.26686354499425,
      -0.373064762761733
    ]
  },
  {
    "bias": -0.466493183032839,
    "weights": [
      0.469108667427436,
      -0.964678505371933,
      -2.44328746303403,
      -0.374596436254574,
      -0.375605781744229,
      -0.546575067962266,
      -0.289671160443045,
      -0.821369568022356,
      -1.08678343156797,
      0.430715665896982,
      2.11850199902475,
      -1.02631449892399,
      0.646515673962834,
      -1.26599900092568,
      0.572111265307039,
      -2.69758503376651,
      -2.29281487486215,
      1.76053948705063,
      -1.73978977542791,
      0.931605170467556,
      -2.05323793464461,
      0.943507341541393,
      -1.48967282828724,
      1.47889970276617,
      -1.71331862236232,
      -0.657129686425213,
      0.959192730136646,
      -2.30733479892278,
      -2.0808153572663,
      1.88821775733731,
      -1.27414240413749,
      0.780919679908918,
      -1.53334756061763,
      2.4315092318364,
      -0.593514868724917
    ]
  },
  {
    "bias": 0.974484086490462,
    "weights": [
      -1.77967026646496,
      -2.10832679619132,
      -1.10919187165177,
      -2.61145519286109,
      0.595849189502929,
      0.533448932893238,
      -0.719076199691976,
      -0.341200810281686,
      -1.40437533865193,
      -1.73868178394741,
      1.59495630875575,
      0.49495185103459,
      0.368489657163477,
      0.282354363666445,
      -1.19837927214991,
      1.2773288113911,
      1.10864552751441,
      -0.259651710378081,
      -1.58338889475246,
      0.839668601485231,
      -1.52242128193572,
      1.59633966949936,
      -1.33138325028099,
      2.53764683275454,
      -1.45874527719575,
      -0.828696582558003,
      -0.327509199085423,
      0.338074448066135,
      -1.48056449987175,
      2.68242729661862,
      2.11347454919593,
      0.682408921791443,
      -1.61275913054577,
      -2.46197100261877,
      -1.33370661789058
    ]
  }
]
