[
  {
    "bias": -0.6068239838848,
    "weights": [
      -1.61563417348793,
      0.589690646091347,
      0.0436710978755889,
      1.82695263666811,
      -1.74460730251232,
      1.64118530012513,
      -1.01825730173331,
      1.08629299738152,
      -2.81120352287461,
      1.69189431050061,
      -2.93033782936664,
      0.436008994771778,
      -1.4595011679593899,
      -1.82842934696361,
      -0.681831534007404,
      -0.447559180046325,
      -0.952506187435711,
      0.391297857587382,
      -3.28828503425685,
      0.0406553232484173,
      2.94655600803855,
      -1.13798028152261,
      -1.6304317951526,
      0.183833289654329,
      -1.77000786438958,
      -2.09837702579345,
      -1.52032310708121,
      -1.53653876686407,
      2.63369363448258,
      2.74175651751871,
      0.359733711772546,
      -1.72868472899567,
      -0.160758055294655,
      -1.24927750493716,
      2.52385982434613,
      0.915444282993623,
      -2.23052771973326,
      1.02104764196719,
      -0.340956635020104,
      1.73551732658567,
      -1.15303294384294,
      2.64515418176049,
      -1.67965956098648,
      1.48799331357376,
      -1.43702525240163,
      -1.74936030785731,
      2.12711824852766,
      1.16388891596945,
      1.49995448003758,
      0.145623173943448,
      -0.234167673563701,
      -0.725950644297495,
      -0.789239345384872,
      1.93056533369807,
      -1.89398639982943,
      -2.70104585948064,
      0.709818130048498,
      0.123122876962179,
      -2.47054129044877,
      -0.0789820044908722,
      -1.52884794057438,
      0.895598875305245,
      -2.2433451508124,
      -0.963892291820708,
      -0.749325022088301,
      0.116917691934127,
      -1.1117797766865,
      0.683055264327644,
      -0.549469362045529,
      -1.07041455727994,
      3.74814350146502,
      1.20476227320675,
      1.4734391572403,
      0.121396161160002,
      0.856972703005731,
      -0.0310995490449314,
      1.25852348602681,
      -2.54799316139573,
      -3.28671324151028,
      -1.26366415305526
    ]
  },
  {
    "bias": 0.895728733807676,
    "weights": [
      -0.154249727623367,
      3.07281822208159,
      -0.0823543401280376,
      1.75918400516762,
      -0.822479342343524,
      -0.856211825916374,
      -0.525984497816045,
      -1.21733644689659,
      -0.240193170394397,
      1.15013417120221,
      -1.83607353250902,
      -1.61528518440046,
      -2.86834420905434,
      2.0844562490898,
      0.64175743340836,
      -0.885081617337951,
      -0.0881032112897046,
      -1.13231163265599,
      1.25820009211375,
      -2.10289063708187,
      -1.99286587688541,
      -1.50731938068898,
      -1.04999840748486,
      0.499080582696084,
      -0.584070771860257,
      -0.54214031906817,
      0.794432842152281,
      -1.23634277871949,
      0.351338312434599,
      -2.41589599174508,
      -1.20783885268126,
      0.069859614994045,
      -1.07021635117449,
      2.0519355586129,
      2.56981828919792,
      1.39096977740981,
      -1.56790715794239,
      -1.1146172342461,
      1.04708540469208,
      -0.0614387801026475,
      -0.812893487139973,
      -0.032616273690265,
      -0.909346497487608,
      0.94427242098962,
      0.00947697817302301,
      -0.188569793749031,
      -0.365018894015185,
      0.780254881279018,
      0.384451012864401,
      -3.0126703957808,
      -1.71042020696293,
      0.746766877045994,
      1.55762434166399,
      0.0327469645307792,
      0.340020506098987,
      1.26677342310027,
      -3.11791449809648,
      -0.510209711324115,
      -0.212377503271937,
      3.19209562956894,
      1.8206094041511,
      -0.130455068439797,
      1.40829666070955,
      1.4762380474442,
      0.898808756813163,
      0.298972549210456,
      0.590215187794536,
      2.98343300299878,
      2.45125871623633,
      -1.37031454911753,
      -0.638768666485792,
      0.969715805478963,
      2.10473047622125,
      1.13981152762234,
      -3.28777551023037,
      -0.251776830939105,
      -0.26653426171627,
      1.75138023265873,
      0.24787480470433,
      -1.41695347823912
    ]
  },
  {
    "bias": -0.695728577066086,
    "weights": [
      -1.15931084486929,
      -3.97960949145602,
      2.86263463911466,
      -1.25295524313942,
      -1.44074708948034,
      -0.0422789260662429,
      2.61878465659595,
      -3.62686830754913,
      0.368632342448122,
      -2.92947891116087,
      -1.503077156377,
      1.10963987105498,
      -0.926174621174024,
      -0.891209839236988,
      1.49382779902588,
      0.191308983773501,
      -1.4396601828007,
      2.2591278991966,
      0.080184531812937,
      3.15461715299282,
      -2.84884246213859,
      -2.19709397970493,
      -1.22198646777513,
      -2.49275240769095,
      -0.898710924206655,
      -4.44604879942498,
      -2.52523218471697,
      2.1010234241656,
      0.905116383369743,
      0.124233145507822,
      -1.24065161782482,
      -0.876107165575716,
      -4.50943427768088,
      -0.460519822393445,
      0.89696902638668,
      0.74330041311415,
      -0.239682615592134,
      1.84296292802416,
      0.240997002891746,
      1.90979872794819,
      -0.232986314570774,
      -1.01724650015656,
      1.47294380171933,
      -2.15036620250948,
      4.14409640944351,
      2.1445965692643,
      -0.94028079476268,
      -1.28606447340095,
      1.33225101183791,
      1.577659766832,
      2.41158697190988,
      1.33421974178239,
      -2.0628389730187,
      2.05497004351943,
      -0.625636701267071,
      1.40993040599492,
      -1.38930227589964,
      -4.43594484285637,
      -1.58094951552063,
      1.17571209751695,
      -1.33392532272643,
      0.363716343820603,
      0.573823466133471,
      -3.10053809365865,
      -2.07640228335609,
      0.223991781605348,
      -1.2194794481379,
      -0.716666767920457,
      2.06622441199154,
      -0.52351619390218,
      1.06153578651663,
      1.01139985324529,
      0.820138340658748,
      -2.63339761840109,
      -1.38116039337182,
      3.62323411766123,
      -0.0171743965127821,
      -1.18685863976333,
      -1.29553194785899,
      1.17205720710874
    ]
  },
  {
    "bias": 0.140750136291958,
    "weights": [
      -3.09932821569405,
      -0.137756503000192,
      -1.79485865120856,
      1.19769361358177,
      -2.77081165881231,
      -1.43983148922232,
      1.92046280351952,
      3.46197380334823,
      2.74050482465444,
      -0.161985970861016,
      -2.00493912143225,
      2.44594875097848,
      0.261004854181632,
      -1.74242692761128,
      3.22534805343954,
      -1.32920832883947,
      3.19090012961216,
      -1.25815100591045,
      0.73028899479549,
      -1.54246964206529,
      2.1673043489435,
      -2.28209773221004,
      -1.87803554833915,
      -2.30787096405417,
      -2.62363057279763,
      0.929804370925917,
      1.93603753078647,
      0.852616395873269,
      0.151156181830346,
      5.04031724099975,
      0.664945107614607,
      1.31020156804201,
      -3.53587047167836,
      -0.75062818521697,
      -0.970691561399207,
      0.572181117192517,
      -2.32059026154592,
      -0.654821846427189,
      -0.643231417567613,
      1.81995015512463,
      -2.16570470069703,
      2.39868851237014,
      -1.69928159462625,
      -0.767190912550242,
      -4.10183205463783,
      0.00979245088990009,
      -1.19977149819865,
      2.40133878090136,
      0.770690680115812,
      -0.151139252019117,
      -0.689565077565032,
      -0.845761037142188,
      -4.65261429009518,
      -1.11291208523075,
      -1.50280319345536,
      1.18455099455402,
      1.54693398447483,
      -2.85477779649498,
      -1.28534317906037,
      2.34979969806997,
      0.386237560923896,
      -3.01465964927215,
      -2.80956391062598,
      2.06056091364518,
      1.75247362487966,
      -0.64340105417299,
      -4.59228810520731,
      -0.281025137892796,
      -1.66783258819164,
      0.811556280672801,
      -1.45651117961353,
      2.38106467512147,
      -0.525835729233736,
      0.175723360896508,
      -3.94207174284906,
      -1.81398829909176,
      -2.20915505268314,
      1.85173336947905,
      0.0236924055369557,
      -3.96134810090461
    ]
  },
  {
    "bias": -0.923736480494838,
    "weights": [
      -1.45607892907349,
      0.745418159693378,
      -2.45509122483579,
      -2.08121174213845,
      -1.51013757490445,
      2.82339398408152,
      -0.238079713704666,
      0.716744999469005,
      -2.10995489704001,
      -0.933862511033766,
      -0.11113026246306,
      2.73518335019906,
      -2.48170936455148,
      1.3161106262335,
      -1.89915419005734,
      -3.48415808185566,
      -1.23260408922175,
      0.838445904876205,
      2.42238847361089,
      -1.05454467122612,
      3.5765896983956,
      -1.58464101446034,
      -1.61886522814662,
      2.1805512966836,
      -1.51878208106997,
      1.55350459057056,
      -0.751935829759987,
      -0.366265083211546,
      -2.73457212435461,
      -0.68530469275244,
      -0.928433265752572,
      2.31020108754106,
      2.13372249022907,
      -0.892862758540845,
      1.04783811691718,
      1.40868145838799,
      4.52947871966711,
      -0.287511920047795,
      -0.565477146767305,
      -0.598908630335222,
      -3.11038738373509,
      -0.198363817455348,
      -2.61022068030447,
      -0.909360752141159,
      -0.718319899034035,
      -1.06466975428471,
      -2.47294090854906,
      -0.463524508382497,
      1.46947728929417,
      -0.246739013208524,
      -1.78210795166074,
      1.63759103383643,
      0.370017426101328,
      0.226348456296474,
      -1.0719642983303,
      1.29798637635899,
      -0.635844020408166,
      3.19072419151241,
      -4.44386641598232,
      2.47198576790981,
      -3.58185520140191,
      -2.4295949199163,
      2.3439118651223,
      0.024544381350199,
      -1.74568229813132,
      3.77509399220705,
      -1.74361088588972,
      -3.10807894448119,
      0.850098125103114,
      3.05431193996487,
      -0.322567992841559,
      0.977476337492953,
      -3.12507851261598,
      0.381683702212917,
      1.07879398595292,
      1.73438447956376,
      -0.808546812923284,
      2.44247947564456,
      -0.248259372633432,
      -1.49152850305096
    ]
  },
  {
    "bias": 0.610626125992567,
    "weights": [
      -1.18506872162807,
      0.391452000535287,
      -0.183627296973286,
      -1.51251489055489,
      -0.63580257567147,
      -2.66360220327904,
      -1.0879385971607,
      -1.55301453205437,
      -0.173825191895109,
      -0.833516273559367,
      2.10524985899506,
      -0.377761106152056,
      2.03818610347232,
      -1.37148707469934,
      -3.33472021348593,
      -0.198405517193865,
      3.66941783298637,
      2.33360239238637,
      0.6953351194269,
      0.0752251784119503,
      0.741289541927407,
      3.19011815233772,
      -0.234740368220788,
      -2.82329293195574,
      -1.42367483566952,
      -2.06277059894547,
      -2.48877314842136,
      1.75832403376692,
      -1.44493748444572,
      3.26761827171748,
      -2.60848229401712,
      1.41189348862062,
      1.08359737533727,
      5.37887092788444,
      -4.65894791310067,
      0.31532173076487,
      1.82936910124384,
      0.862844416986857,
      -1.61937873462878,
      -2.24856213589413,
      -1.0087569907674,
      -2.92905104818019,
      0.422489406011159,
      5.1161227785569,
      -0.933268049324707,
      0.450186406354832,
      -1.22022167074781,
      0.270373106796905,
      -1.48667510787291,
      -1.12116080922045,
      -1.84668284683814,
      1.29052222391302,
      2.36487360225817,
      -1.4653114045664,
      -1.31040770105816,
      2.20394539934817,
      0.200102829676873,
      2.86293023852267,
      2.23381651744929,
      -3.4758208223687,
      0.420199358539995,
      1.48699400556182,
      -1.70322515349949,
      -2.87165299569734,
      0.423160781040421,
      1.36076503603914,
      4.54695114578501,
      -1.27969875946657,
      -2.23684305504544,
      0.84129902743374,
      1.27552613383468,
      -3.24944823750008,
      0.111831370468939,
      2.21201755949787,
      -3.35769110711326,
      -2.26017569030874,
      1.4944856808364,
      -0.0567283825911089,
      0.787738880815033,
      1.53409572896536
    ]
  },
  {
    "bias": -0.641506057531343,
    "weights": [
      -2.51078997886596,
      1.07314165540635,
      -0.892570189572837,
      1.92134864890312,
      -2.52849892210891,
      1.67510096896419,
      -1.59340396300002,
      1.97817387511304,
      0.917587404068187,
      1.35654995736636,
      -2.79599994798585,
      -0.473889218169865,
      0.2793531229519,
      1.88644651550604,
      -0.435413258387761,
      -1.09795852357855,
      1.20200031432354,
      -2.77643908212613,
      -2.22714508104256,
      -0.409412219055819,
      -0.982993605375325,
      2.9982660997454,
      -1.92285554116672,
      1.90001788340211,
      -1.70715526096842,
      1.72835118505608,
      -2.68950391169893,
      -1.43010075086681,
      -2.15856712694078,
      -1.96778781198398,
      2.26931276027184,
      -3.64660552052878,
      1.5011269323091,
      1.78661597158048,
      -1.79639157265826,
      1.180311067403,
      1.42997430275343,
      0.49781590008865,
      -0.424783097874518,
      -0.347964481106834,
      -1.72889863601534,
      -1.00413271187997,
      -1.08529419889735,
      0.284895480587807,
      -0.247043956353641,
      -2.37107987344387,
      1.09280470390373,
      -0.983621035110358,
      -0.388156167393707,
      0.394945642252261,
      0.362357362526185,
      1.84303599239097,
      0.785682672837478,
      2.99816305571858,
      -1.5237507596336,
      -1.79504997036688,
      -3.05243355159006,
      -0.0528200957291533,
      3.41922409425313,
      0.151348410836379,
      0.690406526353287,
      0.419687938951174,
      -2.49095235523514,
      0.678863356661802,
      -2.81347599786582,
      -2.85487528235888,
      -1.50297592448746,
      3.57378742394667,
      -0.0487953545279025,
      0.486667541457075,
      -0.663253386920101,
      -0.650360644662593,
      0.595104137381273,
      -1.28860344759515,
      0.413912969868781,
      -1.63413403869046,
      -0.626959448072593,
      0.348882716782642,
      -0.955706449962483,
      -0.0616093986371936
    ]
  },
  {
    "bias": 0.553895025306332,
    "weights": [
      -2.10082913673959,
      2.56478613044184,
      -1.8148743583543,
      0.538123659592075,
      -1.10658165045979,
      1.34726845331409,
      1.28465292011743,
      0.403616767426045,
      0.0212900785591873,
      -2.11231619321884,
      -1.15133664766268,
      -0.772636898801599,
      -0.9569862052805,
      3.54429583873155,
      -1.5567640084225,
      0.326596529270587,
      -0.422585764850497,
      1.6577795844313302,
      -2.48451638790041,
      -0.295557653679483,
      2.64441280675708,
      -1.3028408518696,
      -1.51152676789986,
      0.218453020693722,
      -1.10409527124954,
      2.57176747947593,
      0.97111231127075,
      0.428823693406719,
      1.01148299145803,
      -2.11372031062018,
      -0.567403313156471,
      2.46793887767352,
      -2.63029142467515,
      0.0534269602866379,
      -0.268258169213175,
      0.514563574270057,
      -0.945274526057116,
      1.86524498458107,
      -1.06460402822301,
      -4.24130779835992,
      -1.39304417519938,
      1.35625933364991,
      -1.55172347909062,
      -0.362310853009361,
      3.3018829970189,
      2.41809838765066,
      -0.889231313353445,
      3.54530240232866,
      -1.9601041178368,
      2.04371018494365,
      -0.668469784646932,
      -0.94050979336114,
      -2.88563603035078,
      -2.3328329884446,
      -1.37208596764264,
      -1.35094952967485,
      -0.288675356989569,
      -0.36224964955891,
      4.18956010987695,
      -0.00288765380513374,
      -0.303661752507907,
      -0.439695513587036,
      0.496251325839447,
      0.906732488844597,
      -0.595765547982631,
      1.30474914669341,
      0.359756594790044,
      -0.775508874914059,
      -0.673424149952441,
      -1.42098131931146,
      1.51839672804429,
      0.818683658642348,
      -4.65538517613345,
      3.36884317381533,
      2.7142307080332,
      -3.02377486522862,
      3.09152932242053,
      0.497497913302854,
      -1.01966894707006,
      -1.32557124777484
    ]
  },
  {
    "bias": -0.663472449250274,
    "weights": [
      -3.13962832436008,
      -2.1195316546295,
      0.421264032700684,
      -0.513099883694102,
      -3.43121562531917,
      3.091526494942,
      -2.59385263976218,
      3.77882945467126,
      -1.70669592349931,
      0.251779943142229,
      0.452408646412057,
      0.530534172191895,
      0.0704941609761962,
      1.24160123370804,
      2.7644725141754,
      1.34299303616906,
      -2.8584508001395,
      -2.27768161467465,
      1.09260064886347,
      -2.4298816280746,
      0.750901015783223,
      -3.80598533176148,
      -3.13635178243181,
      4.8404461395595,
      -3.43733014912926,
      0.0612901968299188,
      -1.42059129003948,
      3.61385182823372,
      -2.50046423844157,
      -2.36656979562257,
      -2.15912997019444,
      -0.887985548320453,
      0.366565845445437,
      -2.32718863815682,
      -0.701219838770261,
      -0.120062427799662,
      -0.548248546677697,
      2.16015491818904,
      0.471285010953711,
      0.0108479674995896,
      -2.06798007462136,
      -2.58194754891486,
      -1.55460808912341,
      -2.53255906122011,
      -2.69613105669373,
      1.85472081913988,
      2.27326837473051,
      2.05933679698346,
      1.07906891532123,
      0.249646301781003,
      -0.126969227924359,
      0.268227182233957,
      -0.279664808064916,
      -2.07790112902759,
      -2.88949549751934,
      -1.92970269003221,
      0.694702425665483,
      1.50443154973038,
      -1.43489213107833,
      -1.11824554503386,
      4.53007068629488,
      0.28459096247693,
      1.78806694655109,
      -3.54452710371015,
      -2.08835889657938,
      1.86689997057284,
      -1.56875578073162,
      2.85570086153826,
      -5.92662305397626,
      -0.279874148715943,
      -2.15586172628694,
      0.574500193675929,
      -0.133729794752191,
      -0.804502153177658,
      -1.66411166162091,
      1.80216050805253,
      -2.40608624886629,
      1.23707083885953,
      -2.01545569693956,
      2.18313826696775
    ]
  },
  {
    "bias": 0.0995048857757379,
    "weights": [
      -1.99388437128316,
      -2.63292325235839,
      2.58162693951478,
      0.26132043896984,
      -2.14065655795082,
      -3.0716887959126,
      -1.21334192816896,
      -1.0191693715083,
      -4.19928322603285,
      2.98119530560982,
      0.528009730060762,
      -1.5524158364836,
      0.11567071076295,
      0.19999647901755,
      1.06957498790978,
      3.5274199091364,
      -0.800893062643099,
      -1.06817984001567,
      2.19962866440817,
      0.777906535955847,
      0.82419674023146,
      1.25232577182366,
      -2.05128790531572,
      2.2888325240248,
      -2.15983048391263,
      2.17484879992383,
      -0.702333483246509,
      0.0439800530749937,
      -0.457838346671592,
      1.79970273647851,
      1.73893037904592,
      0.696151471502794,
      -0.327868642554752,
      0.758176967779259,
      -1.82096811928372,
      1.53360401538794,
      -1.57314690557485,
      -0.83219229455219,
      2.68323378420875,
      3.03388568958435,
      0.092816067098393,
      0.469878984603757,
      0.257392799834766,
      -2.30408928999054,
      -4.67650805497228,
      -1.96180798854839,
      3.65587678760085,
      -1.98974654362966,
      -2.64080963108013,
      -1.39435031340923,
      2.41176139852587,
      -2.65355536478253,
      1.25424152299219,
      2.08109089823104,
      -1.7200002304109,
      -0.745030326823362,
      1.22545278680643,
      -2.12222021896723,
      -1.54750741781732,
      -1.37208376152851,
      -4.70805078774752,
      1.08465855154411,
      -2.01674734006778,
      0.838338116556655,
      0.674727777426011,
      -2.28750771761123,
      0.168482577815665,
      1.64828733637371,
      0.894927348800448,
      -4.3464515463344,
      -1.46015841073458,
      -0.299784941023563,
      -3.00395772622668,
      1.03572355366448,
      2.67379498517653,
      -1.12752899924728,
      -4.09074405506293,
      -0.583863248071225,
      -1.37787154279376,
      2.05563628679175
    ]
  }
]
